digraph Tree {
0 [label="mmc1_mass <= 97.8537\ngini = 0.499404947615\nsamples = 16419", shape="box"] ;
1 [label="mmc1_mass <= 85.9465\ngini = 0.372468283737\nsamples = 5519", shape="box"] ;
0 -> 1 ;
2 [label="dR_tau1_tau2 <= 1.5634\ngini = 0.258266648621\nsamples = 3030", shape="box"] ;
1 -> 2 ;
3 [label="tau_pt_ratio <= 3.4607\ngini = 0.235668748121\nsamples = 2841", shape="box"] ;
2 -> 3 ;
4 [label="mmc1_mass <= 62.4912\ngini = 0.211480028887\nsamples = 2694", shape="box"] ;
3 -> 4 ;
5 [label="gini = 0.0370\nsamples = 557\nvalue = [ 0.01714996  0.00032931]", shape="box"] ;
4 -> 5 ;
6 [label="tau_pt_ratio <= 1.4410\ngini = 0.23381600546\nsamples = 2137", shape="box"] ;
4 -> 6 ;
7 [label="mmc1_mass <= 83.3407\ngini = 0.15009410901\nsamples = 857", shape="box"] ;
6 -> 7 ;
8 [label="tau_pt_ratio <= 1.1561\ngini = 0.0943890497047\nsamples = 705", shape="box"] ;
7 -> 8 ;
9 [label="gini = 0.1560\nsamples = 244\nvalue = [ 0.01085452  0.0010118 ]", shape="box"] ;
8 -> 9 ;
10 [label="gini = 0.0480\nsamples = 461\nvalue = [ 0.01643478  0.00041422]", shape="box"] ;
8 -> 10 ;
11 [label="gini = 0.2695\nsamples = 152\nvalue = [ 0.00981389  0.00187616]", shape="box"] ;
7 -> 11 ;
12 [label="mmc1_mass <= 72.4631\ngini = 0.27283273206\nsamples = 1280", shape="box"] ;
6 -> 12 ;
13 [label="gini = 0.3715\nsamples = 313\nvalue = [ 0.01306845  0.00427652]", shape="box"] ;
12 -> 13 ;
14 [label="mmc1_mass <= 81.0760\ngini = 0.23930257575\nsamples = 967", shape="box"] ;
12 -> 14 ;
15 [label="tau_pt_ratio <= 2.1792\ngini = 0.159193875526\nsamples = 545", shape="box"] ;
14 -> 15 ;
16 [label="gini = 0.0727\nsamples = 346\nvalue = [ 0.01730278  0.00067903]", shape="box"] ;
15 -> 16 ;
17 [label="gini = 0.2732\nsamples = 199\nvalue = [ 0.00978028  0.00190826]", shape="box"] ;
15 -> 17 ;
18 [label="sum_pt_full <= 253598.7031\ngini = 0.306560501062\nsamples = 422", shape="box"] ;
14 -> 18 ;
19 [label="gini = 0.2382\nsamples = 177\nvalue = [ 0.0104247   0.00167182]", shape="box"] ;
18 -> 19 ;
20 [label="gini = 0.3455\nsamples = 245\nvalue = [ 0.01446511  0.00412872]", shape="box"] ;
18 -> 20 ;
21 [label="gini = 0.4333\nsamples = 147\nvalue = [ 0.00832235  0.00386968]", shape="box"] ;
3 -> 21 ;
22 [label="gini = 0.4268\nsamples = 189\nvalue = [ 0.01038067  0.00463539]", shape="box"] ;
2 -> 22 ;
23 [label="tau_pt_ratio <= 2.8982\ngini = 0.436339465972\nsamples = 2489", shape="box"] ;
1 -> 23 ;
24 [label="dR_tau1_tau2 <= 1.7207\ngini = 0.418244308329\nsamples = 2125", shape="box"] ;
23 -> 24 ;
25 [label="dR_tau1_tau2 <= 0.9882\ngini = 0.402847670563\nsamples = 1903", shape="box"] ;
24 -> 25 ;
26 [label="gini = 0.2243\nsamples = 189\nvalue = [ 0.01249006  0.00184521]", shape="box"] ;
25 -> 26 ;
27 [label="sum_pt_full <= 243498.8125\ngini = 0.415372363026\nsamples = 1714", shape="box"] ;
25 -> 27 ;
28 [label="mmc1_mass <= 90.8131\ngini = 0.364342532978\nsamples = 888", shape="box"] ;
27 -> 28 ;
29 [label="dR_tau1_tau2 <= 1.5266\ngini = 0.257153356117\nsamples = 391", shape="box"] ;
28 -> 29 ;
30 [label="gini = 0.1103\nsamples = 241\nvalue = [ 0.01549982  0.00096417]", shape="box"] ;
29 -> 30 ;
31 [label="gini = 0.4056\nsamples = 150\nvalue = [ 0.00837139  0.00329942]", shape="box"] ;
29 -> 31 ;
32 [label="mmc1_mass <= 92.4276\ngini = 0.419594217642\nsamples = 497", shape="box"] ;
28 -> 32 ;
33 [label="gini = 0.4669\nsamples = 121\nvalue = [ 0.00733878  0.00433673]", shape="box"] ;
32 -> 33 ;
34 [label="tau_pt_ratio <= 1.6089\ngini = 0.395262008398\nsamples = 376", shape="box"] ;
32 -> 34 ;
35 [label="gini = 0.3593\nsamples = 227\nvalue = [ 0.01374628  0.00421779]", shape="box"] ;
34 -> 35 ;
36 [label="gini = 0.4402\nsamples = 149\nvalue = [ 0.00785951  0.00382039]", shape="box"] ;
34 -> 36 ;
37 [label="tau_pt_ratio <= 1.4504\ngini = 0.450836479125\nsamples = 826", shape="box"] ;
27 -> 37 ;
38 [label="sum_pt_full <= 296881.1250\ngini = 0.388055196049\nsamples = 297", shape="box"] ;
37 -> 38 ;
39 [label="gini = 0.3243\nsamples = 174\nvalue = [ 0.01217441  0.00311194]", shape="box"] ;
38 -> 39 ;
40 [label="gini = 0.4492\nsamples = 123\nvalue = [ 0.00781678  0.00403725]", shape="box"] ;
38 -> 40 ;
41 [label="tau_pt_ratio <= 2.0018\ngini = 0.474024856829\nsamples = 529", shape="box"] ;
37 -> 41 ;
42 [label="tau_pt_ratio <= 1.7627\ngini = 0.495421554775\nsamples = 248", shape="box"] ;
41 -> 42 ;
43 [label="gini = 0.4706\nsamples = 142\nvalue = [ 0.0092485   0.00563969]", shape="box"] ;
42 -> 43 ;
44 [label="gini = 0.4960\nsamples = 106\nvalue = [ 0.00535811  0.0064156 ]", shape="box"] ;
42 -> 44 ;
45 [label="tau_pt_ratio <= 2.3644\ngini = 0.4295533922\nsamples = 281", shape="box"] ;
41 -> 45 ;
46 [label="gini = 0.3618\nsamples = 138\nvalue = [ 0.00898864  0.00279372]", shape="box"] ;
45 -> 46 ;
47 [label="gini = 0.4737\nsamples = 143\nvalue = [ 0.00745625  0.00467502]", shape="box"] ;
45 -> 47 ;
48 [label="gini = 0.4967\nsamples = 222\nvalue = [ 0.00982564  0.00835743]", shape="box"] ;
24 -> 48 ;
49 [label="sum_pt_full <= 381258.5312\ngini = 0.497865039343\nsamples = 364", shape="box"] ;
23 -> 49 ;
50 [label="gini = 0.4851\nsamples = 231\nvalue = [ 0.01023045  0.00721415]", shape="box"] ;
49 -> 50 ;
51 [label="gini = 0.4957\nsamples = 133\nvalue = [ 0.00538228  0.00648332]", shape="box"] ;
49 -> 51 ;
52 [label="mmc1_mass <= 107.3422\ngini = 0.437406369097\nsamples = 10900", shape="box"] ;
0 -> 52 ;
53 [label="mmc1_mass <= 102.4812\ngini = 0.497136661894\nsamples = 2203", shape="box"] ;
52 -> 53 ;
54 [label="tau_pt_ratio <= 2.5547\ngini = 0.499706940678\nsamples = 1047", shape="box"] ;
53 -> 54 ;
55 [label="MET_centrality <= 1.2928\ngini = 0.495660760013\nsamples = 821", shape="box"] ;
54 -> 55 ;
56 [label="dR_tau1_tau2 <= 1.2490\ngini = 0.483021936563\nsamples = 510", shape="box"] ;
55 -> 56 ;
57 [label="gini = 0.3718\nsamples = 132\nvalue = [ 0.00922917  0.00302406]", shape="box"] ;
56 -> 57 ;
58 [label="dR_tau1_tau2 <= 1.5789\ngini = 0.497204334993\nsamples = 378", shape="box"] ;
56 -> 58 ;
59 [label="gini = 0.4979\nsamples = 203\nvalue = [ 0.01045417  0.01188965]", shape="box"] ;
58 -> 59 ;
60 [label="gini = 0.4546\nsamples = 175\nvalue = [ 0.00891782  0.00478681]", shape="box"] ;
58 -> 60 ;
61 [label="sum_pt_full <= 263518.4688\ngini = 0.49783650585\nsamples = 311", shape="box"] ;
55 -> 61 ;
62 [label="gini = 0.4992\nsamples = 189\nvalue = [ 0.00799307  0.00739429]", shape="box"] ;
61 -> 62 ;
63 [label="gini = 0.4806\nsamples = 122\nvalue = [ 0.00494102  0.00736122]", shape="box"] ;
61 -> 63 ;
64 [label="gini = 0.4646\nsamples = 226\nvalue = [ 0.00662792  0.01143022]", shape="box"] ;
54 -> 64 ;
65 [label="sum_pt_full <= 273847.4375\ngini = 0.483935136149\nsamples = 1156", shape="box"] ;
53 -> 65 ;
66 [label="mmc1_mass <= 103.8841\ngini = 0.496117909831\nsamples = 623", shape="box"] ;
65 -> 66 ;
67 [label="gini = 0.4969\nsamples = 153\nvalue = [ 0.006284    0.00535988]", shape="box"] ;
66 -> 67 ;
68 [label="sum_pt_full <= 229376.9062\ngini = 0.490217366062\nsamples = 470", shape="box"] ;
66 -> 68 ;
69 [label="gini = 0.4986\nsamples = 274\nvalue = [ 0.01033203  0.01148902]", shape="box"] ;
68 -> 69 ;
70 [label="gini = 0.4664\nsamples = 196\nvalue = [ 0.0058706   0.00998346]", shape="box"] ;
68 -> 70 ;
71 [label="MET_centrality <= 1.2734\ngini = 0.45856787398\nsamples = 533", shape="box"] ;
65 -> 71 ;
72 [label="tau_pt_ratio <= 1.8591\ngini = 0.482997794266\nsamples = 318", shape="box"] ;
71 -> 72 ;
73 [label="gini = 0.4984\nsamples = 127\nvalue = [ 0.00587621  0.00657527]", shape="box"] ;
72 -> 73 ;
74 [label="gini = 0.4600\nsamples = 191\nvalue = [ 0.00582656  0.01041938]", shape="box"] ;
72 -> 74 ;
75 [label="gini = 0.3638\nsamples = 215\nvalue = [ 0.00303187  0.0096521 ]", shape="box"] ;
71 -> 75 ;
76 [label="mmc1_mass <= 174.9511\ngini = 0.389692283948\nsamples = 8697", shape="box"] ;
52 -> 76 ;
77 [label="dR_tau1_tau2 <= 1.6034\ngini = 0.376672550137\nsamples = 8547", shape="box"] ;
76 -> 77 ;
78 [label="mmc1_mass <= 113.7221\ngini = 0.301456298677\nsamples = 4680", shape="box"] ;
77 -> 78 ;
79 [label="sum_pt_full <= 281207.9062\ngini = 0.374386476914\nsamples = 1077", shape="box"] ;
78 -> 79 ;
80 [label="gini = 0.4334\nsamples = 350\nvalue = [ 0.00641662  0.01379486]", shape="box"] ;
79 -> 80 ;
81 [label="MET_centrality <= 0.8655\ngini = 0.338998468274\nsamples = 727", shape="box"] ;
79 -> 81 ;
82 [label="gini = 0.4308\nsamples = 181\nvalue = [ 0.00377563  0.00824801]", shape="box"] ;
81 -> 82 ;
83 [label="sum_pt_full <= 392857.8438\ngini = 0.290670765687\nsamples = 546", shape="box"] ;
81 -> 83 ;
84 [label="gini = 0.2268\nsamples = 356\nvalue = [ 0.00228551  0.01523625]", shape="box"] ;
83 -> 84 ;
85 [label="gini = 0.3686\nsamples = 190\nvalue = [ 0.00292669  0.00908562]", shape="box"] ;
83 -> 85 ;
86 [label="mmc1_mass <= 141.7564\ngini = 0.264068510555\nsamples = 3603", shape="box"] ;
78 -> 86 ;
87 [label="mmc1_mass <= 121.1986\ngini = 0.247175428141\nsamples = 3359", shape="box"] ;
86 -> 87 ;
88 [label="MET_centrality <= 1.0254\ngini = 0.294495627364\nsamples = 1301", shape="box"] ;
87 -> 88 ;
89 [label="tau_pt_ratio <= 1.6576\ngini = 0.353417018081\nsamples = 443", shape="box"] ;
88 -> 89 ;
90 [label="gini = 0.2715\nsamples = 227\nvalue = [ 0.00205011  0.01060353]", shape="box"] ;
89 -> 90 ;
91 [label="gini = 0.4127\nsamples = 216\nvalue = [ 0.00400603  0.0097545 ]", shape="box"] ;
89 -> 91 ;
92 [label="sum_pt_full <= 304647.8125\ngini = 0.243274679259\nsamples = 858", shape="box"] ;
88 -> 92 ;
93 [label="gini = 0.3373\nsamples = 345\nvalue = [ 0.00314664  0.01150564]", shape="box"] ;
92 -> 93 ;
94 [label="gini = 0.1619\nsamples = 513\nvalue = [ 0.00179728  0.01843496]", shape="box"] ;
92 -> 94 ;
95 [label="sum_pt_full <= 437833.5938\ngini = 0.199430410815\nsamples = 2058", shape="box"] ;
87 -> 95 ;
96 [label="MET_centrality <= 1.1744\ngini = 0.228996840962\nsamples = 1556", shape="box"] ;
95 -> 96 ;
97 [label="MET_centrality <= 0.8290\ngini = 0.162230075993\nsamples = 792", shape="box"] ;
96 -> 97 ;
98 [label="gini = 0.2565\nsamples = 309\nvalue = [ 0.00175955  0.00988736]", shape="box"] ;
97 -> 98 ;
99 [label="gini = 0.0783\nsamples = 483\nvalue = [ 0.00061112  0.01436553]", shape="box"] ;
97 -> 99 ;
100 [label="MET_centrality <= 1.3492\ngini = 0.292086302482\nsamples = 764", shape="box"] ;
96 -> 100 ;
101 [label="gini = 0.3635\nsamples = 386\nvalue = [ 0.00315272  0.01005331]", shape="box"] ;
100 -> 101 ;
102 [label="gini = 0.1941\nsamples = 378\nvalue = [ 0.00128199  0.01048548]", shape="box"] ;
100 -> 102 ;
103 [label="gini = 0.0875\nsamples = 502\nvalue = [ 0.00069678  0.01449044]", shape="box"] ;
95 -> 103 ;
104 [label="gini = 0.4063\nsamples = 244\nvalue = [ 0.00345483  0.00872825]", shape="box"] ;
86 -> 104 ;
105 [label="mmc1_mass <= 114.6603\ngini = 0.428087947554\nsamples = 3867", shape="box"] ;
77 -> 105 ;
106 [label="mmc1_mass <= 109.8202\ngini = 0.483758262101\nsamples = 733", shape="box"] ;
105 -> 106 ;
107 [label="gini = 0.4995\nsamples = 233\nvalue = [ 0.00750626  0.00801688]", shape="box"] ;
106 -> 107 ;
108 [label="mmc1_mass <= 113.1198\ngini = 0.469269984431\nsamples = 500", shape="box"] ;
106 -> 108 ;
109 [label="gini = 0.4438\nsamples = 334\nvalue = [ 0.00735503  0.01477795]", shape="box"] ;
108 -> 109 ;
110 [label="gini = 0.4966\nsamples = 166\nvalue = [ 0.00535289  0.00630781]", shape="box"] ;
108 -> 110 ;
111 [label="dR_tau1_tau2 <= 2.0933\ngini = 0.405979565227\nsamples = 3134", shape="box"] ;
105 -> 111 ;
112 [label="mmc1_mass <= 147.7388\ngini = 0.378004403011\nsamples = 2557", shape="box"] ;
111 -> 112 ;
113 [label="mmc1_mass <= 125.7504\ngini = 0.367184622568\nsamples = 2354", shape="box"] ;
112 -> 113 ;
114 [label="tau_pt_ratio <= 1.2670\ngini = 0.40691538793\nsamples = 1131", shape="box"] ;
113 -> 114 ;
115 [label="gini = 0.4776\nsamples = 277\nvalue = [ 0.00678498  0.01043006]", shape="box"] ;
114 -> 115 ;
116 [label="MET_centrality <= 1.3251\ngini = 0.370075378852\nsamples = 854", shape="box"] ;
114 -> 116 ;
117 [label="dR_tau1_tau2 <= 1.8196\ngini = 0.327067510331\nsamples = 589", shape="box"] ;
116 -> 117 ;
118 [label="gini = 0.2674\nsamples = 350\nvalue = [ 0.0030806   0.01629872]", shape="box"] ;
117 -> 118 ;
119 [label="gini = 0.3989\nsamples = 239\nvalue = [ 0.00362005  0.00953621]", shape="box"] ;
117 -> 119 ;
120 [label="gini = 0.4393\nsamples = 265\nvalue = [ 0.00514436  0.0106428 ]", shape="box"] ;
116 -> 120 ;
121 [label="tau_pt_ratio <= 1.2330\ngini = 0.31685676211\nsamples = 1223", shape="box"] ;
113 -> 121 ;
122 [label="gini = 0.1545\nsamples = 299\nvalue = [ 0.00115423  0.01252986]", shape="box"] ;
121 -> 122 ;
123 [label="mmc1_mass <= 136.6611\ngini = 0.354119766088\nsamples = 924", shape="box"] ;
121 -> 123 ;
124 [label="mmc1_mass <= 130.6751\ngini = 0.293853325912\nsamples = 627", shape="box"] ;
123 -> 124 ;
125 [label="gini = 0.3520\nsamples = 326\nvalue = [ 0.00415255  0.01406386]", shape="box"] ;
124 -> 125 ;
126 [label="gini = 0.1926\nsamples = 301\nvalue = [ 0.00135664  0.01121319]", shape="box"] ;
124 -> 126 ;
127 [label="gini = 0.4377\nsamples = 297\nvalue = [ 0.00542321  0.01133806]", shape="box"] ;
123 -> 127 ;
128 [label="gini = 0.4631\nsamples = 203\nvalue = [ 0.00445007  0.00776685]", shape="box"] ;
112 -> 128 ;
129 [label="mmc1_mass <= 140.9927\ngini = 0.473238106853\nsamples = 577", shape="box"] ;
111 -> 129 ;
130 [label="mmc1_mass <= 127.9856\ngini = 0.44297556111\nsamples = 378", shape="box"] ;
129 -> 130 ;
131 [label="gini = 0.4835\nsamples = 195\nvalue = [ 0.00524408  0.00757622]", shape="box"] ;
130 -> 131 ;
132 [label="gini = 0.3773\nsamples = 183\nvalue = [ 0.00319761  0.00947457]", shape="box"] ;
130 -> 132 ;
133 [label="gini = 0.4981\nsamples = 199\nvalue = [ 0.00748598  0.00846489]", shape="box"] ;
129 -> 133 ;
134 [label="gini = 0.3610\nsamples = 150\nvalue = [ 0.00891218  0.00275921]", shape="box"] ;
76 -> 134 ;
}