digraph Tree {
0 [label="mmc1_mass <= 97.8537\ngini = 0.499408765726\nsamples = 16419", shape="box"] ;
1 [label="mmc1_mass <= 85.4314\ngini = 0.383317531384\nsamples = 5519", shape="box"] ;
0 -> 1 ;
2 [label="tau_pt_ratio <= 3.1503\ngini = 0.269511440613\nsamples = 2949", shape="box"] ;
1 -> 2 ;
3 [label="dR_tau1_tau2 <= 1.1870\ngini = 0.246314245128\nsamples = 2764", shape="box"] ;
2 -> 3 ;
4 [label="mmc1_mass <= 58.3480\ngini = 0.157279562965\nsamples = 1320", shape="box"] ;
3 -> 4 ;
5 [label="gini = 0.0115\nsamples = 430\nvalue = [  1.21126477e-02   7.05485614e-05]", shape="box"] ;
4 -> 5 ;
6 [label="dR_tau1_tau2 <= 1.1012\ngini = 0.192853442874\nsamples = 890", shape="box"] ;
4 -> 6 ;
7 [label="sum_pt_full <= 275924.0000\ngini = 0.234650334634\nsamples = 604", shape="box"] ;
6 -> 7 ;
8 [label="gini = 0.3445\nsamples = 268\nvalue = [ 0.01115274  0.00316686]", shape="box"] ;
7 -> 8 ;
9 [label="gini = 0.1239\nsamples = 336\nvalue = [ 0.01645242  0.00116932]", shape="box"] ;
7 -> 9 ;
10 [label="gini = 0.0706\nsamples = 286\nvalue = [ 0.0119021   0.00045296]", shape="box"] ;
6 -> 10 ;
11 [label="sum_pt_full <= 268149.1250\ngini = 0.30069992548\nsamples = 1444", shape="box"] ;
3 -> 11 ;
12 [label="sum_pt_full <= 183630.7969\ngini = 0.25854346137\nsamples = 1239", shape="box"] ;
11 -> 12 ;
13 [label="gini = 0.1191\nsamples = 349\nvalue = [ 0.01427292  0.00096975]", shape="box"] ;
12 -> 13 ;
14 [label="dR_tau1_tau2 <= 1.4811\ngini = 0.294409991488\nsamples = 890", shape="box"] ;
12 -> 14 ;
15 [label="mmc1_mass <= 82.6803\ngini = 0.24608535441\nsamples = 717", shape="box"] ;
14 -> 15 ;
16 [label="tau_pt_ratio <= 1.7396\ngini = 0.190292957932\nsamples = 567", shape="box"] ;
15 -> 16 ;
17 [label="gini = 0.0834\nsamples = 334\nvalue = [ 0.0126825   0.00057855]", shape="box"] ;
16 -> 17 ;
18 [label="gini = 0.2808\nsamples = 233\nvalue = [ 0.01108794  0.00225432]", shape="box"] ;
16 -> 18 ;
19 [label="gini = 0.3508\nsamples = 150\nvalue = [ 0.00920115  0.00269977]", shape="box"] ;
15 -> 19 ;
20 [label="gini = 0.4152\nsamples = 173\nvalue = [ 0.00846316  0.00352482]", shape="box"] ;
14 -> 20 ;
21 [label="gini = 0.4383\nsamples = 205\nvalue = [ 0.01008648  0.00484095]", shape="box"] ;
11 -> 21 ;
22 [label="gini = 0.4274\nsamples = 185\nvalue = [ 0.01059593  0.00475004]", shape="box"] ;
2 -> 22 ;
23 [label="tau_pt_ratio <= 2.8982\ngini = 0.4403607588\nsamples = 2570", shape="box"] ;
1 -> 23 ;
24 [label="MET_centrality <= 1.2528\ngini = 0.424159239684\nsamples = 2197", shape="box"] ;
23 -> 24 ;
25 [label="dR_tau1_tau2 <= 1.0597\ngini = 0.384233171735\nsamples = 1330", shape="box"] ;
24 -> 25 ;
26 [label="gini = 0.1652\nsamples = 194\nvalue = [ 0.01317981  0.0013176 ]", shape="box"] ;
25 -> 26 ;
27 [label="sum_pt_full <= 247378.1875\ngini = 0.40866467257\nsamples = 1136", shape="box"] ;
25 -> 27 ;
28 [label="mmc1_mass <= 92.0606\ngini = 0.349330086439\nsamples = 670", shape="box"] ;
27 -> 28 ;
29 [label="sum_pt_full <= 205872.2188\ngini = 0.267647709022\nsamples = 363", shape="box"] ;
28 -> 29 ;
30 [label="gini = 0.3463\nsamples = 174\nvalue = [ 0.00931398  0.00266918]", shape="box"] ;
29 -> 30 ;
31 [label="gini = 0.1719\nsamples = 189\nvalue = [ 0.01074095  0.00112678]", shape="box"] ;
29 -> 31 ;
32 [label="tau_pt_ratio <= 1.5498\ngini = 0.411323029094\nsamples = 307", shape="box"] ;
28 -> 32 ;
33 [label="gini = 0.3593\nsamples = 154\nvalue = [ 0.00973994  0.00298797]", shape="box"] ;
32 -> 33 ;
34 [label="gini = 0.4533\nsamples = 153\nvalue = [ 0.00786249  0.00418197]", shape="box"] ;
32 -> 34 ;
35 [label="mmc1_mass <= 94.3287\ngini = 0.458679394583\nsamples = 466", shape="box"] ;
27 -> 35 ;
36 [label="sum_pt_full <= 289524.8750\ngini = 0.421385755252\nsamples = 313", shape="box"] ;
35 -> 36 ;
37 [label="gini = 0.4594\nsamples = 154\nvalue = [ 0.00913993  0.0050857 ]", shape="box"] ;
36 -> 37 ;
38 [label="gini = 0.3692\nsamples = 159\nvalue = [ 0.01042972  0.00337095]", shape="box"] ;
36 -> 38 ;
39 [label="gini = 0.4974\nsamples = 153\nvalue = [ 0.00761909  0.0065904 ]", shape="box"] ;
35 -> 39 ;
40 [label="dR_tau1_tau2 <= 1.6575\ngini = 0.463460549989\nsamples = 867", shape="box"] ;
24 -> 40 ;
41 [label="tau_pt_ratio <= 1.8046\ngini = 0.442462610187\nsamples = 690", shape="box"] ;
40 -> 41 ;
42 [label="MET_centrality <= 1.3153\ngini = 0.41034940743\nsamples = 453", shape="box"] ;
41 -> 42 ;
43 [label="gini = 0.4571\nsamples = 121\nvalue = [ 0.00755396  0.0041305 ]", shape="box"] ;
42 -> 43 ;
44 [label="MET_centrality <= 1.3872\ngini = 0.388914635359\nsamples = 332", shape="box"] ;
42 -> 44 ;
45 [label="gini = 0.3519\nsamples = 179\nvalue = [ 0.01126172  0.00332379]", shape="box"] ;
44 -> 45 ;
46 [label="gini = 0.4161\nsamples = 153\nvalue = [ 0.01214282  0.00508537]", shape="box"] ;
44 -> 46 ;
47 [label="gini = 0.4855\nsamples = 237\nvalue = [ 0.01271219  0.00900743]", shape="box"] ;
41 -> 47 ;
48 [label="gini = 0.4999\nsamples = 177\nvalue = [ 0.00784816  0.00804497]", shape="box"] ;
40 -> 48 ;
49 [label="sum_pt_full <= 388271.7500\ngini = 0.497179403855\nsamples = 373", shape="box"] ;
23 -> 49 ;
50 [label="gini = 0.4849\nsamples = 243\nvalue = [ 0.01101829  0.0077528 ]", shape="box"] ;
49 -> 50 ;
51 [label="gini = 0.4965\nsamples = 130\nvalue = [ 0.00533642  0.0063168 ]", shape="box"] ;
49 -> 51 ;
52 [label="mmc1_mass <= 108.8951\ngini = 0.443051157997\nsamples = 10900", shape="box"] ;
0 -> 52 ;
53 [label="mmc1_mass <= 103.0450\ngini = 0.495317994367\nsamples = 2570", shape="box"] ;
52 -> 53 ;
54 [label="sum_pt_full <= 412458.2500\ngini = 0.49990770554\nsamples = 1175", shape="box"] ;
53 -> 54 ;
55 [label="dR_tau1_tau2 <= 1.1354\ngini = 0.49827411474\nsamples = 1044", shape="box"] ;
54 -> 55 ;
56 [label="gini = 0.4422\nsamples = 126\nvalue = [ 0.00783022  0.00385642]", shape="box"] ;
55 -> 56 ;
57 [label="sum_pt_full <= 267877.9062\ngini = 0.49983821018\nsamples = 918", shape="box"] ;
55 -> 57 ;
58 [label="tau_pt_ratio <= 1.4580\ngini = 0.495316875793\nsamples = 630", shape="box"] ;
57 -> 58 ;
59 [label="gini = 0.4690\nsamples = 262\nvalue = [ 0.01442664  0.00867165]", shape="box"] ;
58 -> 59 ;
60 [label="MET_centrality <= 1.1213\ngini = 0.499906907755\nsamples = 368", shape="box"] ;
58 -> 60 ;
61 [label="gini = 0.4887\nsamples = 145\nvalue = [ 0.00798234  0.00589658]", shape="box"] ;
60 -> 61 ;
62 [label="gini = 0.4902\nsamples = 223\nvalue = [ 0.00773671  0.01025737]", shape="box"] ;
60 -> 62 ;
63 [label="tau_pt_ratio <= 1.7968\ngini = 0.488638038897\nsamples = 288", shape="box"] ;
57 -> 63 ;
64 [label="gini = 0.4623\nsamples = 117\nvalue = [ 0.00441358  0.00775269]", shape="box"] ;
63 -> 64 ;
65 [label="gini = 0.4992\nsamples = 171\nvalue = [ 0.00648629  0.00701668]", shape="box"] ;
63 -> 65 ;
66 [label="gini = 0.4511\nsamples = 131\nvalue = [ 0.00438911  0.00838555]", shape="box"] ;
54 -> 66 ;
67 [label="dR_tau1_tau2 <= 1.5959\ngini = 0.479439567963\nsamples = 1395", shape="box"] ;
53 -> 67 ;
68 [label="tau_pt_ratio <= 1.5002\ngini = 0.459910353393\nsamples = 862", shape="box"] ;
67 -> 68 ;
69 [label="tau_pt_ratio <= 1.2321\ngini = 0.489777895277\nsamples = 304", shape="box"] ;
68 -> 69 ;
70 [label="gini = 0.4709\nsamples = 168\nvalue = [ 0.00482461  0.0078905 ]", shape="box"] ;
69 -> 70 ;
71 [label="gini = 0.4993\nsamples = 136\nvalue = [ 0.00564647  0.00607453]", shape="box"] ;
69 -> 71 ;
72 [label="MET_centrality <= 1.1293\ngini = 0.434734815275\nsamples = 558", shape="box"] ;
68 -> 72 ;
73 [label="gini = 0.4703\nsamples = 242\nvalue = [ 0.00862052  0.01418094]", shape="box"] ;
72 -> 73 ;
74 [label="gini = 0.3807\nsamples = 316\nvalue = [ 0.00538052  0.01565963]", shape="box"] ;
72 -> 74 ;
75 [label="mmc1_mass <= 105.5970\ngini = 0.497595948293\nsamples = 533", shape="box"] ;
67 -> 75 ;
76 [label="gini = 0.4811\nsamples = 225\nvalue = [ 0.00729697  0.01081717]", shape="box"] ;
75 -> 76 ;
77 [label="gini = 0.4996\nsamples = 308\nvalue = [ 0.01184014  0.01117163]", shape="box"] ;
75 -> 77 ;
78 [label="mmc1_mass <= 159.2474\ngini = 0.393473264579\nsamples = 8330", shape="box"] ;
52 -> 78 ;
79 [label="dR_tau1_tau2 <= 1.6021\ngini = 0.374192746955\nsamples = 8049", shape="box"] ;
78 -> 79 ;
80 [label="mmc1_mass <= 119.8542\ngini = 0.302160644154\nsamples = 4426", shape="box"] ;
79 -> 80 ;
81 [label="sum_pt_full <= 481088.1250\ngini = 0.342824980096\nsamples = 1904", shape="box"] ;
80 -> 81 ;
82 [label="sum_pt_full <= 301183.4375\ngini = 0.321159868581\nsamples = 1708", shape="box"] ;
81 -> 82 ;
83 [label="mmc1_mass <= 112.7827\ngini = 0.38740732807\nsamples = 734", shape="box"] ;
82 -> 83 ;
84 [label="gini = 0.4348\nsamples = 295\nvalue = [ 0.00515009  0.01097436]", shape="box"] ;
83 -> 84 ;
85 [label="gini = 0.3453\nsamples = 439\nvalue = [ 0.00496435  0.01740846]", shape="box"] ;
83 -> 85 ;
86 [label="MET_centrality <= 0.9244\ngini = 0.254904795738\nsamples = 974", shape="box"] ;
82 -> 86 ;
87 [label="gini = 0.3575\nsamples = 278\nvalue = [ 0.00364535  0.01199762]", shape="box"] ;
86 -> 87 ;
88 [label="MET_centrality <= 1.2680\ngini = 0.192553435569\nsamples = 696", shape="box"] ;
86 -> 88 ;
89 [label="gini = 0.0805\nsamples = 342\nvalue = [ 0.00063778  0.01453757]", shape="box"] ;
88 -> 89 ;
90 [label="gini = 0.2840\nsamples = 354\nvalue = [ 0.00270206  0.01306863]", shape="box"] ;
88 -> 90 ;
91 [label="gini = 0.4539\nsamples = 196\nvalue = [ 0.00430845  0.00806298]", shape="box"] ;
81 -> 91 ;
92 [label="dR_tau1_tau2 <= 1.1227\ngini = 0.249098250287\nsamples = 2522", shape="box"] ;
80 -> 92 ;
93 [label="gini = 0.0973\nsamples = 665\nvalue = [ 0.00085688  0.01584938]", shape="box"] ;
92 -> 93 ;
94 [label="mmc1_mass <= 139.5913\ngini = 0.281260034465\nsamples = 1857", shape="box"] ;
92 -> 94 ;
95 [label="MET_centrality <= 0.7691\ngini = 0.254168779537\nsamples = 1611", shape="box"] ;
94 -> 95 ;
96 [label="gini = 0.3235\nsamples = 280\nvalue = [ 0.00241822  0.00949909]", shape="box"] ;
95 -> 96 ;
97 [label="MET_centrality <= 1.1744\ngini = 0.233276812866\nsamples = 1331", shape="box"] ;
95 -> 97 ;
98 [label="gini = 0.1350\nsamples = 549\nvalue = [ 0.00123318  0.01571199]", shape="box"] ;
97 -> 98 ;
99 [label="mmc1_mass <= 125.4838\ngini = 0.287592400691\nsamples = 782", shape="box"] ;
97 -> 99 ;
100 [label="gini = 0.3691\nsamples = 344\nvalue = [ 0.00303408  0.00939349]", shape="box"] ;
99 -> 100 ;
101 [label="gini = 0.2010\nsamples = 438\nvalue = [ 0.0016235   0.01269964]", shape="box"] ;
99 -> 101 ;
102 [label="gini = 0.3889\nsamples = 246\nvalue = [ 0.00307625  0.00856396]", shape="box"] ;
94 -> 102 ;
103 [label="mmc1_mass <= 116.8981\ngini = 0.422981178724\nsamples = 3623", shape="box"] ;
79 -> 103 ;
104 [label="MET_centrality <= 0.8649\ngini = 0.47015464437\nsamples = 843", shape="box"] ;
103 -> 104 ;
105 [label="gini = 0.4994\nsamples = 131\nvalue = [ 0.00599417  0.00643473]", shape="box"] ;
104 -> 105 ;
106 [label="dR_tau1_tau2 <= 1.6934\ngini = 0.454072938071\nsamples = 712", shape="box"] ;
104 -> 106 ;
107 [label="gini = 0.4848\nsamples = 195\nvalue = [ 0.00499376  0.00710361]", shape="box"] ;
106 -> 107 ;
108 [label="dR_tau1_tau2 <= 1.9145\ngini = 0.438192814869\nsamples = 517", shape="box"] ;
106 -> 108 ;
109 [label="gini = 0.4045\nsamples = 312\nvalue = [ 0.00575371  0.01468533]", shape="box"] ;
108 -> 109 ;
110 [label="gini = 0.4797\nsamples = 205\nvalue = [ 0.00464828  0.00699721]", shape="box"] ;
108 -> 110 ;
111 [label="sum_pt_full <= 186931.3125\ngini = 0.400310036324\nsamples = 2780", shape="box"] ;
103 -> 111 ;
112 [label="gini = 0.4918\nsamples = 220\nvalue = [ 0.00616338  0.00797525]", shape="box"] ;
111 -> 112 ;
113 [label="mmc1_mass <= 138.7046\ngini = 0.385552092221\nsamples = 2560", shape="box"] ;
111 -> 113 ;
114 [label="mmc1_mass <= 125.7504\ngini = 0.361861789186\nsamples = 1991", shape="box"] ;
113 -> 114 ;
115 [label="MET_centrality <= 1.2911\ngini = 0.404118428627\nsamples = 941", shape="box"] ;
114 -> 115 ;
116 [label="mmc1_mass <= 119.5745\ngini = 0.359904238591\nsamples = 624", shape="box"] ;
115 -> 116 ;
117 [label="gini = 0.2638\nsamples = 211\nvalue = [ 0.00185996  0.01003657]", shape="box"] ;
116 -> 117 ;
118 [label="gini = 0.3994\nsamples = 413\nvalue = [ 0.00642065  0.0168694 ]", shape="box"] ;
116 -> 118 ;
119 [label="gini = 0.4640\nsamples = 317\nvalue = [ 0.00693795  0.01202515]", shape="box"] ;
115 -> 119 ;
120 [label="dR_tau1_tau2 <= 1.8972\ngini = 0.309920873673\nsamples = 1050", shape="box"] ;
114 -> 120 ;
121 [label="sum_pt_full <= 252627.2188\ngini = 0.245835386667\nsamples = 614", shape="box"] ;
120 -> 121 ;
122 [label="gini = 0.1909\nsamples = 291\nvalue = [ 0.00131597  0.01100085]", shape="box"] ;
121 -> 122 ;
123 [label="gini = 0.2920\nsamples = 323\nvalue = [ 0.00236047  0.01094001]", shape="box"] ;
121 -> 123 ;
124 [label="mmc1_mass <= 132.0646\ngini = 0.362845052748\nsamples = 436", shape="box"] ;
120 -> 124 ;
125 [label="gini = 0.3949\nsamples = 220\nvalue = [ 0.00344698  0.00928231]", shape="box"] ;
124 -> 125 ;
126 [label="gini = 0.3297\nsamples = 216\nvalue = [ 0.00288837  0.01098726]", shape="box"] ;
124 -> 126 ;
127 [label="tau_pt_ratio <= 2.0028\ngini = 0.44431582481\nsamples = 569", shape="box"] ;
113 -> 127 ;
128 [label="gini = 0.4070\nsamples = 367\nvalue = [ 0.00637372  0.01603804]", shape="box"] ;
127 -> 128 ;
129 [label="gini = 0.4879\nsamples = 202\nvalue = [ 0.00518197  0.00709342]", shape="box"] ;
127 -> 129 ;
130 [label="gini = 0.4744\nsamples = 281\nvalue = [ 0.01403335  0.00885573]", shape="box"] ;
78 -> 130 ;
}