digraph Tree {
0 [label="mmc1_mass <= 101.5861\ngini = 0.499411818391\nsamples = 16419", shape="box"] ;
1 [label="mmc1_mass <= 86.1499\ngini = 0.420609805955\nsamples = 6362", shape="box"] ;
0 -> 1 ;
2 [label="dR_tau1_tau2 <= 1.5774\ngini = 0.284092573548\nsamples = 3080", shape="box"] ;
1 -> 2 ;
3 [label="tau_pt_ratio <= 3.5643\ngini = 0.25863052499\nsamples = 2912", shape="box"] ;
2 -> 3 ;
4 [label="tau_pt_ratio <= 1.6287\ngini = 0.236287761773\nsamples = 2778", shape="box"] ;
3 -> 4 ;
5 [label="mmc1_mass <= 83.0994\ngini = 0.16893806844\nsamples = 1512", shape="box"] ;
4 -> 5 ;
6 [label="mmc1_mass <= 69.4253\ngini = 0.129243080903\nsamples = 1261", shape="box"] ;
5 -> 6 ;
7 [label="gini = 0.2044\nsamples = 544\nvalue = [ 0.01544174  0.00201786]", shape="box"] ;
6 -> 7 ;
8 [label="dR_tau1_tau2 <= 1.3318\ngini = 0.080399414619\nsamples = 717", shape="box"] ;
6 -> 8 ;
9 [label="gini = 0.0469\nsamples = 431\nvalue = [ 0.01713756  0.00042233]", shape="box"] ;
8 -> 9 ;
10 [label="gini = 0.1280\nsamples = 286\nvalue = [ 0.01093733  0.0008073 ]", shape="box"] ;
8 -> 10 ;
11 [label="gini = 0.2590\nsamples = 251\nvalue = [ 0.01572411  0.00283726]", shape="box"] ;
5 -> 11 ;
12 [label="MET_centrality <= 1.3815\ngini = 0.291356906064\nsamples = 1266", shape="box"] ;
4 -> 12 ;
13 [label="sum_pt_full <= 223562.1250\ngini = 0.241657876697\nsamples = 1057", shape="box"] ;
12 -> 13 ;
14 [label="gini = 0.0760\nsamples = 394\nvalue = [ 0.01500309  0.00061764]", shape="box"] ;
13 -> 14 ;
15 [label="dR_tau1_tau2 <= 1.1870\ngini = 0.29411809769\nsamples = 663", shape="box"] ;
13 -> 15 ;
16 [label="gini = 0.1784\nsamples = 402\nvalue = [ 0.01935978  0.00212669]", shape="box"] ;
15 -> 16 ;
17 [label="gini = 0.3921\nsamples = 261\nvalue = [ 0.01424435  0.00520768]", shape="box"] ;
15 -> 17 ;
18 [label="gini = 0.4336\nsamples = 209\nvalue = [ 0.0099823   0.00464964]", shape="box"] ;
12 -> 18 ;
19 [label="gini = 0.4465\nsamples = 134\nvalue = [ 0.00775022  0.00392867]", shape="box"] ;
3 -> 19 ;
20 [label="gini = 0.4672\nsamples = 168\nvalue = [ 0.00874451  0.00517793]", shape="box"] ;
2 -> 20 ;
21 [label="mmc1_mass <= 95.1615\ngini = 0.468509267682\nsamples = 3282", shape="box"] ;
1 -> 21 ;
22 [label="tau_pt_ratio <= 3.4680\ngini = 0.427181112737\nsamples = 1837", shape="box"] ;
21 -> 22 ;
23 [label="mmc1_mass <= 87.0435\ngini = 0.41483345162\nsamples = 1696", shape="box"] ;
22 -> 23 ;
24 [label="gini = 0.4920\nsamples = 174\nvalue = [ 0.00988476  0.0076688 ]", shape="box"] ;
23 -> 24 ;
25 [label="mmc1_mass <= 89.0956\ngini = 0.397124101367\nsamples = 1522", shape="box"] ;
23 -> 25 ;
26 [label="tau_pt_ratio <= 1.7425\ngini = 0.276802532521\nsamples = 368", shape="box"] ;
25 -> 26 ;
27 [label="gini = 0.1365\nsamples = 213\nvalue = [ 0.01319928  0.00104998]", shape="box"] ;
26 -> 27 ;
28 [label="gini = 0.4017\nsamples = 155\nvalue = [ 0.00844186  0.0032555 ]", shape="box"] ;
26 -> 28 ;
29 [label="dR_tau1_tau2 <= 1.6593\ngini = 0.421495431942\nsamples = 1154", shape="box"] ;
25 -> 29 ;
30 [label="MET_centrality <= 1.1506\ngini = 0.40176460885\nsamples = 954", shape="box"] ;
29 -> 30 ;
31 [label="MET_centrality <= 0.8424\ngini = 0.355283208227\nsamples = 465", shape="box"] ;
30 -> 31 ;
32 [label="gini = 0.4276\nsamples = 225\nvalue = [ 0.01379118  0.006189  ]", shape="box"] ;
31 -> 32 ;
33 [label="gini = 0.2399\nsamples = 240\nvalue = [ 0.01478173  0.00239426]", shape="box"] ;
31 -> 33 ;
34 [label="sum_pt_full <= 279490.0000\ngini = 0.43387938814\nsamples = 489", shape="box"] ;
30 -> 34 ;
35 [label="tau_pt_ratio <= 1.4247\ngini = 0.383637682129\nsamples = 317", shape="box"] ;
34 -> 35 ;
36 [label="gini = 0.4289\nsamples = 129\nvalue = [ 0.00806054  0.00364617]", shape="box"] ;
35 -> 36 ;
37 [label="gini = 0.3418\nsamples = 188\nvalue = [ 0.01202181  0.00336557]", shape="box"] ;
35 -> 37 ;
38 [label="gini = 0.4845\nsamples = 172\nvalue = [ 0.01007008  0.00705895]", shape="box"] ;
34 -> 38 ;
39 [label="gini = 0.4884\nsamples = 200\nvalue = [ 0.00902751  0.00664337]", shape="box"] ;
29 -> 39 ;
40 [label="gini = 0.4999\nsamples = 141\nvalue = [ 0.00605115  0.00587096]", shape="box"] ;
22 -> 40 ;
41 [label="sum_pt_full <= 428969.0625\ngini = 0.495020514726\nsamples = 1445", shape="box"] ;
21 -> 41 ;
42 [label="dR_tau1_tau2 <= 1.0814\ngini = 0.49043879766\nsamples = 1317", shape="box"] ;
41 -> 42 ;
43 [label="gini = 0.3769\nsamples = 134\nvalue = [ 0.00954289  0.00321325]", shape="box"] ;
42 -> 43 ;
44 [label="sum_pt_full <= 296359.1875\ngini = 0.495510698083\nsamples = 1183", shape="box"] ;
42 -> 44 ;
45 [label="mmc1_mass <= 97.6639\ngini = 0.487803503311\nsamples = 933", shape="box"] ;
44 -> 45 ;
46 [label="sum_pt_full <= 216130.8750\ngini = 0.463119232003\nsamples = 372", shape="box"] ;
45 -> 46 ;
47 [label="gini = 0.4996\nsamples = 140\nvalue = [ 0.00606384  0.00572963]", shape="box"] ;
46 -> 47 ;
48 [label="gini = 0.4108\nsamples = 232\nvalue = [ 0.01352771  0.00549306]", shape="box"] ;
46 -> 48 ;
49 [label="mmc1_mass <= 98.4742\ngini = 0.496349587975\nsamples = 561", shape="box"] ;
45 -> 49 ;
50 [label="gini = 0.4833\nsamples = 115\nvalue = [ 0.00507811  0.00734719]", shape="box"] ;
49 -> 50 ;
51 [label="tau_pt_ratio <= 1.8827\ngini = 0.484957849455\nsamples = 446", shape="box"] ;
49 -> 51 ;
52 [label="dR_tau1_tau2 <= 1.5623\ngini = 0.462795094565\nsamples = 294", shape="box"] ;
51 -> 52 ;
53 [label="gini = 0.4877\nsamples = 151\nvalue = [ 0.0080827   0.00588946]", shape="box"] ;
52 -> 53 ;
54 [label="gini = 0.4163\nsamples = 143\nvalue = [ 0.00836315  0.00350706]", shape="box"] ;
52 -> 54 ;
55 [label="gini = 0.4992\nsamples = 152\nvalue = [ 0.00576047  0.00624513]", shape="box"] ;
51 -> 55 ;
56 [label="MET_centrality <= 1.1941\ngini = 0.493443790395\nsamples = 250", shape="box"] ;
44 -> 56 ;
57 [label="gini = 0.4995\nsamples = 139\nvalue = [ 0.00622935  0.00585788]", shape="box"] ;
56 -> 57 ;
58 [label="gini = 0.4651\nsamples = 111\nvalue = [ 0.00430897  0.00740602]", shape="box"] ;
56 -> 58 ;
59 [label="gini = 0.4757\nsamples = 128\nvalue = [ 0.00551541  0.00863169]", shape="box"] ;
41 -> 59 ;
60 [label="mmc1_mass <= 174.9511\ngini = 0.426562383028\nsamples = 10057", shape="box"] ;
0 -> 60 ;
61 [label="mmc1_mass <= 109.8265\ngini = 0.419003495218\nsamples = 9907", shape="box"] ;
60 -> 61 ;
62 [label="dR_tau1_tau2 <= 1.5959\ngini = 0.482606495398\nsamples = 1989", shape="box"] ;
61 -> 62 ;
63 [label="tau_pt_ratio <= 1.4993\ngini = 0.465927485071\nsamples = 1241", shape="box"] ;
62 -> 63 ;
64 [label="mmc1_mass <= 106.7184\ngini = 0.494284101371\nsamples = 425", shape="box"] ;
63 -> 64 ;
65 [label="gini = 0.5000\nsamples = 255\nvalue = [ 0.0107628   0.01063668]", shape="box"] ;
64 -> 65 ;
66 [label="gini = 0.4514\nsamples = 170\nvalue = [ 0.00405684  0.00773139]", shape="box"] ;
64 -> 66 ;
67 [label="MET_centrality <= 1.0796\ngini = 0.442245699536\nsamples = 816", shape="box"] ;
63 -> 67 ;
68 [label="MET_centrality <= 0.8245\ngini = 0.476510491967\nsamples = 318", shape="box"] ;
67 -> 68 ;
69 [label="gini = 0.4415\nsamples = 171\nvalue = [ 0.00603441  0.01231041]", shape="box"] ;
68 -> 69 ;
70 [label="gini = 0.4994\nsamples = 147\nvalue = [ 0.00606922  0.00649199]", shape="box"] ;
68 -> 70 ;
71 [label="MET_centrality <= 1.3250\ngini = 0.397932678134\nsamples = 498", shape="box"] ;
67 -> 71 ;
72 [label="gini = 0.3554\nsamples = 255\nvalue = [ 0.00456288  0.01518127]", shape="box"] ;
71 -> 72 ;
73 [label="gini = 0.4447\nsamples = 243\nvalue = [ 0.00475367  0.00949256]", shape="box"] ;
71 -> 73 ;
74 [label="MET_centrality <= 0.9606\ngini = 0.498204300393\nsamples = 748", shape="box"] ;
62 -> 74 ;
75 [label="gini = 0.4892\nsamples = 147\nvalue = [ 0.00688666  0.00511883]", shape="box"] ;
74 -> 75 ;
76 [label="mmc1_mass <= 104.1966\ngini = 0.493467809097\nsamples = 601", shape="box"] ;
74 -> 76 ;
77 [label="gini = 0.4663\nsamples = 175\nvalue = [ 0.00576397  0.009805  ]", shape="box"] ;
76 -> 77 ;
78 [label="dR_tau1_tau2 <= 1.7291\ngini = 0.499225385177\nsamples = 426", shape="box"] ;
76 -> 78 ;
79 [label="gini = 0.4971\nsamples = 161\nvalue = [ 0.00671953  0.00577147]", shape="box"] ;
78 -> 79 ;
80 [label="gini = 0.4927\nsamples = 265\nvalue = [ 0.00777543  0.00991129]", shape="box"] ;
78 -> 80 ;
81 [label="dR_tau1_tau2 <= 1.5573\ngini = 0.380110420966\nsamples = 7918", shape="box"] ;
61 -> 81 ;
82 [label="dR_tau1_tau2 <= 0.9436\ngini = 0.293804730114\nsamples = 3960", shape="box"] ;
81 -> 82 ;
83 [label="gini = 0.0929\nsamples = 399\nvalue = [ 0.00064075  0.01247897]", shape="box"] ;
82 -> 83 ;
84 [label="sum_pt_full <= 497042.5000\ngini = 0.308890290944\nsamples = 3561", shape="box"] ;
82 -> 84 ;
85 [label="MET_centrality <= 1.1744\ngini = 0.288173202235\nsamples = 3289", shape="box"] ;
84 -> 85 ;
86 [label="MET_centrality <= 0.6677\ngini = 0.239011366151\nsamples = 1667", shape="box"] ;
85 -> 86 ;
87 [label="gini = 0.3378\nsamples = 431\nvalue = [ 0.00429692  0.01566967]", shape="box"] ;
86 -> 87 ;
88 [label="dR_tau1_tau2 <= 1.4258\ngini = 0.190428033683\nsamples = 1236", shape="box"] ;
86 -> 88 ;
89 [label="tau_pt_ratio <= 1.9132\ngini = 0.128703478863\nsamples = 871", shape="box"] ;
88 -> 89 ;
90 [label="gini = 0.0900\nsamples = 562\nvalue = [ 0.00091434  0.01843814]", shape="box"] ;
89 -> 90 ;
91 [label="gini = 0.1886\nsamples = 309\nvalue = [ 0.00123006  0.0104369 ]", shape="box"] ;
89 -> 91 ;
92 [label="gini = 0.2918\nsamples = 365\nvalue = [ 0.00290913  0.01349056]", shape="box"] ;
88 -> 92 ;
93 [label="dR_tau1_tau2 <= 1.2473\ngini = 0.33551261273\nsamples = 1622", shape="box"] ;
85 -> 93 ;
94 [label="gini = 0.2002\nsamples = 575\nvalue = [ 0.00199894  0.01571354]", shape="box"] ;
93 -> 94 ;
95 [label="MET_centrality <= 1.2789\ngini = 0.37798799938\nsamples = 1047", shape="box"] ;
93 -> 95 ;
96 [label="gini = 0.4405\nsamples = 290\nvalue = [ 0.00407867  0.00837734]", shape="box"] ;
95 -> 96 ;
97 [label="tau_pt_ratio <= 1.7406\ngini = 0.347903164138\nsamples = 757", shape="box"] ;
95 -> 97 ;
98 [label="gini = 0.2675\nsamples = 433\nvalue = [ 0.00270193  0.01428814]", shape="box"] ;
97 -> 98 ;
99 [label="gini = 0.4175\nsamples = 324\nvalue = [ 0.00452355  0.01070972]", shape="box"] ;
97 -> 99 ;
100 [label="gini = 0.4587\nsamples = 272\nvalue = [ 0.00456254  0.0082416 ]", shape="box"] ;
84 -> 100 ;
101 [label="dR_tau1_tau2 <= 2.0875\ngini = 0.425280717488\nsamples = 3958", shape="box"] ;
81 -> 101 ;
102 [label="mmc1_mass <= 122.3475\ngini = 0.405368615002\nsamples = 3305", shape="box"] ;
101 -> 102 ;
103 [label="tau_pt_ratio <= 2.6168\ngini = 0.439732993294\nsamples = 1443", shape="box"] ;
102 -> 103 ;
104 [label="MET_centrality <= 0.8506\ngini = 0.453620254867\nsamples = 1199", shape="box"] ;
103 -> 104 ;
105 [label="gini = 0.4920\nsamples = 179\nvalue = [ 0.00663247  0.00855326]", shape="box"] ;
104 -> 105 ;
106 [label="MET_centrality <= 1.2968\ngini = 0.438810646873\nsamples = 1020", shape="box"] ;
104 -> 106 ;
107 [label="mmc1_mass <= 116.1336\ngini = 0.405865543684\nsamples = 589", shape="box"] ;
106 -> 107 ;
108 [label="gini = 0.4591\nsamples = 282\nvalue = [ 0.00654701  0.01179009]", shape="box"] ;
107 -> 108 ;
109 [label="gini = 0.3135\nsamples = 307\nvalue = [ 0.00298602  0.01235654]", shape="box"] ;
107 -> 109 ;
110 [label="dR_tau1_tau2 <= 1.7885\ngini = 0.470911761114\nsamples = 431", shape="box"] ;
106 -> 110 ;
111 [label="gini = 0.4929\nsamples = 239\nvalue = [ 0.00572679  0.00727054]", shape="box"] ;
110 -> 111 ;
112 [label="gini = 0.4341\nsamples = 192\nvalue = [ 0.0041628  0.0089062]", shape="box"] ;
110 -> 112 ;
113 [label="gini = 0.3400\nsamples = 244\nvalue = [ 0.00317536  0.01144426]", shape="box"] ;
103 -> 113 ;
114 [label="dR_tau1_tau2 <= 1.9177\ngini = 0.364888690459\nsamples = 1862", shape="box"] ;
102 -> 114 ;
115 [label="mmc1_mass <= 138.6218\ngini = 0.320018283469\nsamples = 1333", shape="box"] ;
114 -> 115 ;
116 [label="MET_centrality <= 1.1834\ngini = 0.269699288209\nsamples = 1001", shape="box"] ;
115 -> 116 ;
117 [label="gini = 0.2022\nsamples = 528\nvalue = [ 0.00245725  0.01907652]", shape="box"] ;
116 -> 117 ;
118 [label="gini = 0.3306\nsamples = 473\nvalue = [ 0.00433451  0.01640533]", shape="box"] ;
116 -> 118 ;
119 [label="gini = 0.4134\nsamples = 332\nvalue = [ 0.00528329  0.01281374]", shape="box"] ;
115 -> 119 ;
120 [label="mmc1_mass <= 129.5498\ngini = 0.43131013152\nsamples = 529", shape="box"] ;
114 -> 120 ;
121 [label="gini = 0.4745\nsamples = 179\nvalue = [ 0.00450746  0.00713711]", shape="box"] ;
120 -> 121 ;
122 [label="gini = 0.3979\nsamples = 350\nvalue = [ 0.0056978   0.01508862]", shape="box"] ;
120 -> 122 ;
123 [label="sum_pt_full <= 245921.8438\ngini = 0.47954256809\nsamples = 653", shape="box"] ;
101 -> 123 ;
124 [label="sum_pt_full <= 211547.0469\ngini = 0.459679213356\nsamples = 457", shape="box"] ;
123 -> 124 ;
125 [label="gini = 0.4915\nsamples = 266\nvalue = [ 0.00801027  0.01041872]", shape="box"] ;
124 -> 125 ;
126 [label="gini = 0.3868\nsamples = 191\nvalue = [ 0.00385883  0.01086491]", shape="box"] ;
124 -> 126 ;
127 [label="gini = 0.4998\nsamples = 196\nvalue = [ 0.00725991  0.00754622]", shape="box"] ;
123 -> 127 ;
128 [label="gini = 0.3736\nsamples = 150\nvalue = [ 0.00884144  0.00292564]", shape="box"] ;
60 -> 128 ;
}