digraph Tree {
0 [label="mmc1_mass <= 97.8537\ngini = 0.4994232406\nsamples = 16419", shape="box"] ;
1 [label="mmc1_mass <= 85.9465\ngini = 0.393330681929\nsamples = 5519", shape="box"] ;
0 -> 1 ;
2 [label="dR_tau1_tau2 <= 1.5634\ngini = 0.289671121994\nsamples = 3030", shape="box"] ;
1 -> 2 ;
3 [label="tau_pt_ratio <= 3.5437\ngini = 0.267205814968\nsamples = 2841", shape="box"] ;
2 -> 3 ;
4 [label="mmc1_mass <= 62.4912\ngini = 0.243850890789\nsamples = 2707", shape="box"] ;
3 -> 4 ;
5 [label="gini = 0.0494\nsamples = 557\nvalue = [ 0.01484498  0.00038602]", shape="box"] ;
4 -> 5 ;
6 [label="tau_pt_ratio <= 1.4410\ngini = 0.265745935822\nsamples = 2150", shape="box"] ;
4 -> 6 ;
7 [label="tau_pt_ratio <= 1.1613\ngini = 0.178045361785\nsamples = 857", shape="box"] ;
6 -> 7 ;
8 [label="gini = 0.2724\nsamples = 317\nvalue = [ 0.01396999  0.0027139 ]", shape="box"] ;
7 -> 8 ;
9 [label="gini = 0.0927\nsamples = 540\nvalue = [ 0.02026583  0.00103859]", shape="box"] ;
7 -> 9 ;
10 [label="tau_pt_ratio <= 2.3626\ngini = 0.304482766287\nsamples = 1293", shape="box"] ;
6 -> 10 ;
11 [label="mmc1_mass <= 72.8020\ngini = 0.337979520677\nsamples = 950", shape="box"] ;
10 -> 11 ;
12 [label="gini = 0.4416\nsamples = 251\nvalue = [ 0.00969587  0.00475802]", shape="box"] ;
11 -> 12 ;
13 [label="tau_pt_ratio <= 1.9917\ngini = 0.291140193881\nsamples = 699", shape="box"] ;
11 -> 13 ;
14 [label="mmc1_mass <= 82.5712\ngini = 0.21401563424\nsamples = 485", shape="box"] ;
13 -> 14 ;
15 [label="gini = 0.0881\nsamples = 331\nvalue = [ 0.01553681  0.00075262]", shape="box"] ;
14 -> 15 ;
16 [label="gini = 0.3487\nsamples = 154\nvalue = [ 0.00926894  0.00268959]", shape="box"] ;
14 -> 16 ;
17 [label="gini = 0.4070\nsamples = 214\nvalue = [ 0.01033485  0.00410727]", shape="box"] ;
13 -> 17 ;
18 [label="gini = 0.1820\nsamples = 343\nvalue = [ 0.01673211  0.00188537]", shape="box"] ;
10 -> 18 ;
19 [label="gini = 0.4508\nsamples = 134\nvalue = [ 0.00767968  0.00401152]", shape="box"] ;
3 -> 19 ;
20 [label="gini = 0.4442\nsamples = 189\nvalue = [ 0.01007031  0.00502726]", shape="box"] ;
2 -> 20 ;
21 [label="tau_pt_ratio <= 2.8982\ngini = 0.447388908616\nsamples = 2489", shape="box"] ;
1 -> 21 ;
22 [label="dR_tau1_tau2 <= 1.7207\ngini = 0.431932086692\nsamples = 2125", shape="box"] ;
21 -> 22 ;
23 [label="dR_tau1_tau2 <= 0.9882\ngini = 0.418518017441\nsamples = 1903", shape="box"] ;
22 -> 23 ;
24 [label="gini = 0.2496\nsamples = 189\nvalue = [ 0.01194382  0.00204442]", shape="box"] ;
23 -> 24 ;
25 [label="sum_pt_full <= 243498.8125\ngini = 0.429668454164\nsamples = 1714", shape="box"] ;
23 -> 25 ;
26 [label="mmc1_mass <= 90.8131\ngini = 0.383619387429\nsamples = 888", shape="box"] ;
25 -> 26 ;
27 [label="dR_tau1_tau2 <= 1.5272\ngini = 0.281139505199\nsamples = 391", shape="box"] ;
26 -> 27 ;
28 [label="gini = 0.1308\nsamples = 242\nvalue = [ 0.01459708  0.00110464]", shape="box"] ;
27 -> 28 ;
29 [label="gini = 0.4211\nsamples = 149\nvalue = [ 0.00819954  0.00353802]", shape="box"] ;
27 -> 29 ;
30 [label="mmc1_mass <= 92.3884\ngini = 0.43325951674\nsamples = 497", shape="box"] ;
26 -> 30 ;
31 [label="gini = 0.4786\nsamples = 119\nvalue = [ 0.00705686  0.00463827]", shape="box"] ;
30 -> 31 ;
32 [label="tau_pt_ratio <= 1.6094\ngini = 0.409014680526\nsamples = 378", shape="box"] ;
30 -> 32 ;
33 [label="gini = 0.3742\nsamples = 230\nvalue = [ 0.01381842  0.00458554]", shape="box"] ;
32 -> 33 ;
34 [label="gini = 0.4519\nsamples = 148\nvalue = [ 0.00778231  0.00409697]", shape="box"] ;
32 -> 34 ;
35 [label="mmc1_mass <= 87.5854\ngini = 0.460584260596\nsamples = 826", shape="box"] ;
25 -> 35 ;
36 [label="gini = 0.4999\nsamples = 100\nvalue = [ 0.00582721  0.00600568]", shape="box"] ;
35 -> 36 ;
37 [label="tau_pt_ratio <= 1.4504\ngini = 0.444612374997\nsamples = 726", shape="box"] ;
35 -> 37 ;
38 [label="gini = 0.3662\nsamples = 263\nvalue = [ 0.01766176  0.00561792]", shape="box"] ;
37 -> 38 ;
39 [label="tau_pt_ratio <= 2.0018\ngini = 0.472358250765\nsamples = 463", shape="box"] ;
37 -> 39 ;
40 [label="gini = 0.4957\nsamples = 213\nvalue = [ 0.01258993  0.01045574]", shape="box"] ;
39 -> 40 ;
41 [label="gini = 0.4231\nsamples = 250\nvalue = [ 0.0145618  0.0063585]", shape="box"] ;
39 -> 41 ;
42 [label="gini = 0.4977\nsamples = 222\nvalue = [ 0.01001672  0.00873849]", shape="box"] ;
22 -> 42 ;
43 [label="sum_pt_full <= 381258.5312\ngini = 0.498360321763\nsamples = 364", shape="box"] ;
21 -> 43 ;
44 [label="gini = 0.4878\nsamples = 231\nvalue = [ 0.01039242  0.00758719]", shape="box"] ;
43 -> 44 ;
45 [label="gini = 0.4962\nsamples = 133\nvalue = [ 0.00559988  0.0066727 ]", shape="box"] ;
43 -> 45 ;
46 [label="mmc1_mass <= 107.3422\ngini = 0.448232023134\nsamples = 10900", shape="box"] ;
0 -> 46 ;
47 [label="mmc1_mass <= 102.4812\ngini = 0.497686587482\nsamples = 2203", shape="box"] ;
46 -> 47 ;
48 [label="tau_pt_ratio <= 2.5547\ngini = 0.499755613935\nsamples = 1047", shape="box"] ;
47 -> 48 ;
49 [label="mmc1_mass <= 98.5254\ngini = 0.496245250194\nsamples = 821", shape="box"] ;
48 -> 49 ;
50 [label="gini = 0.4896\nsamples = 123\nvalue = [ 0.00659578  0.00881506]", shape="box"] ;
49 -> 50 ;
51 [label="tau_pt_ratio <= 1.5951\ngini = 0.489744222778\nsamples = 698", shape="box"] ;
49 -> 51 ;
52 [label="tau_pt_ratio <= 1.2280\ngini = 0.464896895104\nsamples = 380", shape="box"] ;
51 -> 52 ;
53 [label="gini = 0.4959\nsamples = 158\nvalue = [ 0.00735095  0.00612371]", shape="box"] ;
52 -> 53 ;
54 [label="gini = 0.4242\nsamples = 222\nvalue = [ 0.01308857  0.00575312]", shape="box"] ;
52 -> 54 ;
55 [label="MET_centrality <= 1.1213\ngini = 0.499896970806\nsamples = 318", shape="box"] ;
51 -> 55 ;
56 [label="gini = 0.4636\nsamples = 130\nvalue = [ 0.00782616  0.00450085]", shape="box"] ;
55 -> 56 ;
57 [label="gini = 0.4874\nsamples = 188\nvalue = [ 0.00765865  0.01054569]", shape="box"] ;
55 -> 57 ;
58 [label="gini = 0.4687\nsamples = 226\nvalue = [ 0.00696116  0.01160229]", shape="box"] ;
48 -> 58 ;
59 [label="sum_pt_full <= 273847.4375\ngini = 0.486945427677\nsamples = 1156", shape="box"] ;
47 -> 59 ;
60 [label="mmc1_mass <= 103.7868\ngini = 0.497023364184\nsamples = 623", shape="box"] ;
59 -> 60 ;
61 [label="gini = 0.4956\nsamples = 148\nvalue = [ 0.00652355  0.00540297]", shape="box"] ;
60 -> 61 ;
62 [label="dR_tau1_tau2 <= 1.5959\ngini = 0.491611092915\nsamples = 475", shape="box"] ;
60 -> 62 ;
63 [label="gini = 0.4697\nsamples = 181\nvalue = [ 0.00587287  0.00970437]", shape="box"] ;
62 -> 63 ;
64 [label="tau_pt_ratio <= 1.5877\ngini = 0.498648782383\nsamples = 294", shape="box"] ;
62 -> 64 ;
65 [label="gini = 0.4959\nsamples = 136\nvalue = [ 0.00532606  0.00638164]", shape="box"] ;
64 -> 65 ;
66 [label="gini = 0.4999\nsamples = 158\nvalue = [ 0.00576114  0.00592152]", shape="box"] ;
64 -> 66 ;
67 [label="sum_pt_full <= 310681.3125\ngini = 0.46542005752\nsamples = 533", shape="box"] ;
59 -> 67 ;
68 [label="gini = 0.3727\nsamples = 164\nvalue = [ 0.00306102  0.00929619]", shape="box"] ;
67 -> 68 ;
69 [label="mmc1_mass <= 104.8887\ngini = 0.486629609969\nsamples = 369", shape="box"] ;
67 -> 69 ;
70 [label="gini = 0.4462\nsamples = 163\nvalue = [ 0.00463562  0.00916421]", shape="box"] ;
69 -> 70 ;
71 [label="gini = 0.4997\nsamples = 206\nvalue = [ 0.00791883  0.0082989 ]", shape="box"] ;
69 -> 71 ;
72 [label="mmc1_mass <= 174.9511\ngini = 0.407231428135\nsamples = 8697", shape="box"] ;
46 -> 72 ;
73 [label="dR_tau1_tau2 <= 1.6034\ngini = 0.396011982547\nsamples = 8547", shape="box"] ;
72 -> 73 ;
74 [label="mmc1_mass <= 113.7221\ngini = 0.32857259885\nsamples = 4680", shape="box"] ;
73 -> 74 ;
75 [label="sum_pt_full <= 281207.9062\ngini = 0.393707937409\nsamples = 1077", shape="box"] ;
74 -> 75 ;
76 [label="gini = 0.4449\nsamples = 350\nvalue = [ 0.00689093  0.01373767]", shape="box"] ;
75 -> 76 ;
77 [label="MET_centrality <= 1.0693\ngini = 0.361899429247\nsamples = 727", shape="box"] ;
75 -> 77 ;
78 [label="gini = 0.4200\nsamples = 295\nvalue = [ 0.00611617  0.01426827]", shape="box"] ;
77 -> 78 ;
79 [label="gini = 0.2901\nsamples = 432\nvalue = [ 0.00368653  0.01725127]", shape="box"] ;
77 -> 79 ;
80 [label="mmc1_mass <= 141.7564\ngini = 0.293775962118\nsamples = 3603", shape="box"] ;
74 -> 80 ;
81 [label="mmc1_mass <= 121.1986\ngini = 0.277436709811\nsamples = 3359", shape="box"] ;
80 -> 81 ;
82 [label="dR_tau1_tau2 <= 1.3261\ngini = 0.322856882813\nsamples = 1301", shape="box"] ;
81 -> 82 ;
83 [label="MET_centrality <= 1.1953\ngini = 0.270054928648\nsamples = 735", shape="box"] ;
82 -> 83 ;
84 [label="gini = 0.3414\nsamples = 393\nvalue = [ 0.00439577  0.01573332]", shape="box"] ;
83 -> 84 ;
85 [label="gini = 0.1282\nsamples = 342\nvalue = [ 0.00086413  0.01169238]", shape="box"] ;
83 -> 85 ;
86 [label="dR_tau1_tau2 <= 1.4725\ngini = 0.376891586706\nsamples = 566", shape="box"] ;
82 -> 86 ;
87 [label="gini = 0.4256\nsamples = 292\nvalue = [ 0.0043477  0.009809 ]", shape="box"] ;
86 -> 87 ;
88 [label="gini = 0.3112\nsamples = 274\nvalue = [ 0.0025483   0.01067108]", shape="box"] ;
86 -> 88 ;
89 [label="sum_pt_full <= 437833.5938\ngini = 0.229851781412\nsamples = 2058", shape="box"] ;
81 -> 89 ;
90 [label="MET_centrality <= 1.1744\ngini = 0.259944606193\nsamples = 1556", shape="box"] ;
89 -> 90 ;
91 [label="MET_centrality <= 0.8519\ngini = 0.190992602221\nsamples = 792", shape="box"] ;
90 -> 91 ;
92 [label="gini = 0.2811\nsamples = 326\nvalue = [ 0.00196913  0.00967084]", shape="box"] ;
91 -> 92 ;
93 [label="gini = 0.1008\nsamples = 466\nvalue = [ 0.00071759  0.01276831]", shape="box"] ;
91 -> 93 ;
94 [label="MET_centrality <= 1.3454\ngini = 0.32152563863\nsamples = 764", shape="box"] ;
90 -> 94 ;
95 [label="gini = 0.3777\nsamples = 376\nvalue = [ 0.00318892  0.00942723]", shape="box"] ;
94 -> 95 ;
96 [label="gini = 0.2505\nsamples = 388\nvalue = [ 0.00175119  0.01017689]", shape="box"] ;
94 -> 96 ;
97 [label="gini = 0.1088\nsamples = 502\nvalue = [ 0.00080914  0.01320016]", shape="box"] ;
89 -> 97 ;
98 [label="gini = 0.4235\nsamples = 244\nvalue = [ 0.00374367  0.00855206]", shape="box"] ;
80 -> 98 ;
99 [label="mmc1_mass <= 114.6603\ngini = 0.440162712712\nsamples = 3867", shape="box"] ;
73 -> 99 ;
100 [label="mmc1_mass <= 109.8202\ngini = 0.486907467656\nsamples = 733", shape="box"] ;
99 -> 100 ;
101 [label="gini = 0.4996\nsamples = 233\nvalue = [ 0.00780451  0.0082549 ]", shape="box"] ;
100 -> 101 ;
102 [label="mmc1_mass <= 113.1268\ngini = 0.47498214691\nsamples = 500", shape="box"] ;
100 -> 102 ;
103 [label="gini = 0.4523\nsamples = 335\nvalue = [ 0.00784263  0.01485157]", shape="box"] ;
102 -> 103 ;
104 [label="gini = 0.4980\nsamples = 165\nvalue = [ 0.00563563  0.00639394]", shape="box"] ;
102 -> 104 ;
105 [label="dR_tau1_tau2 <= 2.0233\ngini = 0.421078309117\nsamples = 3134", shape="box"] ;
99 -> 105 ;
106 [label="sum_pt_full <= 189886.0000\ngini = 0.390448226579\nsamples = 2339", shape="box"] ;
105 -> 106 ;
107 [label="gini = 0.4736\nsamples = 163\nvalue = [ 0.00472567  0.00754315]", shape="box"] ;
106 -> 107 ;
108 [label="tau_pt_ratio <= 1.1429\ngini = 0.378013303768\nsamples = 2176", shape="box"] ;
106 -> 108 ;
109 [label="gini = 0.2499\nsamples = 319\nvalue = [ 0.00235363  0.01372322]", shape="box"] ;
108 -> 109 ;
110 [label="tau_pt_ratio <= 1.2898\ngini = 0.394833832454\nsamples = 1857", shape="box"] ;
108 -> 110 ;
111 [label="gini = 0.4698\nsamples = 268\nvalue = [ 0.00575165  0.00949686]", shape="box"] ;
110 -> 111 ;
112 [label="tau_pt_ratio <= 1.8297\ngini = 0.375843212672\nsamples = 1589", shape="box"] ;
110 -> 112 ;
113 [label="dR_tau1_tau2 <= 1.8789\ngini = 0.310671876925\nsamples = 704", shape="box"] ;
112 -> 113 ;
114 [label="gini = 0.3557\nsamples = 491\nvalue = [ 0.00537701  0.01786125]", shape="box"] ;
113 -> 114 ;
115 [label="gini = 0.2074\nsamples = 213\nvalue = [ 0.00142568  0.01070694]", shape="box"] ;
113 -> 115 ;
116 [label="MET_centrality <= 1.3267\ngini = 0.41627234654\nsamples = 885", shape="box"] ;
112 -> 116 ;
117 [label="mmc1_mass <= 127.2042\ngini = 0.380003818401\nsamples = 634", shape="box"] ;
116 -> 117 ;
118 [label="gini = 0.3267\nsamples = 307\nvalue = [ 0.00342051  0.01321114]", shape="box"] ;
117 -> 118 ;
119 [label="gini = 0.4310\nsamples = 327\nvalue = [ 0.00435967  0.00951264]", shape="box"] ;
117 -> 119 ;
120 [label="gini = 0.4675\nsamples = 251\nvalue = [ 0.00594486  0.01001478]", shape="box"] ;
116 -> 120 ;
121 [label="sum_pt_full <= 259538.1875\ngini = 0.471069979444\nsamples = 795", shape="box"] ;
105 -> 121 ;
122 [label="tau_pt_ratio <= 1.7913\ngini = 0.450243834872\nsamples = 605", shape="box"] ;
121 -> 122 ;
123 [label="gini = 0.4881\nsamples = 323\nvalue = [ 0.00964434  0.01316131]", shape="box"] ;
122 -> 123 ;
124 [label="gini = 0.3788\nsamples = 282\nvalue = [ 0.00527955  0.01551721]", shape="box"] ;
122 -> 124 ;
125 [label="gini = 0.5000\nsamples = 190\nvalue = [ 0.00658529  0.00645574]", shape="box"] ;
121 -> 125 ;
126 [label="gini = 0.3786\nsamples = 150\nvalue = [ 0.00881097  0.00299389]", shape="box"] ;
72 -> 126 ;
}