digraph Tree {
0 [label="mmc1_mass <= 101.5861\ngini = 0.499506717574\nsamples = 16419", shape="box"] ;
1 [label="mmc1_mass <= 95.0913\ngini = 0.360656177613\nsamples = 6362", shape="box"] ;
0 -> 1 ;
2 [label="mmc1_mass <= 84.3230\ngini = 0.278559566561\nsamples = 4898", shape="box"] ;
1 -> 2 ;
3 [label="tau_pt_ratio <= 3.2679\ngini = 0.164108089475\nsamples = 2725", shape="box"] ;
2 -> 3 ;
4 [label="dR_tau1_tau2 <= 1.5564\ngini = 0.142438814052\nsamples = 2580", shape="box"] ;
3 -> 4 ;
5 [label="tau_pt_ratio <= 1.4413\ngini = 0.122729378052\nsamples = 2423", shape="box"] ;
4 -> 5 ;
6 [label="sum_pt_full <= 248311.8438\ngini = 0.042574217779\nsamples = 999", shape="box"] ;
5 -> 6 ;
7 [label="mmc1_mass <= 76.8306\ngini = 0.0288346080763\nsamples = 737", shape="box"] ;
6 -> 7 ;
8 [label="gini = 0.0096\nsamples = 513\nvalue = [ 0.02291413  0.00011116]", shape="box"] ;
7 -> 8 ;
9 [label="gini = 0.0612\nsamples = 224\nvalue = [ 0.01290121  0.00042065]", shape="box"] ;
7 -> 9 ;
10 [label="gini = 0.0729\nsamples = 262\nvalue = [ 0.01545577  0.0006087 ]", shape="box"] ;
6 -> 10 ;
11 [label="sum_pt_full <= 216139.2969\ngini = 0.167856654955\nsamples = 1424", shape="box"] ;
5 -> 11 ;
12 [label="dR_tau1_tau2 <= 1.3304\ngini = 0.0689161561785\nsamples = 529", shape="box"] ;
11 -> 12 ;
13 [label="gini = 0.0294\nsamples = 321\nvalue = [ 0.01464166  0.00022153]", shape="box"] ;
12 -> 13 ;
14 [label="gini = 0.1134\nsamples = 208\nvalue = [ 0.01182146  0.00075918]", shape="box"] ;
12 -> 14 ;
15 [label="dR_tau1_tau2 <= 1.1869\ngini = 0.209878400546\nsamples = 895", shape="box"] ;
11 -> 15 ;
16 [label="MET_centrality <= 1.0570\ngini = 0.134157342405\nsamples = 552", shape="box"] ;
15 -> 16 ;
17 [label="gini = 0.2035\nsamples = 261\nvalue = [ 0.01446431  0.00187858]", shape="box"] ;
16 -> 17 ;
18 [label="gini = 0.0652\nsamples = 291\nvalue = [ 0.01745445  0.00060926]", shape="box"] ;
16 -> 18 ;
19 [label="mmc1_mass <= 79.1981\ngini = 0.303033101897\nsamples = 343", shape="box"] ;
15 -> 19 ;
20 [label="gini = 0.3704\nsamples = 168\nvalue = [ 0.00906823  0.00294987]", shape="box"] ;
19 -> 20 ;
21 [label="gini = 0.2215\nsamples = 175\nvalue = [ 0.01048686  0.00152379]", shape="box"] ;
19 -> 21 ;
22 [label="gini = 0.3352\nsamples = 157\nvalue = [ 0.00921402  0.00249348]", shape="box"] ;
4 -> 22 ;
23 [label="gini = 0.3828\nsamples = 145\nvalue = [ 0.00863741  0.00300154]", shape="box"] ;
3 -> 23 ;
24 [label="tau_pt_ratio <= 3.1638\ngini = 0.363471275426\nsamples = 2173", shape="box"] ;
2 -> 24 ;
25 [label="dR_tau1_tau2 <= 0.9682\ngini = 0.343453477906\nsamples = 1949", shape="box"] ;
24 -> 25 ;
26 [label="gini = 0.0584\nsamples = 154\nvalue = [ 0.01175496  0.00036496]", shape="box"] ;
25 -> 26 ;
27 [label="MET_centrality <= 1.3874\ngini = 0.360641371113\nsamples = 1795", shape="box"] ;
25 -> 27 ;
28 [label="sum_pt_full <= 332844.3750\ngini = 0.337917658216\nsamples = 1534", shape="box"] ;
27 -> 28 ;
29 [label="dR_tau1_tau2 <= 1.3536\ngini = 0.309805145803\nsamples = 1342", shape="box"] ;
28 -> 29 ;
30 [label="dR_tau1_tau2 <= 1.2517\ngini = 0.231230049118\nsamples = 505", shape="box"] ;
29 -> 30 ;
31 [label="dR_tau1_tau2 <= 1.1514\ngini = 0.285475069193\nsamples = 310", shape="box"] ;
30 -> 31 ;
32 [label="gini = 0.1787\nsamples = 170\nvalue = [ 0.01304245  0.001436  ]", shape="box"] ;
31 -> 32 ;
33 [label="gini = 0.3820\nsamples = 140\nvalue = [ 0.00931816  0.00322496]", shape="box"] ;
31 -> 33 ;
34 [label="gini = 0.1129\nsamples = 195\nvalue = [ 0.0135293   0.00086444]", shape="box"] ;
30 -> 34 ;
35 [label="mmc1_mass <= 91.7046\ngini = 0.355303561337\nsamples = 837", shape="box"] ;
29 -> 35 ;
36 [label="MET_centrality <= 0.9988\ngini = 0.304856008729\nsamples = 532", shape="box"] ;
35 -> 36 ;
37 [label="gini = 0.2067\nsamples = 211\nvalue = [ 0.01220638  0.00161846]", shape="box"] ;
36 -> 37 ;
38 [label="dR_tau1_tau2 <= 1.5407\ngini = 0.351870411767\nsamples = 321", shape="box"] ;
36 -> 38 ;
39 [label="gini = 0.2919\nsamples = 157\nvalue = [ 0.01033676  0.00222992]", shape="box"] ;
38 -> 39 ;
40 [label="gini = 0.4050\nsamples = 164\nvalue = [ 0.00839373  0.00329722]", shape="box"] ;
38 -> 40 ;
41 [label="gini = 0.4220\nsamples = 305\nvalue = [ 0.01610933  0.00698851]", shape="box"] ;
35 -> 41 ;
42 [label="gini = 0.4535\nsamples = 192\nvalue = [ 0.01200076  0.00639205]", shape="box"] ;
28 -> 42 ;
43 [label="dR_tau1_tau2 <= 1.4981\ngini = 0.446910036648\nsamples = 261", shape="box"] ;
27 -> 43 ;
44 [label="gini = 0.4014\nsamples = 139\nvalue = [ 0.00949031  0.00365304]", shape="box"] ;
43 -> 44 ;
45 [label="gini = 0.4815\nsamples = 122\nvalue = [ 0.00694826  0.00470537]", shape="box"] ;
43 -> 45 ;
46 [label="gini = 0.4862\nsamples = 224\nvalue = [ 0.00955024  0.00683195]", shape="box"] ;
24 -> 46 ;
47 [label="MET_centrality <= 1.2614\ngini = 0.489819021033\nsamples = 1464", shape="box"] ;
1 -> 47 ;
48 [label="dR_tau1_tau2 <= 1.5789\ngini = 0.46709902566\nsamples = 833", shape="box"] ;
47 -> 48 ;
49 [label="dR_tau1_tau2 <= 1.4419\ngini = 0.481482722355\nsamples = 591", shape="box"] ;
48 -> 49 ;
50 [label="tau_pt_ratio <= 2.2050\ngini = 0.460335006103\nsamples = 446", shape="box"] ;
49 -> 50 ;
51 [label="dR_tau1_tau2 <= 1.2586\ngini = 0.422169127794\nsamples = 279", shape="box"] ;
50 -> 51 ;
52 [label="gini = 0.3718\nsamples = 143\nvalue = [ 0.01014651  0.00332538]", shape="box"] ;
51 -> 52 ;
53 [label="gini = 0.4638\nsamples = 136\nvalue = [ 0.00761404  0.00438562]", shape="box"] ;
51 -> 53 ;
54 [label="gini = 0.4986\nsamples = 167\nvalue = [ 0.00663624  0.00596294]", shape="box"] ;
50 -> 54 ;
55 [label="gini = 0.4988\nsamples = 145\nvalue = [ 0.00669571  0.00738277]", shape="box"] ;
49 -> 55 ;
56 [label="gini = 0.3860\nsamples = 242\nvalue = [ 0.01116934  0.00394958]", shape="box"] ;
48 -> 56 ;
57 [label="sum_pt_full <= 336279.7500\ngini = 0.499996722704\nsamples = 631", shape="box"] ;
47 -> 57 ;
58 [label="mmc1_mass <= 97.6563\ngini = 0.496117229181\nsamples = 503", shape="box"] ;
57 -> 58 ;
59 [label="gini = 0.4706\nsamples = 192\nvalue = [ 0.01000597  0.00610075]", shape="box"] ;
58 -> 59 ;
60 [label="dR_tau1_tau2 <= 1.5636\ngini = 0.499933670164\nsamples = 311", shape="box"] ;
58 -> 60 ;
61 [label="gini = 0.4953\nsamples = 159\nvalue = [ 0.00689156  0.00567515]", shape="box"] ;
60 -> 61 ;
62 [label="gini = 0.4926\nsamples = 152\nvalue = [ 0.00543895  0.00694271]", shape="box"] ;
60 -> 62 ;
63 [label="gini = 0.4482\nsamples = 128\nvalue = [ 0.00395202  0.00770484]", shape="box"] ;
57 -> 63 ;
64 [label="mmc1_mass <= 172.2602\ngini = 0.374964890626\nsamples = 10057", shape="box"] ;
0 -> 64 ;
65 [label="mmc1_mass <= 109.8265\ngini = 0.362932066673\nsamples = 9895", shape="box"] ;
64 -> 65 ;
66 [label="dR_tau1_tau2 <= 1.5959\ngini = 0.468321029134\nsamples = 1989", shape="box"] ;
65 -> 66 ;
67 [label="mmc1_mass <= 105.7116\ngini = 0.440315529765\nsamples = 1241", shape="box"] ;
66 -> 67 ;
68 [label="tau_pt_ratio <= 1.9809\ngini = 0.475732115109\nsamples = 595", shape="box"] ;
67 -> 68 ;
69 [label="sum_pt_full <= 280538.1875\ngini = 0.497528428431\nsamples = 332", shape="box"] ;
68 -> 69 ;
70 [label="gini = 0.4971\nsamples = 183\nvalue = [ 0.00690412  0.00591952]", shape="box"] ;
69 -> 70 ;
71 [label="gini = 0.4732\nsamples = 149\nvalue = [ 0.00449579  0.00720462]", shape="box"] ;
69 -> 71 ;
72 [label="gini = 0.4195\nsamples = 263\nvalue = [ 0.00608591  0.01424322]", shape="box"] ;
68 -> 72 ;
73 [label="MET_centrality <= 1.0284\ngini = 0.389819125914\nsamples = 646", shape="box"] ;
67 -> 73 ;
74 [label="gini = 0.4517\nsamples = 227\nvalue = [ 0.00630119  0.01198454]", shape="box"] ;
73 -> 74 ;
75 [label="tau_pt_ratio <= 1.7114\ngini = 0.333675544178\nsamples = 419", shape="box"] ;
73 -> 75 ;
76 [label="gini = 0.3983\nsamples = 184\nvalue = [ 0.00376484  0.00994993]", shape="box"] ;
75 -> 76 ;
77 [label="gini = 0.2505\nsamples = 235\nvalue = [ 0.00195397  0.01135503]", shape="box"] ;
75 -> 77 ;
78 [label="MET_centrality <= 1.2654\ngini = 0.496338163153\nsamples = 748", shape="box"] ;
66 -> 78 ;
79 [label="mmc1_mass <= 106.6034\ngini = 0.499902293354\nsamples = 403", shape="box"] ;
78 -> 79 ;
80 [label="gini = 0.4930\nsamples = 232\nvalue = [ 0.00816206  0.00643951]", shape="box"] ;
79 -> 80 ;
81 [label="gini = 0.4935\nsamples = 171\nvalue = [ 0.00527266  0.00662478]", shape="box"] ;
79 -> 81 ;
82 [label="tau_pt_ratio <= 1.6768\ngini = 0.48124138453\nsamples = 345", shape="box"] ;
78 -> 82 ;
83 [label="gini = 0.4941\nsamples = 156\nvalue = [ 0.00546039  0.00679482]", shape="box"] ;
82 -> 83 ;
84 [label="gini = 0.4610\nsamples = 189\nvalue = [ 0.00437715  0.00776915]", shape="box"] ;
82 -> 84 ;
85 [label="dR_tau1_tau2 <= 1.5573\ngini = 0.306784883912\nsamples = 7906", shape="box"] ;
65 -> 85 ;
86 [label="mmc1_mass <= 140.4432\ngini = 0.200398087367\nsamples = 3958", shape="box"] ;
85 -> 86 ;
87 [label="mmc1_mass <= 119.1835\ngini = 0.185977830945\nsamples = 3704", shape="box"] ;
86 -> 87 ;
88 [label="mmc1_mass <= 117.7668\ngini = 0.23744511489\nsamples = 1506", shape="box"] ;
87 -> 88 ;
89 [label="mmc1_mass <= 113.7221\ngini = 0.216603326455\nsamples = 1269", shape="box"] ;
88 -> 89 ;
90 [label="tau_pt_ratio <= 1.6271\ngini = 0.273121586931\nsamples = 623", shape="box"] ;
89 -> 90 ;
91 [label="gini = 0.1747\nsamples = 281\nvalue = [ 0.00120111  0.0112175 ]", shape="box"] ;
90 -> 91 ;
92 [label="gini = 0.3336\nsamples = 342\nvalue = [ 0.00360946  0.01344982]", shape="box"] ;
90 -> 92 ;
93 [label="MET_centrality <= 1.0094\ngini = 0.163965537411\nsamples = 646", shape="box"] ;
89 -> 93 ;
94 [label="gini = 0.2198\nsamples = 221\nvalue = [ 0.00187863  0.0130635 ]", shape="box"] ;
93 -> 94 ;
95 [label="gini = 0.1188\nsamples = 425\nvalue = [ 0.0012654   0.01868704]", shape="box"] ;
93 -> 95 ;
96 [label="gini = 0.3374\nsamples = 237\nvalue = [ 0.00252692  0.00923152]", shape="box"] ;
88 -> 96 ;
97 [label="sum_pt_full <= 305057.5312\ngini = 0.134905781921\nsamples = 2198", shape="box"] ;
87 -> 97 ;
98 [label="gini = 0.2063\nsamples = 522\nvalue = [ 0.00264773  0.02002851]", shape="box"] ;
97 -> 98 ;
99 [label="mmc1_mass <= 133.1987\ngini = 0.10621896984\nsamples = 1676", shape="box"] ;
97 -> 99 ;
100 [label="dR_tau1_tau2 <= 1.1226\ngini = 0.126237828424\nsamples = 1314", shape="box"] ;
99 -> 100 ;
101 [label="gini = 0.0629\nsamples = 534\nvalue = [ 0.00056251  0.01675055]", shape="box"] ;
100 -> 101 ;
102 [label="sum_pt_full <= 367800.9375\ngini = 0.159655586594\nsamples = 780", shape="box"] ;
100 -> 102 ;
103 [label="gini = 0.0823\nsamples = 455\nvalue = [ 0.00066061  0.01470422]", shape="box"] ;
102 -> 103 ;
104 [label="gini = 0.2287\nsamples = 325\nvalue = [ 0.00203582  0.01342258]", shape="box"] ;
102 -> 104 ;
105 [label="gini = 0.0241\nsamples = 362\nvalue = [ 0.00015203  0.01232269]", shape="box"] ;
99 -> 105 ;
106 [label="gini = 0.3608\nsamples = 254\nvalue = [ 0.00281222  0.00909287]", shape="box"] ;
86 -> 106 ;
107 [label="dR_tau1_tau2 <= 2.0904\ngini = 0.373593539953\nsamples = 3948", shape="box"] ;
85 -> 107 ;
108 [label="mmc1_mass <= 121.8152\ngini = 0.345946457442\nsamples = 3313", shape="box"] ;
107 -> 108 ;
109 [label="MET_centrality <= 0.8506\ngini = 0.398287620875\nsamples = 1392", shape="box"] ;
108 -> 109 ;
110 [label="gini = 0.4637\nsamples = 213\nvalue = [ 0.00571845  0.00993845]", shape="box"] ;
109 -> 110 ;
111 [label="mmc1_mass <= 116.1471\ngini = 0.377742522704\nsamples = 1179", shape="box"] ;
109 -> 111 ;
112 [label="MET_centrality <= 1.1881\ngini = 0.408111042145\nsamples = 604", shape="box"] ;
111 -> 112 ;
113 [label="gini = 0.4568\nsamples = 219\nvalue = [ 0.00430444  0.00788675]", shape="box"] ;
112 -> 113 ;
114 [label="mmc1_mass <= 113.4116\ngini = 0.375380614008\nsamples = 385", shape="box"] ;
112 -> 114 ;
115 [label="gini = 0.3305\nsamples = 207\nvalue = [ 0.00243424  0.00921962]", shape="box"] ;
114 -> 115 ;
116 [label="gini = 0.4134\nsamples = 178\nvalue = [ 0.00340062  0.00824945]", shape="box"] ;
114 -> 116 ;
117 [label="MET_centrality <= 1.2909\ngini = 0.336062515267\nsamples = 575", shape="box"] ;
111 -> 117 ;
118 [label="gini = 0.2612\nsamples = 342\nvalue = [ 0.00265117  0.01451166]", shape="box"] ;
117 -> 118 ;
119 [label="gini = 0.4148\nsamples = 233\nvalue = [ 0.00373705  0.00899379]", shape="box"] ;
117 -> 119 ;
120 [label="mmc1_mass <= 136.6611\ngini = 0.293798371515\nsamples = 1921", shape="box"] ;
108 -> 120 ;
121 [label="MET_centrality <= 1.3160\ngini = 0.244946054747\nsamples = 1298", shape="box"] ;
120 -> 121 ;
122 [label="dR_tau1_tau2 <= 1.9177\ngini = 0.188058397439\nsamples = 897", shape="box"] ;
121 -> 122 ;
123 [label="MET_centrality <= 1.0239\ngini = 0.144001025258\nsamples = 690", shape="box"] ;
122 -> 123 ;
124 [label="gini = 0.1864\nsamples = 333\nvalue = [ 0.00170225  0.0146575 ]", shape="box"] ;
123 -> 124 ;
125 [label="gini = 0.0974\nsamples = 357\nvalue = [ 0.0008138   0.01504218]", shape="box"] ;
123 -> 125 ;
126 [label="gini = 0.2917\nsamples = 207\nvalue = [ 0.00213315  0.00990036]", shape="box"] ;
122 -> 126 ;
127 [label="gini = 0.3541\nsamples = 401\nvalue = [ 0.00442199  0.01481217]", shape="box"] ;
121 -> 127 ;
128 [label="sum_pt_full <= 269123.0000\ngini = 0.372518616005\nsamples = 623", shape="box"] ;
120 -> 128 ;
129 [label="gini = 0.3159\nsamples = 344\nvalue = [ 0.00379978  0.0155299 ]", shape="box"] ;
128 -> 129 ;
130 [label="gini = 0.4337\nsamples = 279\nvalue = [ 0.00444748  0.00954095]", shape="box"] ;
128 -> 130 ;
131 [label="sum_pt_full <= 245921.8438\ngini = 0.460469240577\nsamples = 635", shape="box"] ;
107 -> 131 ;
132 [label="sum_pt_full <= 210445.1562\ngini = 0.432908494802\nsamples = 447", shape="box"] ;
131 -> 132 ;
133 [label="gini = 0.4868\nsamples = 255\nvalue = [ 0.00643694  0.00893409]", shape="box"] ;
132 -> 133 ;
134 [label="gini = 0.3258\nsamples = 192\nvalue = [ 0.00286499  0.01112196]", shape="box"] ;
132 -> 134 ;
135 [label="gini = 0.4966\nsamples = 188\nvalue = [ 0.00577316  0.00681279]", shape="box"] ;
131 -> 135 ;
136 [label="gini = 0.3489\nsamples = 162\nvalue = [ 0.00923463  0.00268294]", shape="box"] ;
64 -> 136 ;
}