digraph Tree {
0 [label="mmc1_mass <= 97.8537\ngini = 0.499407875517\nsamples = 16419", shape="box"] ;
1 [label="mmc1_mass <= 85.4314\ngini = 0.363063292793\nsamples = 5519", shape="box"] ;
0 -> 1 ;
2 [label="tau_pt_ratio <= 3.1503\ngini = 0.239873361074\nsamples = 2949", shape="box"] ;
1 -> 2 ;
3 [label="dR_tau1_tau2 <= 1.1870\ngini = 0.216232718657\nsamples = 2764", shape="box"] ;
2 -> 3 ;
4 [label="sum_pt_full <= 216201.6250\ngini = 0.130021782746\nsamples = 1320", shape="box"] ;
3 -> 4 ;
5 [label="gini = 0.0024\nsamples = 441\nvalue = [  1.39467015e-02   1.66917263e-05]", shape="box"] ;
4 -> 5 ;
6 [label="sum_pt_full <= 275924.0000\ngini = 0.163900851182\nsamples = 879", shape="box"] ;
4 -> 6 ;
7 [label="dR_tau1_tau2 <= 1.0543\ngini = 0.229663056296\nsamples = 436", shape="box"] ;
6 -> 7 ;
8 [label="gini = 0.3067\nsamples = 213\nvalue = [ 0.00970127  0.00226255]", shape="box"] ;
7 -> 8 ;
9 [label="gini = 0.1384\nsamples = 223\nvalue = [ 0.01092314  0.0008834 ]", shape="box"] ;
7 -> 9 ;
10 [label="tau_pt_ratio <= 1.7595\ngini = 0.0910876391181\nsamples = 443", shape="box"] ;
6 -> 10 ;
11 [label="gini = 0.0342\nsamples = 223\nvalue = [ 0.01156934  0.00020483]", shape="box"] ;
10 -> 11 ;
12 [label="gini = 0.1432\nsamples = 220\nvalue = [ 0.01109407  0.00093366]", shape="box"] ;
10 -> 12 ;
13 [label="sum_pt_full <= 268149.1250\ngini = 0.27280253262\nsamples = 1444", shape="box"] ;
3 -> 13 ;
14 [label="mmc1_mass <= 77.3693\ngini = 0.230008558553\nsamples = 1239", shape="box"] ;
13 -> 14 ;
15 [label="tau_pt_ratio <= 1.6077\ngini = 0.130184850175\nsamples = 566", shape="box"] ;
14 -> 15 ;
16 [label="gini = 0.0472\nsamples = 321\nvalue = [ 0.01143651  0.00028366]", shape="box"] ;
15 -> 16 ;
17 [label="gini = 0.2006\nsamples = 245\nvalue = [ 0.0110475   0.00140845]", shape="box"] ;
15 -> 17 ;
18 [label="sum_pt_full <= 225978.1562\ngini = 0.278191681896\nsamples = 673", shape="box"] ;
14 -> 18 ;
19 [label="tau_pt_ratio <= 1.3272\ngini = 0.237197288836\nsamples = 487", shape="box"] ;
18 -> 19 ;
20 [label="gini = 0.3197\nsamples = 189\nvalue = [ 0.00959338  0.0023949 ]", shape="box"] ;
19 -> 20 ;
21 [label="gini = 0.1748\nsamples = 298\nvalue = [ 0.01655728  0.00177428]", shape="box"] ;
19 -> 21 ;
22 [label="gini = 0.3567\nsamples = 186\nvalue = [ 0.0104984   0.00317703]", shape="box"] ;
18 -> 22 ;
23 [label="gini = 0.4223\nsamples = 205\nvalue = [ 0.01030947  0.00448076]", shape="box"] ;
13 -> 23 ;
24 [label="gini = 0.4140\nsamples = 185\nvalue = [ 0.0106892   0.00442242]", shape="box"] ;
2 -> 24 ;
25 [label="tau_pt_ratio <= 2.8982\ngini = 0.429352670582\nsamples = 2570", shape="box"] ;
1 -> 25 ;
26 [label="dR_tau1_tau2 <= 1.7207\ngini = 0.410653033375\nsamples = 2197", shape="box"] ;
25 -> 26 ;
27 [label="tau_pt_ratio <= 1.3237\ngini = 0.39460514777\nsamples = 1971", shape="box"] ;
26 -> 27 ;
28 [label="dR_tau1_tau2 <= 1.1485\ngini = 0.318295213421\nsamples = 608", shape="box"] ;
27 -> 28 ;
29 [label="gini = 0.1564\nsamples = 141\nvalue = [ 0.01067917  0.0009989 ]", shape="box"] ;
28 -> 29 ;
30 [label="mmc1_mass <= 91.6125\ngini = 0.356849384559\nsamples = 467", shape="box"] ;
28 -> 30 ;
31 [label="gini = 0.2500\nsamples = 222\nvalue = [ 0.0149219   0.00256005]", shape="box"] ;
30 -> 31 ;
32 [label="gini = 0.4220\nsamples = 245\nvalue = [ 0.0149843   0.00649768]", shape="box"] ;
30 -> 32 ;
33 [label="MET_centrality <= 1.2527\ngini = 0.421430162444\nsamples = 1363", shape="box"] ;
27 -> 33 ;
34 [label="mmc1_mass <= 92.3118\ngini = 0.384425934269\nsamples = 834", shape="box"] ;
33 -> 34 ;
35 [label="mmc1_mass <= 87.1598\ngini = 0.306315354924\nsamples = 464", shape="box"] ;
34 -> 35 ;
36 [label="gini = 0.4183\nsamples = 136\nvalue = [ 0.00822354  0.00348906]", shape="box"] ;
35 -> 36 ;
37 [label="gini = 0.2298\nsamples = 328\nvalue = [ 0.01967433  0.00300414]", shape="box"] ;
35 -> 37 ;
38 [label="tau_pt_ratio <= 1.8552\ngini = 0.445162631379\nsamples = 370", shape="box"] ;
34 -> 38 ;
39 [label="gini = 0.4857\nsamples = 179\nvalue = [ 0.00988856  0.00702692]", shape="box"] ;
38 -> 39 ;
40 [label="gini = 0.3718\nsamples = 191\nvalue = [ 0.01177831  0.00385929]", shape="box"] ;
38 -> 40 ;
41 [label="dR_tau1_tau2 <= 1.3161\ngini = 0.460403707952\nsamples = 529", shape="box"] ;
33 -> 41 ;
42 [label="gini = 0.4154\nsamples = 208\nvalue = [ 0.0137168   0.00571958]", shape="box"] ;
41 -> 42 ;
43 [label="sum_pt_full <= 235384.3281\ngini = 0.48074354255\nsamples = 321", shape="box"] ;
41 -> 43 ;
44 [label="gini = 0.4400\nsamples = 212\nvalue = [ 0.01214541  0.00589599]", shape="box"] ;
43 -> 44 ;
45 [label="gini = 0.4993\nsamples = 109\nvalue = [ 0.00560622  0.00603125]", shape="box"] ;
43 -> 45 ;
46 [label="gini = 0.4961\nsamples = 226\nvalue = [ 0.0098592   0.00826502]", shape="box"] ;
26 -> 46 ;
47 [label="sum_pt_full <= 381258.5312\ngini = 0.496619886643\nsamples = 373", shape="box"] ;
25 -> 47 ;
48 [label="gini = 0.4827\nsamples = 234\nvalue = [ 0.01036441  0.00711137]", shape="box"] ;
47 -> 48 ;
49 [label="gini = 0.4976\nsamples = 139\nvalue = [ 0.00558384  0.00641357]", shape="box"] ;
47 -> 49 ;
50 [label="mmc1_mass <= 107.3422\ngini = 0.432471407722\nsamples = 10900", shape="box"] ;
0 -> 50 ;
51 [label="mmc1_mass <= 102.4812\ngini = 0.496912959463\nsamples = 2203", shape="box"] ;
50 -> 51 ;
52 [label="tau_pt_ratio <= 2.5547\ngini = 0.499676669325\nsamples = 1047", shape="box"] ;
51 -> 52 ;
53 [label="MET_centrality <= 1.2928\ngini = 0.495345154238\nsamples = 821", shape="box"] ;
52 -> 53 ;
54 [label="dR_tau1_tau2 <= 1.2490\ngini = 0.481822755569\nsamples = 510", shape="box"] ;
53 -> 54 ;
55 [label="gini = 0.3645\nsamples = 132\nvalue = [ 0.00925542  0.00291775]", shape="box"] ;
54 -> 55 ;
56 [label="dR_tau1_tau2 <= 1.5789\ngini = 0.496990083973\nsamples = 378", shape="box"] ;
54 -> 56 ;
57 [label="gini = 0.4978\nsamples = 203\nvalue = [ 0.01026082  0.01172524]", shape="box"] ;
56 -> 57 ;
58 [label="gini = 0.4514\nsamples = 175\nvalue = [ 0.0088771   0.00465678]", shape="box"] ;
56 -> 58 ;
59 [label="sum_pt_full <= 263518.4688\ngini = 0.497668218806\nsamples = 311", shape="box"] ;
53 -> 59 ;
60 [label="gini = 0.4992\nsamples = 189\nvalue = [ 0.00787083  0.00726756]", shape="box"] ;
59 -> 60 ;
61 [label="gini = 0.4793\nsamples = 122\nvalue = [ 0.00482837  0.00729324]", shape="box"] ;
59 -> 61 ;
62 [label="gini = 0.4626\nsamples = 226\nvalue = [ 0.00647034  0.01134331]", shape="box"] ;
52 -> 62 ;
63 [label="sum_pt_full <= 273847.4375\ngini = 0.482630975897\nsamples = 1156", shape="box"] ;
51 -> 63 ;
64 [label="mmc1_mass <= 103.9695\ngini = 0.495761419014\nsamples = 623", shape="box"] ;
63 -> 64 ;
65 [label="gini = 0.4976\nsamples = 164\nvalue = [ 0.00628986  0.00547871]", shape="box"] ;
64 -> 65 ;
66 [label="sum_pt_full <= 229376.9062\ngini = 0.489697482919\nsamples = 459", shape="box"] ;
64 -> 66 ;
67 [label="gini = 0.4984\nsamples = 268\nvalue = [ 0.01004437  0.01124089]", shape="box"] ;
66 -> 67 ;
68 [label="gini = 0.4653\nsamples = 191\nvalue = [ 0.00571854  0.00980585]", shape="box"] ;
66 -> 68 ;
69 [label="MET_centrality <= 1.2734\ngini = 0.455494153169\nsamples = 533", shape="box"] ;
63 -> 69 ;
70 [label="tau_pt_ratio <= 1.8591\ngini = 0.481223396014\nsamples = 318", shape="box"] ;
69 -> 70 ;
71 [label="gini = 0.4979\nsamples = 127\nvalue = [ 0.00573868  0.00652638]", shape="box"] ;
70 -> 71 ;
72 [label="gini = 0.4571\nsamples = 191\nvalue = [ 0.00567537  0.01037478]", shape="box"] ;
70 -> 72 ;
73 [label="gini = 0.3578\nsamples = 215\nvalue = [ 0.00294089  0.00966146]", shape="box"] ;
69 -> 73 ;
74 [label="mmc1_mass <= 174.8299\ngini = 0.381828499086\nsamples = 8697", shape="box"] ;
50 -> 74 ;
75 [label="dR_tau1_tau2 <= 1.6034\ngini = 0.367967477966\nsamples = 8546", shape="box"] ;
74 -> 75 ;
76 [label="mmc1_mass <= 113.7221\ngini = 0.289590301266\nsamples = 4680", shape="box"] ;
75 -> 76 ;
77 [label="sum_pt_full <= 281207.9062\ngini = 0.36552267276\nsamples = 1077", shape="box"] ;
76 -> 77 ;
78 [label="gini = 0.4278\nsamples = 350\nvalue = [ 0.00620808  0.01381884]", shape="box"] ;
77 -> 78 ;
79 [label="MET_centrality <= 0.8655\ngini = 0.328740985881\nsamples = 727", shape="box"] ;
77 -> 79 ;
80 [label="gini = 0.4248\nsamples = 181\nvalue = [ 0.00365047  0.00827373]", shape="box"] ;
79 -> 80 ;
81 [label="sum_pt_full <= 392857.8438\ngini = 0.279220800513\nsamples = 546", shape="box"] ;
79 -> 81 ;
82 [label="gini = 0.2154\nsamples = 356\nvalue = [ 0.00217522  0.01554075]", shape="box"] ;
81 -> 82 ;
83 [label="gini = 0.3586\nsamples = 190\nvalue = [ 0.0028106   0.00919507]", shape="box"] ;
81 -> 83 ;
84 [label="mmc1_mass <= 141.7564\ngini = 0.251418517601\nsamples = 3603", shape="box"] ;
76 -> 84 ;
85 [label="mmc1_mass <= 121.1986\ngini = 0.234423442935\nsamples = 3359", shape="box"] ;
84 -> 85 ;
86 [label="MET_centrality <= 1.0254\ngini = 0.28212692042\nsamples = 1301", shape="box"] ;
85 -> 86 ;
87 [label="tau_pt_ratio <= 1.6576\ngini = 0.342253929332\nsamples = 443", shape="box"] ;
86 -> 87 ;
88 [label="gini = 0.2584\nsamples = 227\nvalue = [ 0.00195372  0.01086256]", shape="box"] ;
87 -> 88 ;
89 [label="gini = 0.4045\nsamples = 216\nvalue = [ 0.00386036  0.0098527 ]", shape="box"] ;
87 -> 89 ;
90 [label="sum_pt_full <= 304647.8125\ngini = 0.230689928234\nsamples = 858", shape="box"] ;
86 -> 90 ;
91 [label="gini = 0.3257\nsamples = 345\nvalue = [ 0.00300864  0.01168527]", shape="box"] ;
90 -> 91 ;
92 [label="gini = 0.1507\nsamples = 513\nvalue = [ 0.00169888  0.01898979]", shape="box"] ;
90 -> 92 ;
93 [label="dR_tau1_tau2 <= 1.1599\ngini = 0.187055162462\nsamples = 2058", shape="box"] ;
85 -> 93 ;
94 [label="gini = 0.0886\nsamples = 652\nvalue = [ 0.00083033  0.01705064]", shape="box"] ;
93 -> 94 ;
95 [label="MET_centrality <= 1.1744\ngini = 0.218795899433\nsamples = 1406", shape="box"] ;
93 -> 95 ;
96 [label="mmc1_mass <= 128.9553\ngini = 0.159753747718\nsamples = 723", shape="box"] ;
95 -> 96 ;
97 [label="gini = 0.0734\nsamples = 394\nvalue = [ 0.00057115  0.01439958]", shape="box"] ;
96 -> 97 ;
98 [label="gini = 0.2565\nsamples = 329\nvalue = [ 0.00175805  0.00987843]", shape="box"] ;
96 -> 98 ;
99 [label="mmc1_mass <= 127.1421\ngini = 0.278278842435\nsamples = 683", shape="box"] ;
95 -> 99 ;
100 [label="gini = 0.3276\nsamples = 306\nvalue = [ 0.00240153  0.00923595]", shape="box"] ;
99 -> 100 ;
101 [label="gini = 0.2251\nsamples = 377\nvalue = [ 0.00156465  0.01054142]", shape="box"] ;
99 -> 101 ;
102 [label="gini = 0.3983\nsamples = 244\nvalue = [ 0.00333212  0.00880486]", shape="box"] ;
84 -> 102 ;
103 [label="mmc1_mass <= 114.6603\ngini = 0.422623496073\nsamples = 3866", shape="box"] ;
75 -> 103 ;
104 [label="mmc1_mass <= 109.8202\ngini = 0.482377388933\nsamples = 733", shape="box"] ;
103 -> 104 ;
105 [label="gini = 0.4994\nsamples = 233\nvalue = [ 0.0073783   0.00789402]", shape="box"] ;
104 -> 105 ;
106 [label="mmc1_mass <= 112.0201\ngini = 0.466661261722\nsamples = 500", shape="box"] ;
104 -> 106 ;
107 [label="gini = 0.4284\nsamples = 228\nvalue = [ 0.00475591  0.01054981]", shape="box"] ;
106 -> 107 ;
108 [label="gini = 0.4878\nsamples = 272\nvalue = [ 0.00761778  0.01043865]", shape="box"] ;
106 -> 108 ;
109 [label="dR_tau1_tau2 <= 2.0233\ngini = 0.399166541897\nsamples = 3133", shape="box"] ;
103 -> 109 ;
110 [label="sum_pt_full <= 189886.0000\ngini = 0.36275406784\nsamples = 2338", shape="box"] ;
109 -> 110 ;
111 [label="gini = 0.4621\nsamples = 163\nvalue = [ 0.00430213  0.0075723 ]", shape="box"] ;
110 -> 111 ;
112 [label="tau_pt_ratio <= 1.1429\ngini = 0.348725179335\nsamples = 2175", shape="box"] ;
110 -> 112 ;
113 [label="gini = 0.2189\nsamples = 319\nvalue = [ 0.00205718  0.01439074]", shape="box"] ;
112 -> 113 ;
114 [label="tau_pt_ratio <= 1.2898\ngini = 0.366876056485\nsamples = 1856", shape="box"] ;
112 -> 114 ;
115 [label="gini = 0.4522\nsamples = 268\nvalue = [ 0.00513972  0.00973869]", shape="box"] ;
114 -> 115 ;
116 [label="tau_pt_ratio <= 1.8297\ngini = 0.346708003247\nsamples = 1588", shape="box"] ;
114 -> 116 ;
117 [label="dR_tau1_tau2 <= 1.8789\ngini = 0.27920688901\nsamples = 704", shape="box"] ;
116 -> 117 ;
118 [label="dR_tau1_tau2 <= 1.7349\ngini = 0.324789634014\nsamples = 491", shape="box"] ;
117 -> 118 ;
119 [label="gini = 0.2928\nsamples = 240\nvalue = [ 0.00207323  0.00956331]", shape="box"] ;
118 -> 119 ;
120 [label="gini = 0.3540\nsamples = 251\nvalue = [ 0.00267702  0.0089699 ]", shape="box"] ;
118 -> 120 ;
121 [label="gini = 0.1796\nsamples = 213\nvalue = [ 0.00123929  0.01118449]", shape="box"] ;
117 -> 121 ;
122 [label="MET_centrality <= 1.3267\ngini = 0.39070506304\nsamples = 884", shape="box"] ;
116 -> 122 ;
123 [label="dR_tau1_tau2 <= 1.7417\ngini = 0.348922578963\nsamples = 634", shape="box"] ;
122 -> 123 ;
124 [label="gini = 0.2694\nsamples = 252\nvalue = [ 0.00189291  0.00990341]", shape="box"] ;
123 -> 124 ;
125 [label="gini = 0.3905\nsamples = 382\nvalue = [ 0.00496316  0.01369071]", shape="box"] ;
123 -> 125 ;
126 [label="gini = 0.4532\nsamples = 250\nvalue = [ 0.00537049  0.01010378]", shape="box"] ;
122 -> 126 ;
127 [label="sum_pt_full <= 259538.1875\ngini = 0.461221065531\nsamples = 795", shape="box"] ;
109 -> 127 ;
128 [label="tau_pt_ratio <= 1.7913\ngini = 0.436636378455\nsamples = 605", shape="box"] ;
127 -> 128 ;
129 [label="gini = 0.4820\nsamples = 323\nvalue = [ 0.00885549  0.01299882]", shape="box"] ;
128 -> 129 ;
130 [label="gini = 0.3573\nsamples = 282\nvalue = [ 0.00475302  0.01565431]", shape="box"] ;
128 -> 130 ;
131 [label="gini = 0.4999\nsamples = 190\nvalue = [ 0.00615107  0.0063603 ]", shape="box"] ;
127 -> 131 ;
132 [label="gini = 0.3523\nsamples = 151\nvalue = [ 0.00898018  0.00265625]", shape="box"] ;
74 -> 132 ;
}