digraph Tree {
0 [label="mmc1_mass <= 101.5861\ngini = 0.499634142842\nsamples = 16419", shape="box"] ;
1 [label="mmc1_mass <= 95.0913\ngini = 0.338787521225\nsamples = 6362", shape="box"] ;
0 -> 1 ;
2 [label="mmc1_mass <= 84.3230\ngini = 0.251339629242\nsamples = 4898", shape="box"] ;
1 -> 2 ;
3 [label="tau_pt_ratio <= 3.2436\ngini = 0.137777989411\nsamples = 2725", shape="box"] ;
2 -> 3 ;
4 [label="dR_tau1_tau2 <= 1.5540\ngini = 0.11793521956\nsamples = 2577", shape="box"] ;
3 -> 4 ;
5 [label="tau_pt_ratio <= 1.4413\ngini = 0.100160458124\nsamples = 2417", shape="box"] ;
4 -> 5 ;
6 [label="sum_pt_full <= 248311.8438\ngini = 0.0311319196585\nsamples = 998", shape="box"] ;
5 -> 6 ;
7 [label="mmc1_mass <= 76.8306\ngini = 0.0204950750572\nsamples = 737", shape="box"] ;
6 -> 7 ;
8 [label="tau_pt_ratio <= 1.1858\ngini = 0.00637704511439\nsamples = 513", shape="box"] ;
7 -> 8 ;
9 [label="gini = 0.0133\nsamples = 219\nvalue = [  1.28647858e-02   8.66228566e-05]", shape="box"] ;
8 -> 9 ;
10 [label="gini = 0.0003\nsamples = 294\nvalue = [  1.47182040e-02   1.89149454e-06]", shape="box"] ;
8 -> 10 ;
11 [label="gini = 0.0465\nsamples = 224\nvalue = [ 0.01437154  0.00035046]", shape="box"] ;
7 -> 11 ;
12 [label="gini = 0.0566\nsamples = 261\nvalue = [ 0.01688775  0.00050664]", shape="box"] ;
6 -> 12 ;
13 [label="sum_pt_full <= 216139.2969\ngini = 0.142918449066\nsamples = 1419", shape="box"] ;
5 -> 13 ;
14 [label="dR_tau1_tau2 <= 1.3304\ngini = 0.0536343445967\nsamples = 528", shape="box"] ;
13 -> 14 ;
15 [label="gini = 0.0216\nsamples = 321\nvalue = [ 0.01651577  0.00018225]", shape="box"] ;
14 -> 15 ;
16 [label="gini = 0.0926\nsamples = 207\nvalue = [ 0.0125576   0.00064226]", shape="box"] ;
14 -> 16 ;
17 [label="dR_tau1_tau2 <= 1.1869\ngini = 0.183538962988\nsamples = 891", shape="box"] ;
13 -> 17 ;
18 [label="MET_centrality <= 1.0570\ngini = 0.111709692041\nsamples = 549", shape="box"] ;
17 -> 18 ;
19 [label="gini = 0.1749\nsamples = 260\nvalue = [ 0.0152856  0.0016386]", shape="box"] ;
18 -> 19 ;
20 [label="gini = 0.0517\nsamples = 289\nvalue = [ 0.01879188  0.00051269]", shape="box"] ;
18 -> 20 ;
21 [label="mmc1_mass <= 79.1981\ngini = 0.278042385423\nsamples = 342", shape="box"] ;
17 -> 21 ;
22 [label="gini = 0.3465\nsamples = 168\nvalue = [ 0.00927132  0.00266053]", shape="box"] ;
21 -> 22 ;
23 [label="gini = 0.1980\nsamples = 174\nvalue = [ 0.0107291   0.00134527]", shape="box"] ;
21 -> 23 ;
24 [label="gini = 0.3101\nsamples = 160\nvalue = [ 0.00944356  0.00224227]", shape="box"] ;
4 -> 24 ;
25 [label="gini = 0.3583\nsamples = 148\nvalue = [ 0.00893109  0.0027263 ]", shape="box"] ;
3 -> 25 ;
26 [label="tau_pt_ratio <= 3.1638\ngini = 0.344057992901\nsamples = 2173", shape="box"] ;
2 -> 26 ;
27 [label="dR_tau1_tau2 <= 0.9682\ngini = 0.3222286858\nsamples = 1949", shape="box"] ;
26 -> 27 ;
28 [label="gini = 0.0471\nsamples = 154\nvalue = [ 0.01256623  0.00031101]", shape="box"] ;
27 -> 28 ;
29 [label="MET_centrality <= 1.3874\ngini = 0.340698157843\nsamples = 1795", shape="box"] ;
27 -> 29 ;
30 [label="sum_pt_full <= 332844.3750\ngini = 0.316345212471\nsamples = 1534", shape="box"] ;
29 -> 30 ;
31 [label="dR_tau1_tau2 <= 1.5820\ngini = 0.287338433228\nsamples = 1342", shape="box"] ;
30 -> 31 ;
32 [label="mmc1_mass <= 92.1275\ngini = 0.253605205474\nsamples = 1001", shape="box"] ;
31 -> 32 ;
33 [label="dR_tau1_tau2 <= 1.3536\ngini = 0.217052610253\nsamples = 735", shape="box"] ;
32 -> 33 ;
34 [label="mmc1_mass <= 86.9943\ngini = 0.171494412523\nsamples = 378", shape="box"] ;
33 -> 34 ;
35 [label="gini = 0.2386\nsamples = 151\nvalue = [ 0.01124829  0.00180761]", shape="box"] ;
34 -> 35 ;
36 [label="gini = 0.1182\nsamples = 227\nvalue = [ 0.01691525  0.00113912]", shape="box"] ;
34 -> 36 ;
37 [label="tau_pt_ratio <= 1.5953\ngini = 0.265375475994\nsamples = 357", shape="box"] ;
33 -> 37 ;
38 [label="gini = 0.1852\nsamples = 198\nvalue = [ 0.01374805  0.00158266]", shape="box"] ;
37 -> 38 ;
39 [label="gini = 0.3530\nsamples = 159\nvalue = [ 0.00897796  0.00266554]", shape="box"] ;
37 -> 39 ;
40 [label="gini = 0.3405\nsamples = 266\nvalue = [ 0.01666215  0.00463305]", shape="box"] ;
32 -> 40 ;
41 [label="gini = 0.3858\nsamples = 341\nvalue = [ 0.0167716   0.00592466]", shape="box"] ;
31 -> 41 ;
42 [label="gini = 0.4416\nsamples = 192\nvalue = [ 0.01194083  0.00585931]", shape="box"] ;
30 -> 42 ;
43 [label="dR_tau1_tau2 <= 1.4935\ngini = 0.436596203068\nsamples = 261", shape="box"] ;
29 -> 43 ;
44 [label="gini = 0.3961\nsamples = 133\nvalue = [ 0.00890304  0.00332834]", shape="box"] ;
43 -> 44 ;
45 [label="gini = 0.4683\nsamples = 128\nvalue = [ 0.00733031  0.00437953]", shape="box"] ;
43 -> 45 ;
46 [label="gini = 0.4840\nsamples = 224\nvalue = [ 0.00920322  0.00640879]", shape="box"] ;
26 -> 46 ;
47 [label="MET_centrality <= 1.2614\ngini = 0.488083423761\nsamples = 1464", shape="box"] ;
1 -> 47 ;
48 [label="mmc1_mass <= 97.1810\ngini = 0.461833556255\nsamples = 833", shape="box"] ;
47 -> 48 ;
49 [label="gini = 0.3988\nsamples = 283\nvalue = [ 0.01522235  0.00577667]", shape="box"] ;
48 -> 49 ;
50 [label="tau_pt_ratio <= 2.3536\ngini = 0.481447110014\nsamples = 550", shape="box"] ;
48 -> 50 ;
51 [label="dR_tau1_tau2 <= 1.4960\ngini = 0.462911026725\nsamples = 377", shape="box"] ;
50 -> 51 ;
52 [label="gini = 0.4261\nsamples = 207\nvalue = [ 0.01237608  0.00550186]", shape="box"] ;
51 -> 52 ;
53 [label="gini = 0.4919\nsamples = 170\nvalue = [ 0.00779801  0.00603544]", shape="box"] ;
51 -> 53 ;
54 [label="gini = 0.4998\nsamples = 173\nvalue = [ 0.00580097  0.00604699]", shape="box"] ;
50 -> 54 ;
55 [label="sum_pt_full <= 333486.5312\ngini = 0.499997654438\nsamples = 631", shape="box"] ;
47 -> 55 ;
56 [label="dR_tau1_tau2 <= 1.5124\ngini = 0.495970625407\nsamples = 497", shape="box"] ;
55 -> 56 ;
57 [label="gini = 0.4768\nsamples = 225\nvalue = [ 0.0109528   0.00707278]", shape="box"] ;
56 -> 57 ;
58 [label="gini = 0.4998\nsamples = 272\nvalue = [ 0.00996219  0.01039645]", shape="box"] ;
56 -> 58 ;
59 [label="gini = 0.4553\nsamples = 134\nvalue = [ 0.00416677  0.00772143]", shape="box"] ;
55 -> 59 ;
60 [label="mmc1_mass <= 165.5690\ngini = 0.357093448799\nsamples = 10057", shape="box"] ;
0 -> 60 ;
61 [label="mmc1_mass <= 109.8265\ngini = 0.342374070729\nsamples = 9852", shape="box"] ;
60 -> 61 ;
62 [label="dR_tau1_tau2 <= 1.5959\ngini = 0.462965901806\nsamples = 1989", shape="box"] ;
61 -> 62 ;
63 [label="mmc1_mass <= 105.7116\ngini = 0.431239460714\nsamples = 1241", shape="box"] ;
62 -> 63 ;
64 [label="tau_pt_ratio <= 1.9809\ngini = 0.471437135042\nsamples = 595", shape="box"] ;
63 -> 64 ;
65 [label="sum_pt_full <= 277607.5000\ngini = 0.496822345803\nsamples = 332", shape="box"] ;
64 -> 65 ;
66 [label="gini = 0.4987\nsamples = 176\nvalue = [ 0.00612295  0.00553673]", shape="box"] ;
65 -> 66 ;
67 [label="gini = 0.4781\nsamples = 156\nvalue = [ 0.00463488  0.00708493]", shape="box"] ;
65 -> 67 ;
68 [label="gini = 0.4080\nsamples = 263\nvalue = [ 0.00559965  0.01401087]", shape="box"] ;
64 -> 68 ;
69 [label="MET_centrality <= 1.0284\ngini = 0.375363737032\nsamples = 646", shape="box"] ;
63 -> 69 ;
70 [label="gini = 0.4448\nsamples = 227\nvalue = [ 0.00585197  0.01167384]", shape="box"] ;
69 -> 70 ;
71 [label="mmc1_mass <= 107.5589\ngini = 0.314343056097\nsamples = 419", shape="box"] ;
69 -> 71 ;
72 [label="gini = 0.3868\nsamples = 188\nvalue = [ 0.00325839  0.00917527]", shape="box"] ;
71 -> 72 ;
73 [label="gini = 0.2361\nsamples = 231\nvalue = [ 0.00193729  0.01222958]", shape="box"] ;
71 -> 73 ;
74 [label="MET_centrality <= 1.2654\ngini = 0.495500408958\nsamples = 748", shape="box"] ;
62 -> 74 ;
75 [label="mmc1_mass <= 106.5116\ngini = 0.499953544907\nsamples = 403", shape="box"] ;
74 -> 75 ;
76 [label="gini = 0.4952\nsamples = 228\nvalue = [ 0.0074318   0.00610777]", shape="box"] ;
75 -> 76 ;
77 [label="gini = 0.4957\nsamples = 175\nvalue = [ 0.00529796  0.00637893]", shape="box"] ;
75 -> 77 ;
78 [label="gini = 0.4783\nsamples = 345\nvalue = [ 0.00921559  0.01405868]", shape="box"] ;
74 -> 78 ;
79 [label="dR_tau1_tau2 <= 1.5573\ngini = 0.280721435196\nsamples = 7863", shape="box"] ;
61 -> 79 ;
80 [label="mmc1_mass <= 140.0549\ngini = 0.171731738634\nsamples = 3950", shape="box"] ;
79 -> 80 ;
81 [label="mmc1_mass <= 119.1835\ngini = 0.161087271894\nsamples = 3687", shape="box"] ;
80 -> 81 ;
82 [label="mmc1_mass <= 117.7668\ngini = 0.211808327763\nsamples = 1506", shape="box"] ;
81 -> 82 ;
83 [label="mmc1_mass <= 113.7221\ngini = 0.191903711762\nsamples = 1269", shape="box"] ;
82 -> 83 ;
84 [label="tau_pt_ratio <= 1.6271\ngini = 0.247513715268\nsamples = 623", shape="box"] ;
83 -> 84 ;
85 [label="gini = 0.1532\nsamples = 281\nvalue = [ 0.00106117  0.01162992]", shape="box"] ;
84 -> 85 ;
86 [label="gini = 0.3085\nsamples = 342\nvalue = [ 0.00321875  0.01366949]", shape="box"] ;
84 -> 86 ;
87 [label="MET_centrality <= 1.0094\ngini = 0.141819403289\nsamples = 646", shape="box"] ;
83 -> 87 ;
88 [label="gini = 0.1939\nsamples = 221\nvalue = [ 0.00164798  0.01350256]", shape="box"] ;
87 -> 88 ;
89 [label="gini = 0.1011\nsamples = 425\nvalue = [ 0.00110365  0.01956996]", shape="box"] ;
87 -> 89 ;
90 [label="gini = 0.3109\nsamples = 237\nvalue = [ 0.00225099  0.00944273]", shape="box"] ;
82 -> 90 ;
91 [label="dR_tau1_tau2 <= 1.1227\ngini = 0.112885629324\nsamples = 2181", shape="box"] ;
81 -> 91 ;
92 [label="gini = 0.0409\nsamples = 639\nvalue = [ 0.00047811  0.02243997]", shape="box"] ;
91 -> 92 ;
93 [label="sum_pt_full <= 305057.5312\ngini = 0.137039177364\nsamples = 1542", shape="box"] ;
91 -> 93 ;
94 [label="gini = 0.1781\nsamples = 521\nvalue = [ 0.00229915  0.02096119]", shape="box"] ;
93 -> 94 ;
95 [label="dR_tau1_tau2 <= 1.2518\ngini = 0.11270118937\nsamples = 1021", shape="box"] ;
93 -> 95 ;
96 [label="gini = 0.1745\nsamples = 357\nvalue = [ 0.00154378  0.01444165]", shape="box"] ;
95 -> 96 ;
97 [label="dR_tau1_tau2 <= 1.4151\ngini = 0.0706362741023\nsamples = 664", shape="box"] ;
95 -> 97 ;
98 [label="gini = 0.0477\nsamples = 403\nvalue = [ 0.00032877  0.01311975]", shape="box"] ;
97 -> 98 ;
99 [label="gini = 0.0963\nsamples = 261\nvalue = [ 0.00059333  0.0111091 ]", shape="box"] ;
97 -> 99 ;
100 [label="gini = 0.3039\nsamples = 263\nvalue = [ 0.00217571  0.00946596]", shape="box"] ;
80 -> 100 ;
101 [label="dR_tau1_tau2 <= 2.0904\ngini = 0.354168473955\nsamples = 3913", shape="box"] ;
79 -> 101 ;
102 [label="mmc1_mass <= 117.2479\ngini = 0.32409809589\nsamples = 3297", shape="box"] ;
101 -> 102 ;
103 [label="MET_centrality <= 1.1881\ngini = 0.404891737157\nsamples = 814", shape="box"] ;
102 -> 103 ;
104 [label="gini = 0.4409\nsamples = 361\nvalue = [ 0.00739396  0.01513855]", shape="box"] ;
103 -> 104 ;
105 [label="MET_centrality <= 1.3453\ngini = 0.3672301561\nsamples = 453", shape="box"] ;
103 -> 105 ;
106 [label="gini = 0.2844\nsamples = 212\nvalue = [ 0.0021283   0.01026962]", shape="box"] ;
105 -> 106 ;
107 [label="gini = 0.4242\nsamples = 241\nvalue = [ 0.00424725  0.00966231]", shape="box"] ;
105 -> 107 ;
108 [label="MET_centrality <= 1.1765\ngini = 0.286115791379\nsamples = 2483", shape="box"] ;
102 -> 108 ;
109 [label="MET_centrality <= 1.0301\ngini = 0.233477617942\nsamples = 1167", shape="box"] ;
108 -> 109 ;
110 [label="dR_tau1_tau2 <= 1.7346\ngini = 0.271600496169\nsamples = 762", shape="box"] ;
109 -> 110 ;
111 [label="gini = 0.1853\nsamples = 307\nvalue = [ 0.00172636  0.01498303]", shape="box"] ;
110 -> 111 ;
112 [label="mmc1_mass <= 129.4172\ngini = 0.323789772212\nsamples = 455", shape="box"] ;
110 -> 112 ;
113 [label="gini = 0.3655\nsamples = 226\nvalue = [ 0.00288429  0.00909964]", shape="box"] ;
112 -> 113 ;
114 [label="gini = 0.2761\nsamples = 229\nvalue = [ 0.00196733  0.00992779]", shape="box"] ;
112 -> 114 ;
115 [label="gini = 0.1377\nsamples = 405\nvalue = [ 0.00135227  0.01682351]", shape="box"] ;
109 -> 115 ;
116 [label="mmc1_mass <= 129.4803\ngini = 0.327451965331\nsamples = 1316", shape="box"] ;
108 -> 116 ;
117 [label="dR_tau1_tau2 <= 1.7766\ngini = 0.365455266401\nsamples = 701", shape="box"] ;
116 -> 117 ;
118 [label="gini = 0.2814\nsamples = 335\nvalue = [ 0.00239828  0.01175844]", shape="box"] ;
117 -> 118 ;
119 [label="gini = 0.4112\nsamples = 366\nvalue = [ 0.00598894  0.01470948]", shape="box"] ;
117 -> 119 ;
120 [label="mmc1_mass <= 136.6564\ngini = 0.281091585076\nsamples = 615", shape="box"] ;
116 -> 120 ;
121 [label="gini = 0.0851\nsamples = 266\nvalue = [ 0.00060062  0.01288283]", shape="box"] ;
120 -> 121 ;
122 [label="gini = 0.3835\nsamples = 349\nvalue = [ 0.00485721  0.01392339]", shape="box"] ;
120 -> 122 ;
123 [label="mmc1_mass <= 140.9927\ngini = 0.455077993109\nsamples = 616", shape="box"] ;
101 -> 123 ;
124 [label="sum_pt_full <= 215312.0625\ngini = 0.421492469064\nsamples = 440", shape="box"] ;
123 -> 124 ;
125 [label="gini = 0.4814\nsamples = 210\nvalue = [ 0.00471463  0.00696902]", shape="box"] ;
124 -> 125 ;
126 [label="gini = 0.3477\nsamples = 230\nvalue = [ 0.00341779  0.01183833]", shape="box"] ;
124 -> 126 ;
127 [label="gini = 0.4971\nsamples = 176\nvalue = [ 0.00537771  0.00626858]", shape="box"] ;
123 -> 127 ;
128 [label="gini = 0.4079\nsamples = 205\nvalue = [ 0.01045376  0.00417469]", shape="box"] ;
60 -> 128 ;
}