digraph Tree {
0 [label="mmc1_mass <= 101.5861\ngini = 0.499479299583\nsamples = 16419", shape="box"] ;
1 [label="mmc1_mass <= 95.0913\ngini = 0.370336944251\nsamples = 6362", shape="box"] ;
0 -> 1 ;
2 [label="mmc1_mass <= 84.3230\ngini = 0.29122858358\nsamples = 4898", shape="box"] ;
1 -> 2 ;
3 [label="tau_pt_ratio <= 3.2827\ngini = 0.177189080177\nsamples = 2725", shape="box"] ;
2 -> 3 ;
4 [label="dR_tau1_tau2 <= 1.5564\ngini = 0.154870254594\nsamples = 2581", shape="box"] ;
3 -> 4 ;
5 [label="tau_pt_ratio <= 1.4413\ngini = 0.134416448929\nsamples = 2424", shape="box"] ;
4 -> 5 ;
6 [label="sum_pt_full <= 248311.8438\ngini = 0.0487410506935\nsamples = 999", shape="box"] ;
5 -> 6 ;
7 [label="mmc1_mass <= 76.8306\ngini = 0.0333553178699\nsamples = 737", shape="box"] ;
6 -> 7 ;
8 [label="gini = 0.0115\nsamples = 513\nvalue = [ 0.02131799  0.00012453]", shape="box"] ;
7 -> 8 ;
9 [label="gini = 0.0687\nsamples = 224\nvalue = [ 0.01236519  0.00045678]", shape="box"] ;
7 -> 9 ;
10 [label="gini = 0.0819\nsamples = 262\nvalue = [ 0.0148207   0.00066214]", shape="box"] ;
6 -> 10 ;
11 [label="sum_pt_full <= 216139.2969\ngini = 0.181010804435\nsamples = 1425", shape="box"] ;
5 -> 11 ;
12 [label="dR_tau1_tau2 <= 1.3304\ngini = 0.0773295346008\nsamples = 530", shape="box"] ;
11 -> 12 ;
13 [label="gini = 0.0339\nsamples = 321\nvalue = [ 0.01381049  0.00024212]", shape="box"] ;
12 -> 13 ;
14 [label="gini = 0.1243\nsamples = 209\nvalue = [ 0.01150601  0.00082065]", shape="box"] ;
12 -> 14 ;
15 [label="dR_tau1_tau2 <= 1.1869\ngini = 0.223754320271\nsamples = 895", shape="box"] ;
11 -> 15 ;
16 [label="MET_centrality <= 1.0570\ngini = 0.146774224375\nsamples = 552", shape="box"] ;
15 -> 16 ;
17 [label="gini = 0.2185\nsamples = 261\nvalue = [ 0.01403929  0.00200313]", shape="box"] ;
16 -> 17 ;
18 [label="gini = 0.0732\nsamples = 291\nvalue = [ 0.01670343  0.00066095]", shape="box"] ;
16 -> 18 ;
19 [label="mmc1_mass <= 79.1981\ngini = 0.315103456821\nsamples = 343", shape="box"] ;
15 -> 19 ;
20 [label="gini = 0.3811\nsamples = 168\nvalue = [ 0.00897895  0.00309176]", shape="box"] ;
19 -> 20 ;
21 [label="gini = 0.2338\nsamples = 175\nvalue = [ 0.01033528  0.0016151 ]", shape="box"] ;
19 -> 21 ;
22 [label="gini = 0.3456\nsamples = 157\nvalue = [ 0.00916152  0.00261664]", shape="box"] ;
4 -> 22 ;
23 [label="gini = 0.3924\nsamples = 144\nvalue = [ 0.00855709  0.00313325]", shape="box"] ;
3 -> 23 ;
24 [label="tau_pt_ratio <= 3.1638\ngini = 0.372453840384\nsamples = 2173", shape="box"] ;
2 -> 24 ;
25 [label="dR_tau1_tau2 <= 0.9682\ngini = 0.353339334414\nsamples = 1949", shape="box"] ;
24 -> 25 ;
26 [label="gini = 0.0649\nsamples = 154\nvalue = [ 0.01134355  0.00039444]", shape="box"] ;
25 -> 26 ;
27 [label="MET_centrality <= 1.3874\ngini = 0.369811557114\nsamples = 1795", shape="box"] ;
25 -> 27 ;
28 [label="sum_pt_full <= 332844.3750\ngini = 0.347904213271\nsamples = 1534", shape="box"] ;
27 -> 28 ;
29 [label="dR_tau1_tau2 <= 1.3536\ngini = 0.320372049944\nsamples = 1342", shape="box"] ;
28 -> 29 ;
30 [label="dR_tau1_tau2 <= 1.2517\ngini = 0.242492559543\nsamples = 505", shape="box"] ;
29 -> 30 ;
31 [label="dR_tau1_tau2 <= 1.1514\ngini = 0.296844392651\nsamples = 310", shape="box"] ;
30 -> 31 ;
32 [label="gini = 0.1893\nsamples = 170\nvalue = [ 0.01282715  0.0015183 ]", shape="box"] ;
31 -> 32 ;
33 [label="gini = 0.3912\nsamples = 140\nvalue = [ 0.00928282  0.0033775 ]", shape="box"] ;
31 -> 33 ;
34 [label="gini = 0.1213\nsamples = 195\nvalue = [ 0.0132693   0.00092001]", shape="box"] ;
30 -> 34 ;
35 [label="mmc1_mass <= 91.7046\ngini = 0.364667907841\nsamples = 837", shape="box"] ;
29 -> 35 ;
36 [label="MET_centrality <= 0.9988\ngini = 0.315844360595\nsamples = 532", shape="box"] ;
35 -> 36 ;
37 [label="gini = 0.2192\nsamples = 211\nvalue = [ 0.01198343  0.00171638]", shape="box"] ;
36 -> 37 ;
38 [label="dR_tau1_tau2 <= 1.5419\ngini = 0.361169293424\nsamples = 321", shape="box"] ;
36 -> 38 ;
39 [label="gini = 0.2995\nsamples = 159\nvalue = [ 0.01040731  0.00233738]", shape="box"] ;
38 -> 39 ;
40 [label="gini = 0.4155\nsamples = 162\nvalue = [ 0.00824065  0.00344   ]", shape="box"] ;
38 -> 40 ;
41 [label="sum_pt_full <= 209464.3750\ngini = 0.428031349535\nsamples = 305", shape="box"] ;
35 -> 41 ;
42 [label="gini = 0.3506\nsamples = 158\nvalue = [ 0.00904552  0.00265143]", shape="box"] ;
41 -> 42 ;
43 [label="gini = 0.4773\nsamples = 147\nvalue = [ 0.00712605  0.00462441]", shape="box"] ;
41 -> 43 ;
44 [label="gini = 0.4585\nsamples = 192\nvalue = [ 0.0120255   0.00664491]", shape="box"] ;
28 -> 44 ;
45 [label="dR_tau1_tau2 <= 1.5048\ngini = 0.451571333957\nsamples = 261", shape="box"] ;
27 -> 45 ;
46 [label="gini = 0.4051\nsamples = 141\nvalue = [ 0.00969412  0.00380985]", shape="box"] ;
45 -> 46 ;
47 [label="gini = 0.4860\nsamples = 120\nvalue = [ 0.00681056  0.00486002]", shape="box"] ;
45 -> 47 ;
48 [label="gini = 0.4873\nsamples = 224\nvalue = [ 0.009693    0.00703033]", shape="box"] ;
24 -> 48 ;
49 [label="tau_pt_ratio <= 2.8982\ngini = 0.490574410796\nsamples = 1464", shape="box"] ;
1 -> 49 ;
50 [label="MET_centrality <= 1.2826\ngini = 0.481989114742\nsamples = 1213", shape="box"] ;
49 -> 50 ;
51 [label="mmc1_mass <= 98.1644\ngini = 0.457831003418\nsamples = 718", shape="box"] ;
50 -> 51 ;
52 [label="tau_pt_ratio <= 1.4837\ngini = 0.406115982079\nsamples = 344", shape="box"] ;
51 -> 52 ;
53 [label="gini = 0.3503\nsamples = 142\nvalue = [ 0.0090806   0.00265818]", shape="box"] ;
52 -> 53 ;
54 [label="gini = 0.4384\nsamples = 202\nvalue = [ 0.01095537  0.00526323]", shape="box"] ;
52 -> 54 ;
55 [label="sum_pt_full <= 283339.7500\ngini = 0.48566989511\nsamples = 374", shape="box"] ;
51 -> 55 ;
56 [label="gini = 0.4962\nsamples = 242\nvalue = [ 0.01158522  0.00973026]", shape="box"] ;
55 -> 56 ;
57 [label="gini = 0.4490\nsamples = 132\nvalue = [ 0.00770133  0.00397157]", shape="box"] ;
55 -> 57 ;
58 [label="mmc1_mass <= 97.6563\ngini = 0.498889184875\nsamples = 495", shape="box"] ;
50 -> 58 ;
59 [label="gini = 0.4713\nsamples = 187\nvalue = [ 0.01026698  0.00630046]", shape="box"] ;
58 -> 59 ;
60 [label="sum_pt_full <= 275979.0625\ngini = 0.497302033801\nsamples = 308", shape="box"] ;
58 -> 60 ;
61 [label="gini = 0.4998\nsamples = 198\nvalue = [ 0.00739533  0.00711194]", shape="box"] ;
60 -> 61 ;
62 [label="gini = 0.4826\nsamples = 110\nvalue = [ 0.00484281  0.0070667 ]", shape="box"] ;
60 -> 62 ;
63 [label="gini = 0.4872\nsamples = 251\nvalue = [ 0.00769872  0.01063698]", shape="box"] ;
49 -> 63 ;
64 [label="mmc1_mass <= 173.2992\ngini = 0.383260048796\nsamples = 10057", shape="box"] ;
0 -> 64 ;
65 [label="mmc1_mass <= 109.8265\ngini = 0.372052562006\nsamples = 9901", shape="box"] ;
64 -> 65 ;
66 [label="dR_tau1_tau2 <= 1.5959\ngini = 0.470720963165\nsamples = 1989", shape="box"] ;
65 -> 66 ;
67 [label="mmc1_mass <= 105.7116\ngini = 0.444478766946\nsamples = 1241", shape="box"] ;
66 -> 67 ;
68 [label="tau_pt_ratio <= 1.9809\ngini = 0.477780594426\nsamples = 595", shape="box"] ;
67 -> 68 ;
69 [label="sum_pt_full <= 280538.1875\ngini = 0.49789985143\nsamples = 332", shape="box"] ;
68 -> 69 ;
70 [label="gini = 0.4970\nsamples = 183\nvalue = [ 0.00706506  0.00604261]", shape="box"] ;
69 -> 70 ;
71 [label="gini = 0.4754\nsamples = 149\nvalue = [ 0.00463688  0.00728125]", shape="box"] ;
69 -> 71 ;
72 [label="gini = 0.4248\nsamples = 263\nvalue = [ 0.00631864  0.01432383]", shape="box"] ;
68 -> 72 ;
73 [label="MET_centrality <= 1.0284\ngini = 0.396365669796\nsamples = 646", shape="box"] ;
67 -> 73 ;
74 [label="gini = 0.4547\nsamples = 227\nvalue = [ 0.00650967  0.01211209]", shape="box"] ;
73 -> 74 ;
75 [label="tau_pt_ratio <= 1.7114\ngini = 0.342630741001\nsamples = 419", shape="box"] ;
73 -> 75 ;
76 [label="gini = 0.4053\nsamples = 184\nvalue = [ 0.00391813  0.00995567]", shape="box"] ;
75 -> 76 ;
77 [label="gini = 0.2605\nsamples = 235\nvalue = [ 0.00205023  0.01126764]", shape="box"] ;
75 -> 77 ;
78 [label="MET_centrality <= 1.2654\ngini = 0.496686455515\nsamples = 748", shape="box"] ;
66 -> 78 ;
79 [label="mmc1_mass <= 106.6034\ngini = 0.499870009868\nsamples = 403", shape="box"] ;
78 -> 79 ;
80 [label="gini = 0.4931\nsamples = 232\nvalue = [ 0.00833693  0.00658057]", shape="box"] ;
79 -> 80 ;
81 [label="gini = 0.4941\nsamples = 171\nvalue = [ 0.00541755  0.0067374 ]", shape="box"] ;
79 -> 81 ;
82 [label="tau_pt_ratio <= 1.7119\ngini = 0.482438018109\nsamples = 345", shape="box"] ;
78 -> 82 ;
83 [label="gini = 0.4943\nsamples = 166\nvalue = [ 0.00587675  0.00728039]", shape="box"] ;
82 -> 83 ;
84 [label="gini = 0.4614\nsamples = 179\nvalue = [ 0.0042431   0.00750753]", shape="box"] ;
82 -> 84 ;
85 [label="dR_tau1_tau2 <= 1.5573\ngini = 0.318310134798\nsamples = 7912", shape="box"] ;
65 -> 85 ;
86 [label="mmc1_mass <= 140.4432\ngini = 0.213455565453\nsamples = 3959", shape="box"] ;
85 -> 86 ;
87 [label="mmc1_mass <= 119.1835\ngini = 0.19886009128\nsamples = 3704", shape="box"] ;
86 -> 87 ;
88 [label="mmc1_mass <= 117.7668\ngini = 0.250349773022\nsamples = 1506", shape="box"] ;
87 -> 88 ;
89 [label="mmc1_mass <= 113.7221\ngini = 0.228925015772\nsamples = 1269", shape="box"] ;
88 -> 89 ;
90 [label="tau_pt_ratio <= 1.6271\ngini = 0.285540786762\nsamples = 623", shape="box"] ;
89 -> 90 ;
91 [label="gini = 0.1852\nsamples = 281\nvalue = [ 0.00126952  0.01102422]", shape="box"] ;
90 -> 91 ;
92 [label="gini = 0.3458\nsamples = 342\nvalue = [ 0.0038028   0.01330129]", shape="box"] ;
90 -> 92 ;
93 [label="MET_centrality <= 1.0094\ngini = 0.175245048961\nsamples = 646", shape="box"] ;
89 -> 93 ;
94 [label="gini = 0.2332\nsamples = 221\nvalue = [ 0.00199169  0.01278688]", shape="box"] ;
93 -> 94 ;
95 [label="gini = 0.1278\nsamples = 425\nvalue = [ 0.00134364  0.01824876]", shape="box"] ;
93 -> 95 ;
96 [label="gini = 0.3512\nsamples = 237\nvalue = [ 0.00267085  0.00908148]", shape="box"] ;
88 -> 96 ;
97 [label="sum_pt_full <= 305057.5312\ngini = 0.146646072902\nsamples = 2198", shape="box"] ;
87 -> 97 ;
98 [label="gini = 0.2205\nsamples = 522\nvalue = [ 0.00281787  0.01952177]", shape="box"] ;
97 -> 98 ;
99 [label="mmc1_mass <= 133.1987\ngini = 0.116375814955\nsamples = 1676", shape="box"] ;
97 -> 99 ;
100 [label="dR_tau1_tau2 <= 1.1226\ngini = 0.137876639074\nsamples = 1314", shape="box"] ;
99 -> 100 ;
101 [label="gini = 0.0702\nsamples = 534\nvalue = [ 0.00060833  0.01608365]", shape="box"] ;
100 -> 101 ;
102 [label="sum_pt_full <= 367800.9375\ngini = 0.17285093926\nsamples = 780", shape="box"] ;
100 -> 102 ;
103 [label="gini = 0.0906\nsamples = 455\nvalue = [ 0.00070944  0.01419911]", shape="box"] ;
102 -> 103 ;
104 [label="gini = 0.2444\nsamples = 325\nvalue = [ 0.0021704   0.01305869]", shape="box"] ;
102 -> 104 ;
105 [label="gini = 0.0268\nsamples = 362\nvalue = [ 0.00016371  0.01187353]", shape="box"] ;
99 -> 105 ;
106 [label="gini = 0.3707\nsamples = 255\nvalue = [ 0.00295044  0.00905372]", shape="box"] ;
86 -> 106 ;
107 [label="dR_tau1_tau2 <= 2.0904\ngini = 0.382165191546\nsamples = 3953", shape="box"] ;
85 -> 107 ;
108 [label="mmc1_mass <= 122.3475\ngini = 0.355385017863\nsamples = 3314", shape="box"] ;
107 -> 108 ;
109 [label="tau_pt_ratio <= 2.6168\ngini = 0.403847734821\nsamples = 1445", shape="box"] ;
108 -> 109 ;
110 [label="mmc1_mass <= 116.1471\ngini = 0.421578152529\nsamples = 1200", shape="box"] ;
109 -> 110 ;
111 [label="tau_pt_ratio <= 1.6943\ngini = 0.453322129736\nsamples = 583", shape="box"] ;
110 -> 111 ;
112 [label="MET_centrality <= 1.1881\ngini = 0.411436002475\nsamples = 377", shape="box"] ;
111 -> 112 ;
113 [label="gini = 0.4634\nsamples = 169\nvalue = [ 0.00425114  0.00740642]", shape="box"] ;
112 -> 113 ;
114 [label="gini = 0.3478\nsamples = 208\nvalue = [ 0.00299875  0.01038068]", shape="box"] ;
112 -> 114 ;
115 [label="gini = 0.4981\nsamples = 206\nvalue = [ 0.005564    0.00630227]", shape="box"] ;
111 -> 115 ;
116 [label="mmc1_mass <= 119.2530\ngini = 0.377077773683\nsamples = 617", shape="box"] ;
110 -> 116 ;
117 [label="gini = 0.3072\nsamples = 314\nvalue = [ 0.00323209  0.01382572]", shape="box"] ;
116 -> 117 ;
118 [label="gini = 0.4332\nsamples = 303\nvalue = [ 0.00520387  0.01120286]", shape="box"] ;
116 -> 118 ;
119 [label="gini = 0.2920\nsamples = 245\nvalue = [ 0.00257127  0.0119129 ]", shape="box"] ;
109 -> 119 ;
120 [label="dR_tau1_tau2 <= 1.9177\ngini = 0.3031535929\nsamples = 1869", shape="box"] ;
108 -> 120 ;
121 [label="mmc1_mass <= 138.6218\ngini = 0.252680583373\nsamples = 1332", shape="box"] ;
120 -> 121 ;
122 [label="MET_centrality <= 1.1834\ngini = 0.198198461064\nsamples = 1001", shape="box"] ;
121 -> 122 ;
123 [label="MET_centrality <= 0.9043\ngini = 0.137065719984\nsamples = 528", shape="box"] ;
122 -> 123 ;
124 [label="gini = 0.1754\nsamples = 241\nvalue = [ 0.0011458   0.01065027]", shape="box"] ;
123 -> 124 ;
125 [label="gini = 0.0971\nsamples = 287\nvalue = [ 0.00061016  0.01131972]", shape="box"] ;
123 -> 125 ;
126 [label="gini = 0.2599\nsamples = 473\nvalue = [ 0.00325722  0.01796178]", shape="box"] ;
122 -> 126 ;
127 [label="gini = 0.3693\nsamples = 331\nvalue = [ 0.00421137  0.01302586]", shape="box"] ;
121 -> 127 ;
128 [label="MET_centrality <= 1.1577\ngini = 0.385262778549\nsamples = 537", shape="box"] ;
120 -> 128 ;
129 [label="gini = 0.3281\nsamples = 211\nvalue = [ 0.00248299  0.00952241]", shape="box"] ;
128 -> 129 ;
130 [label="gini = 0.4143\nsamples = 326\nvalue = [ 0.00579565  0.0139809 ]", shape="box"] ;
128 -> 130 ;
131 [label="sum_pt_full <= 245921.8438\ngini = 0.464251644897\nsamples = 639", shape="box"] ;
107 -> 131 ;
132 [label="sum_pt_full <= 210445.1562\ngini = 0.437647079413\nsamples = 450", shape="box"] ;
131 -> 132 ;
133 [label="gini = 0.4869\nsamples = 257\nvalue = [ 0.0066324  0.0091888]", shape="box"] ;
132 -> 133 ;
134 [label="gini = 0.3396\nsamples = 193\nvalue = [ 0.00307952  0.01112704]", shape="box"] ;
132 -> 134 ;
135 [label="gini = 0.4977\nsamples = 189\nvalue = [ 0.00601027  0.00688293]", shape="box"] ;
131 -> 135 ;
136 [label="gini = 0.3485\nsamples = 156\nvalue = [ 0.00907523  0.00263141]", shape="box"] ;
64 -> 136 ;
}