digraph Tree {
0 [label="mmc1_mass <= 98.6762\ngini = 0.499390208272\nsamples = 16266", shape="box"] ;
1 [label="mmc1_mass <= 85.0280\ngini = 0.376308583261\nsamples = 5687", shape="box"] ;
0 -> 1 ;
2 [label="tau_pt_ratio <= 3.3255\ngini = 0.253572406497\nsamples = 2905", shape="box"] ;
1 -> 2 ;
3 [label="dR_tau1_tau2 <= 1.5325\ngini = 0.230426360446\nsamples = 2762", shape="box"] ;
2 -> 3 ;
4 [label="mmc1_mass <= 76.7802\ngini = 0.207341274305\nsamples = 2540", shape="box"] ;
3 -> 4 ;
5 [label="sum_pt_full <= 258819.0312\ngini = 0.127354663961\nsamples = 1541", shape="box"] ;
4 -> 5 ;
6 [label="dR_tau1_tau2 <= 1.2438\ngini = 0.0885657158741\nsamples = 1180", shape="box"] ;
5 -> 6 ;
7 [label="dR_tau1_tau2 <= 1.0391\ngini = 0.062992682634\nsamples = 771", shape="box"] ;
6 -> 7 ;
8 [label="gini = 0.1080\nsamples = 382\nvalue = [ 0.01129689  0.00068651]", shape="box"] ;
7 -> 8 ;
9 [label="gini = 0.0176\nsamples = 389\nvalue = [ 0.01241492  0.00011144]", shape="box"] ;
7 -> 9 ;
10 [label="gini = 0.1222\nsamples = 409\nvalue = [ 0.0168079   0.00117541]", shape="box"] ;
6 -> 10 ;
11 [label="gini = 0.2120\nsamples = 361\nvalue = [ 0.01568717  0.00215016]", shape="box"] ;
5 -> 11 ;
12 [label="MET_centrality <= 0.9128\ngini = 0.277150091377\nsamples = 999", shape="box"] ;
4 -> 12 ;
13 [label="gini = 0.3792\nsamples = 333\nvalue = [ 0.01639917  0.00559197]", shape="box"] ;
12 -> 13 ;
14 [label="sum_pt_full <= 248585.9375\ngini = 0.205557605627\nsamples = 666", shape="box"] ;
12 -> 14 ;
15 [label="gini = 0.2749\nsamples = 368\nvalue = [ 0.01784709  0.00351504]", shape="box"] ;
14 -> 15 ;
16 [label="gini = 0.1080\nsamples = 298\nvalue = [ 0.01646466  0.00100084]", shape="box"] ;
14 -> 16 ;
17 [label="gini = 0.3903\nsamples = 222\nvalue = [ 0.01030317  0.00372985]", shape="box"] ;
3 -> 17 ;
18 [label="gini = 0.4456\nsamples = 143\nvalue = [ 0.00778244  0.00392225]", shape="box"] ;
2 -> 18 ;
19 [label="tau_pt_ratio <= 3.7116\ngini = 0.434343836129\nsamples = 2782", shape="box"] ;
1 -> 19 ;
20 [label="dR_tau1_tau2 <= 1.1366\ngini = 0.423619404735\nsamples = 2623", shape="box"] ;
19 -> 20 ;
21 [label="tau_pt_ratio <= 1.8041\ngini = 0.281082002591\nsamples = 501", shape="box"] ;
20 -> 21 ;
22 [label="gini = 0.1569\nsamples = 296\nvalue = [ 0.01869366  0.00175447]", shape="box"] ;
21 -> 22 ;
23 [label="gini = 0.3925\nsamples = 205\nvalue = [ 0.01260529  0.00461776]", shape="box"] ;
21 -> 23 ;
24 [label="mmc1_mass <= 93.8329\ngini = 0.444903863585\nsamples = 2122", shape="box"] ;
20 -> 24 ;
25 [label="MET_centrality <= 1.2308\ngini = 0.409315125254\nsamples = 1341", shape="box"] ;
24 -> 25 ;
26 [label="mmc1_mass <= 87.5238\ngini = 0.344374798577\nsamples = 764", shape="box"] ;
25 -> 26 ;
27 [label="gini = 0.2145\nsamples = 218\nvalue = [ 0.01158521  0.00161268]", shape="box"] ;
26 -> 27 ;
28 [label="MET_centrality <= 0.8148\ngini = 0.379848400555\nsamples = 546", shape="box"] ;
26 -> 28 ;
29 [label="gini = 0.2831\nsamples = 186\nvalue = [ 0.00984147  0.00202601]", shape="box"] ;
28 -> 29 ;
30 [label="sum_pt_full <= 233646.5000\ngini = 0.41375124796\nsamples = 360", shape="box"] ;
28 -> 30 ;
31 [label="gini = 0.3509\nsamples = 188\nvalue = [ 0.00990187  0.00290726]", shape="box"] ;
30 -> 31 ;
32 [label="gini = 0.4566\nsamples = 172\nvalue = [ 0.00898012  0.00489289]", shape="box"] ;
30 -> 32 ;
33 [label="mmc1_mass <= 87.4741\ngini = 0.456587824901\nsamples = 577", shape="box"] ;
25 -> 33 ;
34 [label="gini = 0.5000\nsamples = 146\nvalue = [ 0.00830163  0.00820751]", shape="box"] ;
33 -> 34 ;
35 [label="mmc1_mass <= 91.5558\ngini = 0.408054969399\nsamples = 431", shape="box"] ;
33 -> 35 ;
36 [label="dR_tau1_tau2 <= 1.4753\ngini = 0.3628549579\nsamples = 285", shape="box"] ;
35 -> 36 ;
37 [label="gini = 0.2577\nsamples = 139\nvalue = [ 0.00987177  0.00176894]", shape="box"] ;
36 -> 37 ;
38 [label="gini = 0.4381\nsamples = 146\nvalue = [ 0.00788788  0.00378221]", shape="box"] ;
36 -> 38 ;
39 [label="gini = 0.4692\nsamples = 146\nvalue = [ 0.00764253  0.00460344]", shape="box"] ;
35 -> 39 ;
40 [label="MET_centrality <= 0.9687\ngini = 0.481661047476\nsamples = 781", shape="box"] ;
24 -> 40 ;
41 [label="gini = 0.4260\nsamples = 228\nvalue = [ 0.01302552  0.00578739]", shape="box"] ;
40 -> 41 ;
42 [label="sum_pt_full <= 264235.0625\ngini = 0.49283638484\nsamples = 553", shape="box"] ;
40 -> 42 ;
43 [label="sum_pt_full <= 222472.4375\ngini = 0.482003393024\nsamples = 395", shape="box"] ;
42 -> 43 ;
44 [label="mmc1_mass <= 95.9349\ngini = 0.496860428354\nsamples = 245", shape="box"] ;
43 -> 44 ;
45 [label="gini = 0.4992\nsamples = 110\nvalue = [ 0.00560957  0.00606791]", shape="box"] ;
44 -> 45 ;
46 [label="gini = 0.4808\nsamples = 135\nvalue = [ 0.00708436  0.00476197]", shape="box"] ;
44 -> 46 ;
47 [label="gini = 0.4228\nsamples = 150\nvalue = [ 0.00890393  0.00387977]", shape="box"] ;
43 -> 47 ;
48 [label="gini = 0.4983\nsamples = 158\nvalue = [ 0.00673964  0.00756925]", shape="box"] ;
42 -> 48 ;
49 [label="gini = 0.4890\nsamples = 159\nvalue = [ 0.00500636  0.00675166]", shape="box"] ;
19 -> 49 ;
50 [label="mmc1_mass <= 107.4545\ngini = 0.439812499647\nsamples = 10579", shape="box"] ;
0 -> 50 ;
51 [label="mmc1_mass <= 102.9595\ngini = 0.494392064769\nsamples = 2091", shape="box"] ;
50 -> 51 ;
52 [label="dR_tau1_tau2 <= 1.1168\ngini = 0.499991878927\nsamples = 970", shape="box"] ;
51 -> 52 ;
53 [label="gini = 0.4795\nsamples = 163\nvalue = [ 0.00761524  0.00505239]", shape="box"] ;
52 -> 53 ;
54 [label="sum_pt_full <= 313859.9375\ngini = 0.499501863378\nsamples = 807", shape="box"] ;
52 -> 54 ;
55 [label="tau_pt_ratio <= 1.5479\ngini = 0.499246521453\nsamples = 677", shape="box"] ;
54 -> 55 ;
56 [label="mmc1_mass <= 100.7956\ngini = 0.489848643747\nsamples = 275", shape="box"] ;
55 -> 56 ;
57 [label="gini = 0.4542\nsamples = 135\nvalue = [ 0.00823464  0.00440714]", shape="box"] ;
56 -> 57 ;
58 [label="gini = 0.4998\nsamples = 140\nvalue = [ 0.00619224  0.00642119]", shape="box"] ;
56 -> 58 ;
59 [label="tau_pt_ratio <= 2.0890\ngini = 0.499170833673\nsamples = 402", shape="box"] ;
55 -> 59 ;
60 [label="gini = 0.4865\nsamples = 192\nvalue = [ 0.00762219  0.01061842]", shape="box"] ;
59 -> 60 ;
61 [label="gini = 0.4936\nsamples = 210\nvalue = [ 0.00816529  0.00650946]", shape="box"] ;
59 -> 61 ;
62 [label="gini = 0.4345\nsamples = 130\nvalue = [ 0.00395602  0.00844157]", shape="box"] ;
54 -> 62 ;
63 [label="MET_centrality <= 1.0441\ngini = 0.478709246446\nsamples = 1121", shape="box"] ;
51 -> 63 ;
64 [label="tau_pt_ratio <= 2.0902\ngini = 0.499025015449\nsamples = 367", shape="box"] ;
63 -> 64 ;
65 [label="gini = 0.4942\nsamples = 202\nvalue = [ 0.01027267  0.00827807]", shape="box"] ;
64 -> 65 ;
66 [label="gini = 0.4649\nsamples = 165\nvalue = [ 0.00468228  0.00805866]", shape="box"] ;
64 -> 66 ;
67 [label="dR_tau1_tau2 <= 1.5240\ngini = 0.457596457174\nsamples = 754", shape="box"] ;
63 -> 67 ;
68 [label="mmc1_mass <= 105.9424\ngini = 0.429264570532\nsamples = 403", shape="box"] ;
67 -> 68 ;
69 [label="gini = 0.3943\nsamples = 251\nvalue = [ 0.00559647  0.01512579]", shape="box"] ;
68 -> 69 ;
70 [label="gini = 0.4734\nsamples = 152\nvalue = [ 0.00458354  0.00732904]", shape="box"] ;
68 -> 70 ;
71 [label="dR_tau1_tau2 <= 1.7176\ngini = 0.482095619582\nsamples = 351", shape="box"] ;
67 -> 71 ;
72 [label="gini = 0.4989\nsamples = 159\nvalue = [ 0.00565632  0.00621665]", shape="box"] ;
71 -> 72 ;
73 [label="gini = 0.4552\nsamples = 192\nvalue = [ 0.00535833  0.0099396 ]", shape="box"] ;
71 -> 73 ;
74 [label="mmc1_mass <= 169.3052\ngini = 0.403602883042\nsamples = 8488", shape="box"] ;
50 -> 74 ;
75 [label="dR_tau1_tau2 <= 1.8923\ngini = 0.391535517887\nsamples = 8324", shape="box"] ;
74 -> 75 ;
76 [label="mmc1_mass <= 113.8503\ngini = 0.364847179551\nsamples = 6663", shape="box"] ;
75 -> 76 ;
77 [label="dR_tau1_tau2 <= 1.4471\ngini = 0.433471457229\nsamples = 1484", shape="box"] ;
76 -> 77 ;
78 [label="tau_pt_ratio <= 1.7809\ngini = 0.392871359687\nsamples = 753", shape="box"] ;
77 -> 78 ;
79 [label="gini = 0.4473\nsamples = 375\nvalue = [ 0.00775714  0.01521293]", shape="box"] ;
78 -> 79 ;
80 [label="gini = 0.3145\nsamples = 378\nvalue = [ 0.00424833  0.01748467]", shape="box"] ;
78 -> 80 ;
81 [label="MET_centrality <= 0.9015\ngini = 0.460127960072\nsamples = 731", shape="box"] ;
77 -> 81 ;
82 [label="gini = 0.4974\nsamples = 163\nvalue = [ 0.005592    0.00646749]", shape="box"] ;
81 -> 82 ;
83 [label="MET_centrality <= 1.1317\ngini = 0.440891001389\nsamples = 568", shape="box"] ;
81 -> 83 ;
84 [label="gini = 0.3804\nsamples = 154\nvalue = [ 0.00341998  0.00996887]", shape="box"] ;
83 -> 84 ;
85 [label="dR_tau1_tau2 <= 1.7049\ngini = 0.462510045322\nsamples = 414", shape="box"] ;
83 -> 85 ;
86 [label="gini = 0.4208\nsamples = 238\nvalue = [ 0.00459398  0.01066812]", shape="box"] ;
85 -> 86 ;
87 [label="gini = 0.4925\nsamples = 176\nvalue = [ 0.00549632  0.00703183]", shape="box"] ;
85 -> 87 ;
88 [label="dR_tau1_tau2 <= 1.2771\ngini = 0.328213150368\nsamples = 5179", shape="box"] ;
76 -> 88 ;
89 [label="MET_centrality <= 1.3933\ngini = 0.254143306796\nsamples = 1638", shape="box"] ;
88 -> 89 ;
90 [label="MET_centrality <= 0.9754\ngini = 0.216974659014\nsamples = 1420", shape="box"] ;
89 -> 90 ;
91 [label="gini = 0.2812\nsamples = 502\nvalue = [ 0.00348805  0.0171203 ]", shape="box"] ;
90 -> 91 ;
92 [label="mmc1_mass <= 122.0597\ngini = 0.161701801324\nsamples = 918", shape="box"] ;
90 -> 92 ;
93 [label="gini = 0.2477\nsamples = 380\nvalue = [ 0.00179973  0.01062437]", shape="box"] ;
92 -> 93 ;
94 [label="gini = 0.0764\nsamples = 538\nvalue = [ 0.00056742  0.01368874]", shape="box"] ;
92 -> 94 ;
95 [label="gini = 0.3780\nsamples = 218\nvalue = [ 0.00295194  0.00871401]", shape="box"] ;
89 -> 95 ;
96 [label="sum_pt_full <= 407032.6875\ngini = 0.350753409039\nsamples = 3541", shape="box"] ;
88 -> 96 ;
97 [label="mmc1_mass <= 119.0989\ngini = 0.335772177403\nsamples = 3299", shape="box"] ;
96 -> 97 ;
98 [label="tau_pt_ratio <= 1.6972\ngini = 0.397544350282\nsamples = 824", shape="box"] ;
97 -> 98 ;
99 [label="tau_pt_ratio <= 1.2866\ngini = 0.350534461832\nsamples = 473", shape="box"] ;
98 -> 99 ;
100 [label="gini = 0.4120\nsamples = 231\nvalue = [ 0.00350701  0.00857846]", shape="box"] ;
99 -> 100 ;
101 [label="gini = 0.2719\nsamples = 242\nvalue = [ 0.0019387   0.01000522]", shape="box"] ;
99 -> 101 ;
102 [label="gini = 0.4460\nsamples = 351\nvalue = [ 0.00611605  0.01210252]", shape="box"] ;
98 -> 102 ;
103 [label="dR_tau1_tau2 <= 1.5242\ngini = 0.309531075422\nsamples = 2475", shape="box"] ;
97 -> 103 ;
104 [label="mmc1_mass <= 127.8090\ngini = 0.21081897754\nsamples = 866", shape="box"] ;
103 -> 104 ;
105 [label="gini = 0.1261\nsamples = 448\nvalue = [ 0.00112989  0.01557339]", shape="box"] ;
104 -> 105 ;
106 [label="gini = 0.2886\nsamples = 418\nvalue = [ 0.0027604   0.01302322]", shape="box"] ;
104 -> 106 ;
107 [label="tau_pt_ratio <= 2.2046\ngini = 0.342607427934\nsamples = 1609", shape="box"] ;
103 -> 107 ;
108 [label="sum_pt_full <= 269470.8438\ngini = 0.367171350179\nsamples = 1225", shape="box"] ;
107 -> 108 ;
109 [label="dR_tau1_tau2 <= 1.7308\ngini = 0.332079518215\nsamples = 837", shape="box"] ;
108 -> 109 ;
110 [label="gini = 0.3955\nsamples = 367\nvalue = [ 0.00442159  0.01186826]", shape="box"] ;
109 -> 110 ;
111 [label="sum_pt_full <= 220467.0938\ngini = 0.284834357064\nsamples = 470", shape="box"] ;
109 -> 111 ;
112 [label="gini = 0.3906\nsamples = 183\nvalue = [ 0.00312474  0.00861747]", shape="box"] ;
111 -> 112 ;
113 [label="gini = 0.1717\nsamples = 287\nvalue = [ 0.0013589   0.01296631]", shape="box"] ;
111 -> 113 ;
114 [label="gini = 0.4224\nsamples = 388\nvalue = [ 0.00676966  0.01556778]", shape="box"] ;
108 -> 114 ;
115 [label="gini = 0.2386\nsamples = 384\nvalue = [ 0.00252313  0.01569968]", shape="box"] ;
107 -> 115 ;
116 [label="gini = 0.4767\nsamples = 242\nvalue = [ 0.00500687  0.00776526]", shape="box"] ;
96 -> 116 ;
117 [label="mmc1_mass <= 145.5520\ngini = 0.450903839912\nsamples = 1661", shape="box"] ;
75 -> 117 ;
118 [label="mmc1_mass <= 124.1587\ngini = 0.432210998324\nsamples = 1391", shape="box"] ;
117 -> 118 ;
119 [label="dR_tau1_tau2 <= 2.0249\ngini = 0.465890038276\nsamples = 613", shape="box"] ;
118 -> 119 ;
120 [label="gini = 0.4894\nsamples = 294\nvalue = [ 0.00900143  0.01206803]", shape="box"] ;
119 -> 120 ;
121 [label="gini = 0.4321\nsamples = 319\nvalue = [ 0.00716107  0.01552223]", shape="box"] ;
119 -> 121 ;
122 [label="dR_tau1_tau2 <= 2.0347\ngini = 0.393162737644\nsamples = 778", shape="box"] ;
118 -> 122 ;
123 [label="gini = 0.3107\nsamples = 360\nvalue = [ 0.00438441  0.01840677]", shape="box"] ;
122 -> 123 ;
124 [label="tau_pt_ratio <= 1.7380\ngini = 0.444523110935\nsamples = 418", shape="box"] ;
122 -> 124 ;
125 [label="gini = 0.4847\nsamples = 184\nvalue = [ 0.00516902  0.00736257]", shape="box"] ;
124 -> 125 ;
126 [label="gini = 0.3896\nsamples = 234\nvalue = [ 0.00383429  0.0106345 ]", shape="box"] ;
124 -> 126 ;
127 [label="gini = 0.4961\nsamples = 270\nvalue = [ 0.01038097  0.01238309]", shape="box"] ;
117 -> 127 ;
128 [label="gini = 0.3704\nsamples = 164\nvalue = [ 0.00941625  0.00306264]", shape="box"] ;
74 -> 128 ;
}