digraph Tree {
0 [label="mmc1_mass <= 98.6762\ngini = 0.49938465394\nsamples = 16266", shape="box"] ;
1 [label="mmc1_mass <= 85.0280\ngini = 0.372026686656\nsamples = 5687", shape="box"] ;
0 -> 1 ;
2 [label="tau_pt_ratio <= 3.3255\ngini = 0.247468608974\nsamples = 2905", shape="box"] ;
1 -> 2 ;
3 [label="dR_tau1_tau2 <= 1.3838\ngini = 0.224248183397\nsamples = 2762", shape="box"] ;
2 -> 3 ;
4 [label="MET_centrality <= 0.3978\ngini = 0.178850581906\nsamples = 2113", shape="box"] ;
3 -> 4 ;
5 [label="gini = 0.3353\nsamples = 247\nvalue = [ 0.01026508  0.00277888]", shape="box"] ;
4 -> 5 ;
6 [label="dR_tau1_tau2 <= 1.0386\ngini = 0.149264659056\nsamples = 1866", shape="box"] ;
4 -> 6 ;
7 [label="dR_tau1_tau2 <= 0.9385\ngini = 0.0774277723117\nsamples = 624", shape="box"] ;
6 -> 7 ;
8 [label="gini = 0.1097\nsamples = 330\nvalue = [ 0.01385205  0.00085696]", shape="box"] ;
7 -> 8 ;
9 [label="gini = 0.0353\nsamples = 294\nvalue = [ 0.01155929  0.00021126]", shape="box"] ;
7 -> 9 ;
10 [label="dR_tau1_tau2 <= 1.1364\ngini = 0.181058325921\nsamples = 1242", shape="box"] ;
6 -> 10 ;
11 [label="gini = 0.3000\nsamples = 313\nvalue = [ 0.01120307  0.0025218 ]", shape="box"] ;
10 -> 11 ;
12 [label="tau_pt_ratio <= 1.2950\ngini = 0.136215253297\nsamples = 929", shape="box"] ;
10 -> 12 ;
13 [label="gini = 0.2022\nsamples = 267\nvalue = [ 0.01031358  0.00132904]", shape="box"] ;
12 -> 13 ;
14 [label="tau_pt_ratio <= 1.9738\ngini = 0.109136093736\nsamples = 662", shape="box"] ;
12 -> 14 ;
15 [label="gini = 0.0529\nsamples = 425\nvalue = [ 0.01749211  0.00048852]", shape="box"] ;
14 -> 15 ;
16 [label="gini = 0.1842\nsamples = 237\nvalue = [ 0.01110358  0.00126967]", shape="box"] ;
14 -> 16 ;
17 [label="sum_pt_full <= 198736.6250\ngini = 0.315765019431\nsamples = 649", shape="box"] ;
3 -> 17 ;
18 [label="gini = 0.2348\nsamples = 345\nvalue = [ 0.01715464  0.00269628]", shape="box"] ;
17 -> 18 ;
19 [label="gini = 0.3776\nsamples = 304\nvalue = [ 0.01602861  0.00541841]", shape="box"] ;
17 -> 19 ;
20 [label="gini = 0.4433\nsamples = 143\nvalue = [ 0.00779953  0.00386971]", shape="box"] ;
2 -> 20 ;
21 [label="mmc1_mass <= 93.8329\ngini = 0.431776734116\nsamples = 2782", shape="box"] ;
1 -> 21 ;
22 [label="MET_centrality <= 1.2299\ngini = 0.390705142076\nsamples = 1788", shape="box"] ;
21 -> 22 ;
23 [label="tau_pt_ratio <= 2.7728\ngini = 0.325743579708\nsamples = 1028", shape="box"] ;
22 -> 23 ;
24 [label="dR_tau1_tau2 <= 1.4726\ngini = 0.297388698558\nsamples = 850", shape="box"] ;
23 -> 24 ;
25 [label="mmc1_mass <= 90.8109\ngini = 0.244943362583\nsamples = 565", shape="box"] ;
24 -> 25 ;
26 [label="sum_pt_full <= 264368.0000\ngini = 0.178210539114\nsamples = 381", shape="box"] ;
25 -> 26 ;
27 [label="gini = 0.1373\nsamples = 197\nvalue = [ 0.01166266  0.00093435]", shape="box"] ;
26 -> 27 ;
28 [label="gini = 0.2196\nsamples = 184\nvalue = [ 0.0101979  0.0014645]", shape="box"] ;
26 -> 28 ;
29 [label="gini = 0.3424\nsamples = 184\nvalue = [ 0.01091149  0.00306458]", shape="box"] ;
25 -> 29 ;
30 [label="gini = 0.3871\nsamples = 285\nvalue = [ 0.01357604  0.00482897]", shape="box"] ;
24 -> 30 ;
31 [label="gini = 0.4284\nsamples = 178\nvalue = [ 0.00851297  0.00383899]", shape="box"] ;
23 -> 31 ;
32 [label="mmc1_mass <= 87.4621\ngini = 0.442461501088\nsamples = 760", shape="box"] ;
22 -> 32 ;
33 [label="gini = 0.4978\nsamples = 188\nvalue = [ 0.01053087  0.00920714]", shape="box"] ;
32 -> 33 ;
34 [label="tau_pt_ratio <= 1.7175\ngini = 0.396372644803\nsamples = 572", shape="box"] ;
32 -> 34 ;
35 [label="mmc1_mass <= 90.5961\ngini = 0.315660965549\nsamples = 291", shape="box"] ;
34 -> 35 ;
36 [label="gini = 0.2305\nsamples = 155\nvalue = [ 0.01012201  0.00155179]", shape="box"] ;
35 -> 36 ;
37 [label="gini = 0.3843\nsamples = 136\nvalue = [ 0.00870034  0.00304856]", shape="box"] ;
35 -> 37 ;
38 [label="gini = 0.4551\nsamples = 281\nvalue = [ 0.01486775  0.00801093]", shape="box"] ;
34 -> 38 ;
39 [label="tau_pt_ratio <= 1.4007\ngini = 0.476344789523\nsamples = 994", shape="box"] ;
21 -> 39 ;
40 [label="MET_centrality <= 1.1708\ngini = 0.426789879587\nsamples = 308", shape="box"] ;
39 -> 40 ;
41 [label="gini = 0.3434\nsamples = 148\nvalue = [ 0.01026251  0.00289688]", shape="box"] ;
40 -> 41 ;
42 [label="gini = 0.4746\nsamples = 160\nvalue = [ 0.00908461  0.00574158]", shape="box"] ;
40 -> 42 ;
43 [label="MET_centrality <= 1.3812\ngini = 0.490263553649\nsamples = 686", shape="box"] ;
39 -> 43 ;
44 [label="dR_tau1_tau2 <= 1.4149\ngini = 0.483021835399\nsamples = 561", shape="box"] ;
43 -> 44 ;
45 [label="gini = 0.4543\nsamples = 270\nvalue = [ 0.01465296  0.00784894]", shape="box"] ;
44 -> 45 ;
46 [label="dR_tau1_tau2 <= 1.5942\ngini = 0.496921588588\nsamples = 291", shape="box"] ;
44 -> 46 ;
47 [label="gini = 0.4914\nsamples = 128\nvalue = [ 0.00581476  0.00757233]", shape="box"] ;
46 -> 47 ;
48 [label="gini = 0.4495\nsamples = 163\nvalue = [ 0.00772909  0.00400072]", shape="box"] ;
46 -> 48 ;
49 [label="gini = 0.4991\nsamples = 125\nvalue = [ 0.00557784  0.00608079]", shape="box"] ;
43 -> 49 ;
50 [label="mmc1_mass <= 106.7824\ngini = 0.437519341968\nsamples = 10579", shape="box"] ;
0 -> 50 ;
51 [label="mmc1_mass <= 102.9595\ngini = 0.495765086235\nsamples = 1893", shape="box"] ;
50 -> 51 ;
52 [label="dR_tau1_tau2 <= 1.1654\ngini = 0.499990876366\nsamples = 970", shape="box"] ;
51 -> 52 ;
53 [label="gini = 0.4827\nsamples = 189\nvalue = [ 0.0088904   0.00609984]", shape="box"] ;
52 -> 53 ;
54 [label="sum_pt_full <= 306507.2812\ngini = 0.499352857322\nsamples = 781", shape="box"] ;
52 -> 54 ;
55 [label="tau_pt_ratio <= 1.5479\ngini = 0.499515074456\nsamples = 651", shape="box"] ;
54 -> 55 ;
56 [label="mmc1_mass <= 100.7956\ngini = 0.491085061881\nsamples = 267", shape="box"] ;
55 -> 56 ;
57 [label="gini = 0.4570\nsamples = 130\nvalue = [ 0.00793309  0.0043349 ]", shape="box"] ;
56 -> 57 ;
58 [label="gini = 0.4997\nsamples = 137\nvalue = [ 0.0060047   0.00631917]", shape="box"] ;
56 -> 58 ;
59 [label="dR_tau1_tau2 <= 1.5748\ngini = 0.498736878487\nsamples = 384", shape="box"] ;
55 -> 59 ;
60 [label="gini = 0.4925\nsamples = 163\nvalue = [ 0.00762495  0.00596552]", shape="box"] ;
59 -> 60 ;
61 [label="gini = 0.4828\nsamples = 221\nvalue = [ 0.00706295  0.010277  ]", shape="box"] ;
59 -> 61 ;
62 [label="gini = 0.4419\nsamples = 130\nvalue = [ 0.0040275   0.00819375]", shape="box"] ;
54 -> 62 ;
63 [label="MET_centrality <= 1.1474\ngini = 0.480378789602\nsamples = 923", shape="box"] ;
51 -> 63 ;
64 [label="tau_pt_ratio <= 1.5834\ngini = 0.498408602782\nsamples = 417", shape="box"] ;
63 -> 64 ;
65 [label="gini = 0.4857\nsamples = 151\nvalue = [ 0.00759074  0.00539416]", shape="box"] ;
64 -> 65 ;
66 [label="gini = 0.4815\nsamples = 266\nvalue = [ 0.00869589  0.01284   ]", shape="box"] ;
64 -> 66 ;
67 [label="MET_centrality <= 1.3900\ngini = 0.44925717311\nsamples = 506", shape="box"] ;
63 -> 67 ;
68 [label="dR_tau1_tau2 <= 1.5240\ngini = 0.419461960793\nsamples = 349", shape="box"] ;
67 -> 68 ;
69 [label="gini = 0.3654\nsamples = 182\nvalue = [ 0.003441    0.01086448]", shape="box"] ;
68 -> 69 ;
70 [label="gini = 0.4617\nsamples = 167\nvalue = [ 0.00488423  0.0086233 ]", shape="box"] ;
68 -> 70 ;
71 [label="gini = 0.4904\nsamples = 157\nvalue = [ 0.00550728  0.00727808]", shape="box"] ;
67 -> 71 ;
72 [label="mmc1_mass <= 167.4577\ngini = 0.402755577996\nsamples = 8686", shape="box"] ;
50 -> 72 ;
73 [label="dR_tau1_tau2 <= 1.8923\ngini = 0.3906084835\nsamples = 8510", shape="box"] ;
72 -> 73 ;
74 [label="mmc1_mass <= 113.8503\ngini = 0.365963429113\nsamples = 6839", shape="box"] ;
73 -> 74 ;
75 [label="sum_pt_full <= 212618.8125\ngini = 0.435662834897\nsamples = 1664", shape="box"] ;
74 -> 75 ;
76 [label="gini = 0.4931\nsamples = 213\nvalue = [ 0.00685861  0.00868108]", shape="box"] ;
75 -> 76 ;
77 [label="dR_tau1_tau2 <= 1.2837\ngini = 0.420786322976\nsamples = 1451", shape="box"] ;
75 -> 77 ;
78 [label="mmc1_mass <= 110.8851\ngini = 0.374257077891\nsamples = 550", shape="box"] ;
77 -> 78 ;
79 [label="gini = 0.4105\nsamples = 306\nvalue = [ 0.00567323  0.01399028]", shape="box"] ;
78 -> 79 ;
80 [label="gini = 0.3012\nsamples = 244\nvalue = [ 0.00220924  0.00975097]", shape="box"] ;
78 -> 80 ;
81 [label="sum_pt_full <= 230888.1562\ngini = 0.43988218016\nsamples = 901", shape="box"] ;
77 -> 81 ;
82 [label="gini = 0.3567\nsamples = 149\nvalue = [ 0.00270928  0.00895289]", shape="box"] ;
81 -> 82 ;
83 [label="tau_pt_ratio <= 1.9466\ngini = 0.453621886144\nsamples = 752", shape="box"] ;
81 -> 83 ;
84 [label="mmc1_mass <= 111.0521\ngini = 0.478137435409\nsamples = 402", shape="box"] ;
83 -> 84 ;
85 [label="gini = 0.4516\nsamples = 240\nvalue = [ 0.00586345  0.01115673]", shape="box"] ;
84 -> 85 ;
86 [label="gini = 0.4982\nsamples = 162\nvalue = [ 0.00547342  0.00617487]", shape="box"] ;
84 -> 86 ;
87 [label="mmc1_mass <= 110.2212\ngini = 0.411312758974\nsamples = 350", shape="box"] ;
83 -> 87 ;
88 [label="gini = 0.4627\nsamples = 176\nvalue = [ 0.00427319  0.0074819 ]", shape="box"] ;
87 -> 88 ;
89 [label="gini = 0.3376\nsamples = 174\nvalue = [ 0.00251931  0.00919488]", shape="box"] ;
87 -> 89 ;
90 [label="dR_tau1_tau2 <= 1.2771\ngini = 0.323262703288\nsamples = 5175", shape="box"] ;
74 -> 90 ;
91 [label="MET_centrality <= 1.3929\ngini = 0.248410619903\nsamples = 1637", shape="box"] ;
90 -> 91 ;
92 [label="MET_centrality <= 0.9754\ngini = 0.211261591787\nsamples = 1413", shape="box"] ;
91 -> 92 ;
93 [label="gini = 0.2751\nsamples = 502\nvalue = [ 0.00341276  0.01730872]", shape="box"] ;
92 -> 93 ;
94 [label="mmc1_mass <= 122.0597\ngini = 0.156705980885\nsamples = 911", shape="box"] ;
92 -> 94 ;
95 [label="gini = 0.2420\nsamples = 378\nvalue = [ 0.00175653  0.01071601]", shape="box"] ;
94 -> 95 ;
96 [label="gini = 0.0734\nsamples = 533\nvalue = [ 0.00055245  0.01391862]", shape="box"] ;
94 -> 96 ;
97 [label="gini = 0.3739\nsamples = 224\nvalue = [ 0.00289628  0.00874052]", shape="box"] ;
91 -> 97 ;
98 [label="sum_pt_full <= 407032.6875\ngini = 0.346200281642\nsamples = 3538", shape="box"] ;
90 -> 98 ;
99 [label="mmc1_mass <= 119.0989\ngini = 0.331004086718\nsamples = 3296", shape="box"] ;
98 -> 99 ;
100 [label="tau_pt_ratio <= 1.6972\ngini = 0.394096537785\nsamples = 824", shape="box"] ;
99 -> 100 ;
101 [label="tau_pt_ratio <= 1.2866\ngini = 0.34635098777\nsamples = 473", shape="box"] ;
100 -> 101 ;
102 [label="gini = 0.4086\nsamples = 231\nvalue = [ 0.00345276  0.00861105]", shape="box"] ;
101 -> 102 ;
103 [label="gini = 0.2674\nsamples = 242\nvalue = [ 0.0019021   0.01006551]", shape="box"] ;
101 -> 103 ;
104 [label="gini = 0.4437\nsamples = 351\nvalue = [ 0.00602559  0.01211037]", shape="box"] ;
100 -> 104 ;
105 [label="dR_tau1_tau2 <= 1.5242\ngini = 0.304356807157\nsamples = 2472", shape="box"] ;
99 -> 105 ;
106 [label="mmc1_mass <= 127.8090\ngini = 0.205431555965\nsamples = 865", shape="box"] ;
105 -> 106 ;
107 [label="gini = 0.1215\nsamples = 448\nvalue = [ 0.00109957  0.01583138]", shape="box"] ;
106 -> 107 ;
108 [label="gini = 0.2839\nsamples = 417\nvalue = [ 0.00269966  0.01305825]", shape="box"] ;
106 -> 108 ;
109 [label="tau_pt_ratio <= 2.2046\ngini = 0.337783170378\nsamples = 1607", shape="box"] ;
105 -> 109 ;
110 [label="sum_pt_full <= 269470.8438\ngini = 0.362458872098\nsamples = 1224", shape="box"] ;
109 -> 110 ;
111 [label="dR_tau1_tau2 <= 1.7308\ngini = 0.327052188662\nsamples = 836", shape="box"] ;
110 -> 111 ;
112 [label="gini = 0.3912\nsamples = 366\nvalue = [ 0.00434041  0.01193262]", shape="box"] ;
111 -> 112 ;
113 [label="sum_pt_full <= 220467.0938\ngini = 0.279728050032\nsamples = 470", shape="box"] ;
111 -> 113 ;
114 [label="gini = 0.3869\nsamples = 183\nvalue = [ 0.0030735   0.00864816]", shape="box"] ;
113 -> 114 ;
115 [label="gini = 0.1667\nsamples = 287\nvalue = [ 0.00132614  0.01311987]", shape="box"] ;
113 -> 115 ;
116 [label="gini = 0.4186\nsamples = 388\nvalue = [ 0.00665725  0.01566227]", shape="box"] ;
110 -> 116 ;
117 [label="gini = 0.2337\nsamples = 383\nvalue = [ 0.00246364  0.01577128]", shape="box"] ;
109 -> 117 ;
118 [label="gini = 0.4753\nsamples = 242\nvalue = [ 0.00494043  0.00776251]", shape="box"] ;
98 -> 118 ;
119 [label="sum_pt_full <= 258796.3750\ngini = 0.447902541755\nsamples = 1671", shape="box"] ;
73 -> 119 ;
120 [label="MET_centrality <= 1.3859\ngini = 0.426034892372\nsamples = 1289", shape="box"] ;
119 -> 120 ;
121 [label="MET_centrality <= 0.8631\ngini = 0.40759056687\nsamples = 1042", shape="box"] ;
120 -> 121 ;
122 [label="gini = 0.4772\nsamples = 184\nvalue = [ 0.00527777  0.00814289]", shape="box"] ;
121 -> 122 ;
123 [label="tau_pt_ratio <= 2.1696\ngini = 0.384428318584\nsamples = 858", shape="box"] ;
121 -> 123 ;
124 [label="tau_pt_ratio <= 1.5585\ngini = 0.366005466552\nsamples = 638", shape="box"] ;
123 -> 124 ;
125 [label="dR_tau1_tau2 <= 2.0342\ngini = 0.397126485504\nsamples = 383", shape="box"] ;
124 -> 125 ;
126 [label="gini = 0.3591\nsamples = 203\nvalue = [ 0.0028508  0.0093019]", shape="box"] ;
125 -> 126 ;
127 [label="gini = 0.4230\nsamples = 180\nvalue = [ 0.00465365  0.01066205]", shape="box"] ;
125 -> 127 ;
128 [label="gini = 0.3046\nsamples = 255\nvalue = [ 0.00307042  0.01331092]", shape="box"] ;
124 -> 128 ;
129 [label="gini = 0.4357\nsamples = 220\nvalue = [ 0.00424863  0.00900009]", shape="box"] ;
123 -> 129 ;
130 [label="gini = 0.4809\nsamples = 247\nvalue = [ 0.00678943  0.01008647]", shape="box"] ;
120 -> 130 ;
131 [label="mmc1_mass <= 137.6828\ngini = 0.48964470078\nsamples = 382", shape="box"] ;
119 -> 131 ;
132 [label="gini = 0.4471\nsamples = 225\nvalue = [ 0.0059607   0.01170635]", shape="box"] ;
131 -> 132 ;
133 [label="gini = 0.4938\nsamples = 157\nvalue = [ 0.00696855  0.00556981]", shape="box"] ;
131 -> 133 ;
134 [label="gini = 0.3819\nsamples = 176\nvalue = [ 0.0098226   0.00339761]", shape="box"] ;
72 -> 134 ;
}