digraph Tree {
0 [label="mmc1_mass <= 98.6762\ngini = 0.499433517445\nsamples = 16266", shape="box"] ;
1 [label="mmc1_mass <= 85.1296\ngini = 0.324765381735\nsamples = 5687", shape="box"] ;
0 -> 1 ;
2 [label="tau_pt_ratio <= 3.3013\ngini = 0.186723398793\nsamples = 2924", shape="box"] ;
1 -> 2 ;
3 [label="dR_tau1_tau2 <= 1.3838\ngini = 0.164371089843\nsamples = 2774", shape="box"] ;
2 -> 3 ;
4 [label="sum_pt_full <= 328252.8125\ngini = 0.123524747116\nsamples = 2116", shape="box"] ;
3 -> 4 ;
5 [label="mmc1_mass <= 78.9567\ngini = 0.0920723415864\nsamples = 1840", shape="box"] ;
4 -> 5 ;
6 [label="tau_pt_ratio <= 1.4081\ngini = 0.0598738124433\nsamples = 1399", shape="box"] ;
5 -> 6 ;
7 [label="gini = 0.0227\nsamples = 567\nvalue = [ 0.02175827  0.00025286]", shape="box"] ;
6 -> 7 ;
8 [label="mmc1_mass <= 65.4633\ngini = 0.0792692361514\nsamples = 832", shape="box"] ;
6 -> 8 ;
9 [label="gini = 0.1093\nsamples = 365\nvalue = [ 0.0163984   0.00100956]", shape="box"] ;
8 -> 9 ;
10 [label="dR_tau1_tau2 <= 1.2071\ngini = 0.0562884376406\nsamples = 467", shape="box"] ;
8 -> 10 ;
11 [label="gini = 0.0329\nsamples = 236\nvalue = [ 0.01158551  0.00019738]", shape="box"] ;
10 -> 11 ;
12 [label="gini = 0.0793\nsamples = 231\nvalue = [ 0.0111856   0.00048233]", shape="box"] ;
10 -> 12 ;
13 [label="dR_tau1_tau2 <= 1.1827\ngini = 0.159887215751\nsamples = 441", shape="box"] ;
5 -> 13 ;
14 [label="gini = 0.2294\nsamples = 180\nvalue = [ 0.01009982  0.00153789]", shape="box"] ;
13 -> 14 ;
15 [label="gini = 0.1057\nsamples = 261\nvalue = [ 0.01545724  0.0009165 ]", shape="box"] ;
13 -> 15 ;
16 [label="gini = 0.2520\nsamples = 276\nvalue = [ 0.01683086  0.00292032]", shape="box"] ;
4 -> 16 ;
17 [label="sum_pt_full <= 214826.7656\ngini = 0.257443999405\nsamples = 658", shape="box"] ;
3 -> 17 ;
18 [label="MET_centrality <= 1.2976\ngini = 0.195604855781\nsamples = 453", shape="box"] ;
17 -> 18 ;
19 [label="gini = 0.0515\nsamples = 247\nvalue = [ 0.01346677  0.00036558]", shape="box"] ;
18 -> 19 ;
20 [label="gini = 0.3060\nsamples = 206\nvalue = [ 0.01190583  0.00276636]", shape="box"] ;
18 -> 20 ;
21 [label="gini = 0.3549\nsamples = 205\nvalue = [ 0.01163206  0.00348812]", shape="box"] ;
17 -> 21 ;
22 [label="gini = 0.4099\nsamples = 150\nvalue = [ 0.00830425  0.00335574]", shape="box"] ;
2 -> 22 ;
23 [label="mmc1_mass <= 95.1012\ngini = 0.403672064771\nsamples = 2763", shape="box"] ;
1 -> 23 ;
24 [label="MET_centrality <= 1.2116\ngini = 0.363186126985\nsamples = 2050", shape="box"] ;
23 -> 24 ;
25 [label="tau_pt_ratio <= 2.8656\ngini = 0.286607999857\nsamples = 1149", shape="box"] ;
24 -> 25 ;
26 [label="mmc1_mass <= 90.2857\ngini = 0.254198639461\nsamples = 967", shape="box"] ;
25 -> 26 ;
27 [label="MET_centrality <= 0.8945\ngini = 0.152807957069\nsamples = 462", shape="box"] ;
26 -> 27 ;
28 [label="gini = 0.1985\nsamples = 199\nvalue = [ 0.01177861  0.00148151]", shape="box"] ;
27 -> 28 ;
29 [label="gini = 0.1163\nsamples = 263\nvalue = [ 0.01652425  0.00109209]", shape="box"] ;
27 -> 29 ;
30 [label="MET_centrality <= 0.8561\ngini = 0.323317207604\nsamples = 505", shape="box"] ;
26 -> 30 ;
31 [label="gini = 0.1875\nsamples = 202\nvalue = [ 0.012789    0.00149573]", shape="box"] ;
30 -> 31 ;
32 [label="MET_centrality <= 1.0359\ngini = 0.38599681053\nsamples = 303", shape="box"] ;
30 -> 32 ;
33 [label="gini = 0.4425\nsamples = 132\nvalue = [ 0.00781726  0.00385704]", shape="box"] ;
32 -> 33 ;
34 [label="gini = 0.3146\nsamples = 171\nvalue = [ 0.00988165  0.00240196]", shape="box"] ;
32 -> 34 ;
35 [label="gini = 0.4266\nsamples = 182\nvalue = [ 0.00846733  0.00377645]", shape="box"] ;
25 -> 35 ;
36 [label="dR_tau1_tau2 <= 1.3658\ngini = 0.426061934216\nsamples = 901", shape="box"] ;
24 -> 36 ;
37 [label="tau_pt_ratio <= 1.8495\ngini = 0.351768380888\nsamples = 403", shape="box"] ;
36 -> 37 ;
38 [label="gini = 0.1970\nsamples = 221\nvalue = [ 0.01613091  0.00200906]", shape="box"] ;
37 -> 38 ;
39 [label="gini = 0.4617\nsamples = 182\nvalue = [ 0.01012356  0.00573419]", shape="box"] ;
37 -> 39 ;
40 [label="sum_pt_full <= 214636.5938\ngini = 0.467108890128\nsamples = 498", shape="box"] ;
36 -> 40 ;
41 [label="gini = 0.4297\nsamples = 272\nvalue = [ 0.01546833  0.00703155]", shape="box"] ;
40 -> 41 ;
42 [label="gini = 0.4924\nsamples = 226\nvalue = [ 0.01120589  0.00875286]", shape="box"] ;
40 -> 42 ;
43 [label="tau_pt_ratio <= 2.4095\ngini = 0.477588058071\nsamples = 713", shape="box"] ;
23 -> 43 ;
44 [label="MET_centrality <= 0.9828\ngini = 0.459762277786\nsamples = 546", shape="box"] ;
43 -> 44 ;
45 [label="gini = 0.3838\nsamples = 159\nvalue = [ 0.00881937  0.0030821 ]", shape="box"] ;
44 -> 45 ;
46 [label="tau_pt_ratio <= 1.4877\ngini = 0.477540292932\nsamples = 387", shape="box"] ;
44 -> 46 ;
47 [label="gini = 0.4939\nsamples = 199\nvalue = [ 0.01034591  0.00828973]", shape="box"] ;
46 -> 47 ;
48 [label="gini = 0.4406\nsamples = 188\nvalue = [ 0.00959724  0.00467818]", shape="box"] ;
46 -> 48 ;
49 [label="gini = 0.4997\nsamples = 167\nvalue = [ 0.00665799  0.00699284]", shape="box"] ;
43 -> 49 ;
50 [label="mmc1_mass <= 106.7824\ngini = 0.411495534939\nsamples = 10579", shape="box"] ;
0 -> 50 ;
51 [label="mmc1_mass <= 102.9595\ngini = 0.493684687978\nsamples = 1893", shape="box"] ;
50 -> 51 ;
52 [label="dR_tau1_tau2 <= 1.1168\ngini = 0.499983344561\nsamples = 970", shape="box"] ;
51 -> 52 ;
53 [label="gini = 0.4699\nsamples = 163\nvalue = [ 0.0073054   0.00442544]", shape="box"] ;
52 -> 53 ;
54 [label="sum_pt_full <= 313859.9375\ngini = 0.499305151069\nsamples = 807", shape="box"] ;
52 -> 54 ;
55 [label="tau_pt_ratio <= 1.5479\ngini = 0.499019125526\nsamples = 677", shape="box"] ;
54 -> 55 ;
56 [label="MET_centrality <= 1.2609\ngini = 0.487720358758\nsamples = 275", shape="box"] ;
55 -> 56 ;
57 [label="gini = 0.4617\nsamples = 139\nvalue = [ 0.00745115  0.00422072]", shape="box"] ;
56 -> 57 ;
58 [label="gini = 0.4993\nsamples = 136\nvalue = [ 0.00603213  0.00560907]", shape="box"] ;
56 -> 58 ;
59 [label="dR_tau1_tau2 <= 1.5748\ngini = 0.499109772341\nsamples = 402", shape="box"] ;
55 -> 59 ;
60 [label="gini = 0.4934\nsamples = 175\nvalue = [ 0.00771288  0.00612605]", shape="box"] ;
59 -> 60 ;
61 [label="gini = 0.4849\nsamples = 227\nvalue = [ 0.0067998   0.00966533]", shape="box"] ;
59 -> 61 ;
62 [label="gini = 0.4156\nsamples = 130\nvalue = [ 0.00344892  0.00825893]", shape="box"] ;
54 -> 62 ;
63 [label="MET_centrality <= 1.1474\ngini = 0.470948560952\nsamples = 923", shape="box"] ;
51 -> 63 ;
64 [label="tau_pt_ratio <= 1.5834\ngini = 0.49698655275\nsamples = 417", shape="box"] ;
63 -> 64 ;
65 [label="gini = 0.4849\nsamples = 151\nvalue = [ 0.00705533  0.00496801]", shape="box"] ;
64 -> 65 ;
66 [label="gini = 0.4741\nsamples = 266\nvalue = [ 0.00777403  0.01235764]", shape="box"] ;
64 -> 66 ;
67 [label="MET_centrality <= 1.3900\ngini = 0.428885181887\nsamples = 506", shape="box"] ;
63 -> 67 ;
68 [label="dR_tau1_tau2 <= 1.5240\ngini = 0.393748059562\nsamples = 349", shape="box"] ;
67 -> 68 ;
69 [label="gini = 0.3325\nsamples = 182\nvalue = [ 0.00292961  0.01097816]", shape="box"] ;
68 -> 69 ;
70 [label="gini = 0.4446\nsamples = 167\nvalue = [ 0.00426314  0.00851741]", shape="box"] ;
68 -> 70 ;
71 [label="gini = 0.4821\nsamples = 157\nvalue = [ 0.00483206  0.00709081]", shape="box"] ;
67 -> 71 ;
72 [label="mmc1_mass <= 167.4577\ngini = 0.365990355621\nsamples = 8686", shape="box"] ;
50 -> 72 ;
73 [label="dR_tau1_tau2 <= 1.8923\ngini = 0.349861242064\nsamples = 8510", shape="box"] ;
72 -> 73 ;
74 [label="mmc1_mass <= 113.8503\ngini = 0.319103480821\nsamples = 6839", shape="box"] ;
73 -> 74 ;
75 [label="sum_pt_full <= 212618.8125\ngini = 0.408837188821\nsamples = 1664", shape="box"] ;
74 -> 75 ;
76 [label="gini = 0.4857\nsamples = 213\nvalue = [ 0.00603233  0.00848919]", shape="box"] ;
75 -> 76 ;
77 [label="dR_tau1_tau2 <= 1.2964\ngini = 0.390683441405\nsamples = 1451", shape="box"] ;
75 -> 77 ;
78 [label="mmc1_mass <= 110.8851\ngini = 0.336330697135\nsamples = 577", shape="box"] ;
77 -> 78 ;
79 [label="gini = 0.3739\nsamples = 321\nvalue = [ 0.00496544  0.01498156]", shape="box"] ;
78 -> 79 ;
80 [label="gini = 0.2682\nsamples = 256\nvalue = [ 0.00204875  0.01079119]", shape="box"] ;
78 -> 80 ;
81 [label="sum_pt_full <= 231846.2344\ngini = 0.415980225522\nsamples = 874", shape="box"] ;
77 -> 81 ;
82 [label="gini = 0.3366\nsamples = 157\nvalue = [ 0.00253795  0.0093112 ]", shape="box"] ;
81 -> 82 ;
83 [label="tau_pt_ratio <= 1.9466\ngini = 0.431668275232\nsamples = 717", shape="box"] ;
81 -> 83 ;
84 [label="mmc1_mass <= 110.4255\ngini = 0.462881203992\nsamples = 380", shape="box"] ;
83 -> 84 ;
85 [label="gini = 0.4267\nsamples = 188\nvalue = [ 0.00407383  0.00912803]", shape="box"] ;
84 -> 85 ;
86 [label="gini = 0.4874\nsamples = 192\nvalue = [ 0.00538397  0.00741378]", shape="box"] ;
84 -> 86 ;
87 [label="gini = 0.3816\nsamples = 337\nvalue = [ 0.00554585  0.01606102]", shape="box"] ;
83 -> 87 ;
88 [label="mmc1_mass <= 146.9043\ngini = 0.268915777375\nsamples = 5175", shape="box"] ;
74 -> 88 ;
89 [label="dR_tau1_tau2 <= 1.5242\ngini = 0.258058726442\nsamples = 4964", shape="box"] ;
88 -> 89 ;
90 [label="mmc1_mass <= 118.8294\ngini = 0.213074341749\nsamples = 2909", shape="box"] ;
89 -> 90 ;
91 [label="sum_pt_full <= 357582.7500\ngini = 0.300028281739\nsamples = 736", shape="box"] ;
90 -> 91 ;
92 [label="gini = 0.3764\nsamples = 399\nvalue = [ 0.00486154  0.01447615]", shape="box"] ;
91 -> 92 ;
93 [label="gini = 0.1818\nsamples = 337\nvalue = [ 0.00159972  0.01421741]", shape="box"] ;
91 -> 93 ;
94 [label="tau_pt_ratio <= 1.9767\ngini = 0.171009639779\nsamples = 2173", shape="box"] ;
90 -> 94 ;
95 [label="sum_pt_full <= 442638.7500\ngini = 0.118871498369\nsamples = 1403", shape="box"] ;
94 -> 95 ;
96 [label="sum_pt_full <= 347448.6250\ngini = 0.0871907938196\nsamples = 1101", shape="box"] ;
95 -> 96 ;
97 [label="gini = 0.1298\nsamples = 611\nvalue = [ 0.00150057  0.02001132]", shape="box"] ;
96 -> 97 ;
98 [label="gini = 0.0275\nsamples = 490\nvalue = [ 0.00022719  0.01608215]", shape="box"] ;
96 -> 98 ;
99 [label="gini = 0.2129\nsamples = 302\nvalue = [ 0.00141263  0.01024959]", shape="box"] ;
95 -> 99 ;
100 [label="sum_pt_full <= 458187.0312\ngini = 0.242965084545\nsamples = 770", shape="box"] ;
94 -> 100 ;
101 [label="gini = 0.3128\nsamples = 482\nvalue = [ 0.00386023  0.01603012]", shape="box"] ;
100 -> 101 ;
102 [label="gini = 0.1107\nsamples = 288\nvalue = [ 0.0007433   0.01189863]", shape="box"] ;
100 -> 102 ;
103 [label="MET_centrality <= 0.7722\ngini = 0.30247399762\nsamples = 2055", shape="box"] ;
89 -> 103 ;
104 [label="gini = 0.3903\nsamples = 296\nvalue = [ 0.00464447  0.01283017]", shape="box"] ;
103 -> 104 ;
105 [label="sum_pt_full <= 205772.7031\ngini = 0.282602648834\nsamples = 1759", shape="box"] ;
103 -> 105 ;
106 [label="gini = 0.3891\nsamples = 187\nvalue = [ 0.00308098  0.00856659]", shape="box"] ;
105 -> 106 ;
107 [label="sum_pt_full <= 237241.1875\ngini = 0.263902012535\nsamples = 1572", shape="box"] ;
105 -> 107 ;
108 [label="gini = 0.1601\nsamples = 430\nvalue = [ 0.00191396  0.01989809]", shape="box"] ;
107 -> 108 ;
109 [label="mmc1_mass <= 125.1357\ngini = 0.298516832446\nsamples = 1142", shape="box"] ;
107 -> 109 ;
110 [label="tau_pt_ratio <= 1.8592\ngini = 0.343836997912\nsamples = 519", shape="box"] ;
109 -> 110 ;
111 [label="gini = 0.3976\nsamples = 266\nvalue = [ 0.00407951  0.01082486]", shape="box"] ;
110 -> 111 ;
112 [label="gini = 0.2700\nsamples = 253\nvalue = [ 0.00213642  0.01114049]", shape="box"] ;
110 -> 112 ;
113 [label="dR_tau1_tau2 <= 1.6709\ngini = 0.24899099251\nsamples = 623", shape="box"] ;
109 -> 113 ;
114 [label="gini = 0.1101\nsamples = 282\nvalue = [ 0.00069079  0.01112889]", shape="box"] ;
113 -> 114 ;
115 [label="gini = 0.3268\nsamples = 341\nvalue = [ 0.00353866  0.01366336]", shape="box"] ;
113 -> 115 ;
116 [label="gini = 0.4218\nsamples = 211\nvalue = [ 0.00378095  0.00872797]", shape="box"] ;
88 -> 116 ;
117 [label="sum_pt_full <= 258796.3750\ngini = 0.426225654942\nsamples = 1671", shape="box"] ;
73 -> 117 ;
118 [label="MET_centrality <= 1.3859\ngini = 0.398784259468\nsamples = 1289", shape="box"] ;
117 -> 118 ;
119 [label="MET_centrality <= 0.8631\ngini = 0.377650723931\nsamples = 1042", shape="box"] ;
118 -> 119 ;
120 [label="gini = 0.4616\nsamples = 184\nvalue = [ 0.00460587  0.0081377 ]", shape="box"] ;
119 -> 120 ;
121 [label="tau_pt_ratio <= 2.1696\ngini = 0.351689293949\nsamples = 858", shape="box"] ;
119 -> 121 ;
122 [label="tau_pt_ratio <= 1.5585\ngini = 0.332039719492\nsamples = 638", shape="box"] ;
121 -> 122 ;
123 [label="dR_tau1_tau2 <= 2.0342\ngini = 0.364907884608\nsamples = 383", shape="box"] ;
122 -> 123 ;
124 [label="gini = 0.3220\nsamples = 203\nvalue = [ 0.00240196  0.00950614]", shape="box"] ;
123 -> 124 ;
125 [label="gini = 0.3954\nsamples = 180\nvalue = [ 0.00397348  0.01067129]", shape="box"] ;
123 -> 125 ;
126 [label="gini = 0.2702\nsamples = 255\nvalue = [ 0.00259921  0.01354234]", shape="box"] ;
122 -> 126 ;
127 [label="gini = 0.4084\nsamples = 220\nvalue = [ 0.00365858  0.00913254]", shape="box"] ;
121 -> 127 ;
128 [label="gini = 0.4667\nsamples = 247\nvalue = [ 0.00590176  0.01000609]", shape="box"] ;
118 -> 128 ;
129 [label="mmc1_mass <= 137.4233\ngini = 0.482098678732\nsamples = 382", shape="box"] ;
117 -> 129 ;
130 [label="gini = 0.4328\nsamples = 221\nvalue = [ 0.00508597  0.01097294]", shape="box"] ;
129 -> 130 ;
131 [label="gini = 0.4991\nsamples = 161\nvalue = [ 0.00642963  0.00591754]", shape="box"] ;
129 -> 131 ;
132 [label="gini = 0.3439\nsamples = 176\nvalue = [ 0.01001836  0.00283595]", shape="box"] ;
72 -> 132 ;
}