digraph Tree {
0 [label="mmc1_mass <= 99.8861\ngini = 0.499447224915\nsamples = 16266", shape="box"] ;
1 [label="mmc1_mass <= 93.5686\ngini = 0.338404083567\nsamples = 5971", shape="box"] ;
0 -> 1 ;
2 [label="mmc1_mass <= 82.0895\ngini = 0.25837368469\nsamples = 4646", shape="box"] ;
1 -> 2 ;
3 [label="sum_pt_full <= 343001.3750\ngini = 0.153839666649\nsamples = 2392", shape="box"] ;
2 -> 3 ;
4 [label="dR_tau1_tau2 <= 1.3798\ngini = 0.126450970728\nsamples = 2125", shape="box"] ;
3 -> 4 ;
5 [label="sum_pt_full <= 258425.0625\ngini = 0.0829889292746\nsamples = 1692", shape="box"] ;
4 -> 5 ;
6 [label="dR_tau1_tau2 <= 1.2438\ngini = 0.0544887784203\nsamples = 1285", shape="box"] ;
5 -> 6 ;
7 [label="dR_tau1_tau2 <= 0.9893\ngini = 0.0319560471683\nsamples = 887", shape="box"] ;
6 -> 7 ;
8 [label="gini = 0.0640\nsamples = 287\nvalue = [ 0.01126073  0.00038533]", shape="box"] ;
7 -> 8 ;
9 [label="dR_tau1_tau2 <= 1.1474\ngini = 0.017467144817\nsamples = 600", shape="box"] ;
7 -> 9 ;
10 [label="gini = 0.0101\nsamples = 347\nvalue = [  1.38477412e-02   7.05254756e-05]", shape="box"] ;
9 -> 10 ;
11 [label="gini = 0.0256\nsamples = 253\nvalue = [ 0.01232128  0.00016211]", shape="box"] ;
9 -> 11 ;
12 [label="gini = 0.0935\nsamples = 398\nvalue = [ 0.02015721  0.00104275]", shape="box"] ;
6 -> 12 ;
13 [label="gini = 0.1514\nsamples = 407\nvalue = [ 0.02132861  0.00191753]", shape="box"] ;
5 -> 13 ;
14 [label="sum_pt_full <= 198736.6250\ngini = 0.238706443153\nsamples = 433", shape="box"] ;
4 -> 14 ;
15 [label="gini = 0.1664\nsamples = 263\nvalue = [ 0.0144431   0.00145596]", shape="box"] ;
14 -> 15 ;
16 [label="gini = 0.3173\nsamples = 170\nvalue = [ 0.01012472  0.00249534]", shape="box"] ;
14 -> 16 ;
17 [label="gini = 0.2932\nsamples = 267\nvalue = [ 0.01559313  0.00338601]", shape="box"] ;
3 -> 17 ;
18 [label="tau_pt_ratio <= 2.4747\ngini = 0.32663539114\nsamples = 2254", shape="box"] ;
2 -> 18 ;
19 [label="dR_tau1_tau2 <= 1.6554\ngini = 0.288939124194\nsamples = 1747", shape="box"] ;
18 -> 19 ;
20 [label="dR_tau1_tau2 <= 1.1245\ngini = 0.264419322242\nsamples = 1544", shape="box"] ;
19 -> 20 ;
21 [label="tau_pt_ratio <= 1.5014\ngini = 0.125465736478\nsamples = 340", shape="box"] ;
20 -> 21 ;
22 [label="gini = 0.0381\nsamples = 193\nvalue = [ 0.01220083  0.00024195]", shape="box"] ;
21 -> 22 ;
23 [label="gini = 0.2084\nsamples = 147\nvalue = [ 0.01030118  0.00138058]", shape="box"] ;
21 -> 23 ;
24 [label="sum_pt_full <= 233083.7188\ngini = 0.295256574718\nsamples = 1204", shape="box"] ;
20 -> 24 ;
25 [label="MET_centrality <= 1.2109\ngini = 0.243636422961\nsamples = 674", shape="box"] ;
24 -> 25 ;
26 [label="gini = 0.1296\nsamples = 354\nvalue = [ 0.02138016  0.00160122]", shape="box"] ;
25 -> 26 ;
27 [label="sum_pt_full <= 200677.5938\ngini = 0.322070883808\nsamples = 320", shape="box"] ;
25 -> 27 ;
28 [label="gini = 0.3809\nsamples = 150\nvalue = [ 0.00999394  0.00343915]", shape="box"] ;
27 -> 28 ;
29 [label="gini = 0.2564\nsamples = 170\nvalue = [ 0.01220275  0.00217018]", shape="box"] ;
27 -> 29 ;
30 [label="dR_tau1_tau2 <= 1.3088\ngini = 0.349792896316\nsamples = 530", shape="box"] ;
24 -> 30 ;
31 [label="sum_pt_full <= 270064.9375\ngini = 0.276561956708\nsamples = 290", shape="box"] ;
30 -> 31 ;
32 [label="gini = 0.1537\nsamples = 151\nvalue = [ 0.01075986  0.00098542]", shape="box"] ;
31 -> 32 ;
33 [label="gini = 0.3733\nsamples = 139\nvalue = [ 0.00875753  0.00289249]", shape="box"] ;
31 -> 33 ;
34 [label="gini = 0.4209\nsamples = 240\nvalue = [ 0.0130837   0.00563853]", shape="box"] ;
30 -> 34 ;
35 [label="gini = 0.4475\nsamples = 203\nvalue = [ 0.00872813  0.00445698]", shape="box"] ;
19 -> 35 ;
36 [label="MET_centrality <= 1.2977\ngini = 0.429511664338\nsamples = 507", shape="box"] ;
18 -> 36 ;
37 [label="tau_pt_ratio <= 2.9982\ngini = 0.350487009793\nsamples = 346", shape="box"] ;
36 -> 37 ;
38 [label="gini = 0.3094\nsamples = 159\nvalue = [ 0.00949111  0.00224489]", shape="box"] ;
37 -> 38 ;
39 [label="gini = 0.3868\nsamples = 187\nvalue = [ 0.00862167  0.00306151]", shape="box"] ;
37 -> 39 ;
40 [label="gini = 0.4965\nsamples = 161\nvalue = [ 0.00743576  0.00629391]", shape="box"] ;
36 -> 40 ;
41 [label="tau_pt_ratio <= 3.1115\ngini = 0.473192875465\nsamples = 1325", shape="box"] ;
1 -> 41 ;
42 [label="dR_tau1_tau2 <= 1.2124\ngini = 0.459826225644\nsamples = 1177", shape="box"] ;
41 -> 42 ;
43 [label="gini = 0.3512\nsamples = 253\nvalue = [ 0.01653952  0.00486239]", shape="box"] ;
42 -> 43 ;
44 [label="MET_centrality <= 1.3147\ngini = 0.477590515291\nsamples = 924", shape="box"] ;
42 -> 44 ;
45 [label="dR_tau1_tau2 <= 1.4143\ngini = 0.453735182664\nsamples = 603", shape="box"] ;
44 -> 45 ;
46 [label="gini = 0.3991\nsamples = 186\nvalue = [ 0.01169948  0.00444557]", shape="box"] ;
45 -> 46 ;
47 [label="dR_tau1_tau2 <= 1.6474\ngini = 0.471881011513\nsamples = 417", shape="box"] ;
45 -> 47 ;
48 [label="gini = 0.4892\nsamples = 248\nvalue = [ 0.01329959  0.00989807]", shape="box"] ;
47 -> 48 ;
49 [label="gini = 0.4135\nsamples = 169\nvalue = [ 0.00831679  0.00343113]", shape="box"] ;
47 -> 49 ;
50 [label="mmc1_mass <= 97.6097\ngini = 0.499301329521\nsamples = 321", shape="box"] ;
44 -> 50 ;
51 [label="gini = 0.4896\nsamples = 188\nvalue = [ 0.00882795  0.00660557]", shape="box"] ;
50 -> 51 ;
52 [label="gini = 0.4946\nsamples = 133\nvalue = [ 0.00523089  0.00644007]", shape="box"] ;
50 -> 52 ;
53 [label="gini = 0.4814\nsamples = 148\nvalue = [ 0.00491653  0.00726573]", shape="box"] ;
41 -> 53 ;
54 [label="mmc1_mass <= 107.4545\ngini = 0.398785426174\nsamples = 10295", shape="box"] ;
0 -> 54 ;
55 [label="mmc1_mass <= 102.9595\ngini = 0.485122949798\nsamples = 1807", shape="box"] ;
54 -> 55 ;
56 [label="sum_pt_full <= 254877.7188\ngini = 0.499630037263\nsamples = 686", shape="box"] ;
55 -> 56 ;
57 [label="tau_pt_ratio <= 1.5479\ngini = 0.497594749201\nsamples = 352", shape="box"] ;
56 -> 57 ;
58 [label="gini = 0.4828\nsamples = 160\nvalue = [ 0.00722146  0.00496266]", shape="box"] ;
57 -> 58 ;
59 [label="gini = 0.4990\nsamples = 192\nvalue = [ 0.00593712  0.00648901]", shape="box"] ;
57 -> 59 ;
60 [label="dR_tau1_tau2 <= 1.2469\ngini = 0.493085512747\nsamples = 334", shape="box"] ;
56 -> 60 ;
61 [label="gini = 0.4953\nsamples = 170\nvalue = [ 0.00666779  0.0054936 ]", shape="box"] ;
60 -> 61 ;
62 [label="gini = 0.4544\nsamples = 164\nvalue = [ 0.00493073  0.00919636]", shape="box"] ;
60 -> 62 ;
63 [label="MET_centrality <= 1.1291\ngini = 0.466259747904\nsamples = 1121", shape="box"] ;
55 -> 63 ;
64 [label="tau_pt_ratio <= 1.5834\ngini = 0.494714214437\nsamples = 472", shape="box"] ;
63 -> 64 ;
65 [label="gini = 0.4907\nsamples = 172\nvalue = [ 0.00770397  0.00585682]", shape="box"] ;
64 -> 65 ;
66 [label="gini = 0.4707\nsamples = 300\nvalue = [ 0.00880668  0.01443811]", shape="box"] ;
64 -> 66 ;
67 [label="tau_pt_ratio <= 2.3917\ngini = 0.427685822131\nsamples = 649", shape="box"] ;
63 -> 67 ;
68 [label="tau_pt_ratio <= 1.4586\ngini = 0.446622021228\nsamples = 481", shape="box"] ;
67 -> 68 ;
69 [label="gini = 0.4041\nsamples = 229\nvalue = [ 0.00547439  0.01400773]", shape="box"] ;
68 -> 69 ;
70 [label="gini = 0.4814\nsamples = 252\nvalue = [ 0.00653715  0.00966222]", shape="box"] ;
68 -> 70 ;
71 [label="gini = 0.3562\nsamples = 168\nvalue = [ 0.00283877  0.00940719]", shape="box"] ;
67 -> 71 ;
72 [label="mmc1_mass <= 167.4577\ngini = 0.358180488993\nsamples = 8488", shape="box"] ;
54 -> 72 ;
73 [label="dR_tau1_tau2 <= 1.8923\ngini = 0.34072659304\nsamples = 8312", shape="box"] ;
72 -> 73 ;
74 [label="mmc1_mass <= 116.7678\ngini = 0.306935124748\nsamples = 6659", shape="box"] ;
73 -> 74 ;
75 [label="sum_pt_full <= 347778.6562\ngini = 0.381281913476\nsamples = 2168", shape="box"] ;
74 -> 75 ;
76 [label="sum_pt_full <= 203732.0938\ngini = 0.409660941486\nsamples = 1549", shape="box"] ;
75 -> 76 ;
77 [label="gini = 0.4773\nsamples = 180\nvalue = [ 0.00509047  0.00784669]", shape="box"] ;
76 -> 77 ;
78 [label="sum_pt_full <= 230582.7500\ngini = 0.395035679128\nsamples = 1369", shape="box"] ;
76 -> 78 ;
79 [label="gini = 0.3000\nsamples = 262\nvalue = [ 0.00307187  0.0136438 ]", shape="box"] ;
78 -> 79 ;
80 [label="sum_pt_full <= 252381.3594\ngini = 0.414255211348\nsamples = 1107", shape="box"] ;
78 -> 80 ;
81 [label="gini = 0.4656\nsamples = 260\nvalue = [ 0.00629675  0.01077845]", shape="box"] ;
80 -> 81 ;
82 [label="tau_pt_ratio <= 1.3377\ngini = 0.3909919033\nsamples = 847", shape="box"] ;
80 -> 82 ;
83 [label="gini = 0.4570\nsamples = 215\nvalue = [ 0.00422375  0.00773118]", shape="box"] ;
82 -> 83 ;
84 [label="mmc1_mass <= 111.4624\ngini = 0.363301052317\nsamples = 632", shape="box"] ;
82 -> 84 ;
85 [label="gini = 0.4198\nsamples = 281\nvalue = [ 0.00470754  0.01099738]", shape="box"] ;
84 -> 85 ;
86 [label="gini = 0.3122\nsamples = 351\nvalue = [ 0.0041378  0.0172349]", shape="box"] ;
84 -> 86 ;
87 [label="MET_centrality <= 1.2139\ngini = 0.282727820141\nsamples = 619", shape="box"] ;
75 -> 87 ;
88 [label="gini = 0.1965\nsamples = 341\nvalue = [ 0.00223066  0.01796983]", shape="box"] ;
87 -> 88 ;
89 [label="gini = 0.3792\nsamples = 278\nvalue = [ 0.00367392  0.01077683]", shape="box"] ;
87 -> 89 ;
90 [label="mmc1_mass <= 146.9043\ngini = 0.249447044806\nsamples = 4491", shape="box"] ;
74 -> 90 ;
91 [label="dR_tau1_tau2 <= 1.5242\ngini = 0.23508014552\nsamples = 4280", shape="box"] ;
90 -> 91 ;
92 [label="tau_pt_ratio <= 1.9767\ngini = 0.183846965141\nsamples = 2478", shape="box"] ;
91 -> 92 ;
93 [label="mmc1_mass <= 129.4065\ngini = 0.139054550134\nsamples = 1603", shape="box"] ;
92 -> 93 ;
94 [label="MET_centrality <= 1.1645\ngini = 0.181406177632\nsamples = 1048", shape="box"] ;
93 -> 94 ;
95 [label="gini = 0.1144\nsamples = 506\nvalue = [ 0.00110007  0.01695925]", shape="box"] ;
94 -> 95 ;
96 [label="gini = 0.2327\nsamples = 542\nvalue = [ 0.00289177  0.01861918]", shape="box"] ;
94 -> 96 ;
97 [label="gini = 0.0368\nsamples = 555\nvalue = [ 0.00033755  0.0176798 ]", shape="box"] ;
93 -> 97 ;
98 [label="sum_pt_full <= 458187.0312\ngini = 0.246659965706\nsamples = 875", shape="box"] ;
92 -> 98 ;
99 [label="MET_centrality <= 1.2119\ngini = 0.305383902407\nsamples = 564", shape="box"] ;
98 -> 99 ;
100 [label="gini = 0.2409\nsamples = 304\nvalue = [ 0.00175382  0.01076843]", shape="box"] ;
99 -> 100 ;
101 [label="gini = 0.3643\nsamples = 260\nvalue = [ 0.00279831  0.00888549]", shape="box"] ;
99 -> 101 ;
102 [label="gini = 0.1212\nsamples = 311\nvalue = [ 0.00086936  0.01254962]", shape="box"] ;
98 -> 102 ;
103 [label="MET_centrality <= 0.7722\ngini = 0.282082213378\nsamples = 1802", shape="box"] ;
91 -> 103 ;
104 [label="gini = 0.3773\nsamples = 265\nvalue = [ 0.00375318  0.01112331]", shape="box"] ;
103 -> 104 ;
105 [label="mmc1_mass <= 125.1357\ngini = 0.261309191572\nsamples = 1537", shape="box"] ;
103 -> 105 ;
106 [label="mmc1_mass <= 122.1245\ngini = 0.301032381817\nsamples = 709", shape="box"] ;
105 -> 106 ;
107 [label="tau_pt_ratio <= 1.5428\ngini = 0.245405582963\nsamples = 483", shape="box"] ;
106 -> 107 ;
108 [label="gini = 0.3129\nsamples = 231\nvalue = [ 0.0024988   0.01037403]", shape="box"] ;
107 -> 108 ;
109 [label="gini = 0.1710\nsamples = 252\nvalue = [ 0.00126852  0.01216443]", shape="box"] ;
107 -> 109 ;
110 [label="gini = 0.3981\nsamples = 226\nvalue = [ 0.00332852  0.00880691]", shape="box"] ;
106 -> 110 ;
111 [label="dR_tau1_tau2 <= 1.6709\ngini = 0.221055928189\nsamples = 828", shape="box"] ;
105 -> 111 ;
112 [label="gini = 0.0987\nsamples = 308\nvalue = [ 0.0006643   0.01209672]", shape="box"] ;
111 -> 112 ;
113 [label="mmc1_mass <= 134.7706\ngini = 0.26864175039\nsamples = 520", shape="box"] ;
111 -> 113 ;
114 [label="gini = 0.2044\nsamples = 321\nvalue = [ 0.00194418  0.01488254]", shape="box"] ;
113 -> 114 ;
115 [label="gini = 0.3474\nsamples = 199\nvalue = [ 0.00261347  0.00906586]", shape="box"] ;
113 -> 115 ;
116 [label="gini = 0.4192\nsamples = 211\nvalue = [ 0.00371307  0.00870621]", shape="box"] ;
90 -> 116 ;
117 [label="sum_pt_full <= 303497.5625\ngini = 0.42327051902\nsamples = 1653", shape="box"] ;
73 -> 117 ;
118 [label="mmc1_mass <= 145.5348\ngini = 0.406447692332\nsamples = 1493", shape="box"] ;
117 -> 118 ;
119 [label="mmc1_mass <= 118.0718\ngini = 0.388755727809\nsamples = 1268", shape="box"] ;
118 -> 119 ;
120 [label="gini = 0.4552\nsamples = 312\nvalue = [ 0.00755071  0.01400257]", shape="box"] ;
119 -> 120 ;
121 [label="tau_pt_ratio <= 1.8146\ngini = 0.356508985196\nsamples = 956", shape="box"] ;
119 -> 121 ;
122 [label="MET_centrality <= 1.2932\ngini = 0.397711796284\nsamples = 530", shape="box"] ;
121 -> 122 ;
123 [label="gini = 0.4380\nsamples = 315\nvalue = [ 0.00652693  0.01362216]", shape="box"] ;
122 -> 123 ;
124 [label="gini = 0.3282\nsamples = 215\nvalue = [ 0.00312175  0.01196267]", shape="box"] ;
122 -> 124 ;
125 [label="gini = 0.2791\nsamples = 426\nvalue = [ 0.00382078  0.01896707]", shape="box"] ;
121 -> 125 ;
126 [label="gini = 0.4664\nsamples = 225\nvalue = [ 0.00665792  0.01132095]", shape="box"] ;
118 -> 126 ;
127 [label="gini = 0.4978\nsamples = 160\nvalue = [ 0.00571478  0.00652939]", shape="box"] ;
117 -> 127 ;
128 [label="gini = 0.3394\nsamples = 176\nvalue = [ 0.01003259  0.00277464]", shape="box"] ;
72 -> 128 ;
}