digraph Tree {
0 [label="mmc1_mass <= 98.6762\ngini = 0.499516746967\nsamples = 16266", shape="box"] ;
1 [label="mmc1_mass <= 93.5470\ngini = 0.303938540199\nsamples = 5687", shape="box"] ;
0 -> 1 ;
2 [label="mmc1_mass <= 82.0895\ngini = 0.241206648517\nsamples = 4640", shape="box"] ;
1 -> 2 ;
3 [label="sum_pt_full <= 343001.3750\ngini = 0.13759658143\nsamples = 2392", shape="box"] ;
2 -> 3 ;
4 [label="dR_tau1_tau2 <= 1.3838\ngini = 0.111543958227\nsamples = 2125", shape="box"] ;
3 -> 4 ;
5 [label="sum_pt_full <= 258425.0625\ngini = 0.0717517462648\nsamples = 1706", shape="box"] ;
4 -> 5 ;
6 [label="dR_tau1_tau2 <= 1.2438\ngini = 0.0467102911863\nsamples = 1298", shape="box"] ;
5 -> 6 ;
7 [label="dR_tau1_tau2 <= 0.9737\ngini = 0.0261773786267\nsamples = 887", shape="box"] ;
6 -> 7 ;
8 [label="gini = 0.0576\nsamples = 261\nvalue = [ 0.01131776  0.00034609]", shape="box"] ;
7 -> 8 ;
9 [label="MET_centrality <= 1.1583\ngini = 0.0136860700876\nsamples = 626", shape="box"] ;
7 -> 9 ;
10 [label="gini = 0.0079\nsamples = 374\nvalue = [  1.77037490e-02   7.05610299e-05]", shape="box"] ;
9 -> 10 ;
11 [label="gini = 0.0220\nsamples = 252\nvalue = [ 0.01211215  0.00013631]", shape="box"] ;
9 -> 11 ;
12 [label="gini = 0.0829\nsamples = 411\nvalue = [ 0.02194448  0.00099336]", shape="box"] ;
6 -> 12 ;
13 [label="tau_pt_ratio <= 2.1191\ngini = 0.134875553839\nsamples = 408", shape="box"] ;
5 -> 13 ;
14 [label="gini = 0.0546\nsamples = 253\nvalue = [ 0.01203585  0.00034778]", shape="box"] ;
13 -> 14 ;
15 [label="gini = 0.2098\nsamples = 155\nvalue = [ 0.01050075  0.00141979]", shape="box"] ;
13 -> 15 ;
16 [label="sum_pt_full <= 198736.6250\ngini = 0.224421070414\nsamples = 419", shape="box"] ;
4 -> 16 ;
17 [label="gini = 0.1561\nsamples = 253\nvalue = [ 0.01445702  0.00134884]", shape="box"] ;
16 -> 17 ;
18 [label="gini = 0.3007\nsamples = 166\nvalue = [ 0.01008768  0.0022799 ]", shape="box"] ;
16 -> 18 ;
19 [label="gini = 0.2786\nsamples = 267\nvalue = [ 0.01576882  0.00316807]", shape="box"] ;
3 -> 19 ;
20 [label="tau_pt_ratio <= 2.6169\ngini = 0.312685164957\nsamples = 2248", shape="box"] ;
2 -> 20 ;
21 [label="dR_tau1_tau2 <= 1.6554\ngini = 0.277678850966\nsamples = 1814", shape="box"] ;
20 -> 21 ;
22 [label="dR_tau1_tau2 <= 1.1245\ngini = 0.252868478509\nsamples = 1604", shape="box"] ;
21 -> 22 ;
23 [label="tau_pt_ratio <= 1.5521\ngini = 0.120986420055\nsamples = 349", shape="box"] ;
22 -> 23 ;
24 [label="gini = 0.0308\nsamples = 205\nvalue = [ 0.01374163  0.00021825]", shape="box"] ;
23 -> 24 ;
25 [label="gini = 0.2164\nsamples = 144\nvalue = [ 0.01021701  0.00143845]", shape="box"] ;
23 -> 25 ;
26 [label="MET_centrality <= 1.3900\ngini = 0.282992469386\nsamples = 1255", shape="box"] ;
22 -> 26 ;
27 [label="sum_pt_full <= 233153.6875\ngini = 0.253403521171\nsamples = 1078", shape="box"] ;
26 -> 27 ;
28 [label="MET_centrality <= 1.2109\ngini = 0.185536324591\nsamples = 587", shape="box"] ;
27 -> 28 ;
29 [label="dR_tau1_tau2 <= 1.4532\ngini = 0.113659912349\nsamples = 363", shape="box"] ;
28 -> 29 ;
30 [label="gini = 0.0617\nsamples = 177\nvalue = [ 0.01170848  0.00038552]", shape="box"] ;
29 -> 30 ;
31 [label="gini = 0.1622\nsamples = 186\nvalue = [ 0.0110463  0.0010795]", shape="box"] ;
29 -> 31 ;
32 [label="gini = 0.2696\nsamples = 224\nvalue = [ 0.01530147  0.00292736]", shape="box"] ;
28 -> 32 ;
33 [label="dR_tau1_tau2 <= 1.3088\ngini = 0.319462173353\nsamples = 491", shape="box"] ;
27 -> 33 ;
34 [label="gini = 0.2558\nsamples = 268\nvalue = [ 0.01808431  0.00320566]", shape="box"] ;
33 -> 34 ;
35 [label="gini = 0.3866\nsamples = 223\nvalue = [ 0.01233805  0.00437865]", shape="box"] ;
33 -> 35 ;
36 [label="gini = 0.3997\nsamples = 177\nvalue = [ 0.01201176  0.00457954]", shape="box"] ;
26 -> 36 ;
37 [label="gini = 0.4444\nsamples = 210\nvalue = [ 0.00888462  0.00444168]", shape="box"] ;
21 -> 37 ;
38 [label="MET_centrality <= 1.2977\ngini = 0.43036529593\nsamples = 434", shape="box"] ;
20 -> 38 ;
39 [label="gini = 0.3604\nsamples = 292\nvalue = [ 0.01479953  0.00456649]", shape="box"] ;
38 -> 39 ;
40 [label="gini = 0.4930\nsamples = 142\nvalue = [ 0.00659798  0.00520072]", shape="box"] ;
38 -> 40 ;
41 [label="tau_pt_ratio <= 2.4097\ngini = 0.456834946245\nsamples = 1047", shape="box"] ;
1 -> 41 ;
42 [label="MET_centrality <= 0.8580\ngini = 0.432623030147\nsamples = 794", shape="box"] ;
41 -> 42 ;
43 [label="gini = 0.2534\nsamples = 176\nvalue = [ 0.0108344   0.00189525]", shape="box"] ;
42 -> 43 ;
44 [label="sum_pt_full <= 276608.1562\ngini = 0.459060406999\nsamples = 618", shape="box"] ;
42 -> 44 ;
45 [label="MET_centrality <= 1.3147\ngini = 0.480401447552\nsamples = 429", shape="box"] ;
44 -> 45 ;
46 [label="gini = 0.4625\nsamples = 258\nvalue = [ 0.01463062  0.00834171]", shape="box"] ;
45 -> 46 ;
47 [label="gini = 0.4972\nsamples = 171\nvalue = [ 0.00755655  0.00651201]", shape="box"] ;
45 -> 47 ;
48 [label="gini = 0.3777\nsamples = 189\nvalue = [ 0.0117071   0.00395876]", shape="box"] ;
44 -> 48 ;
49 [label="gini = 0.4988\nsamples = 253\nvalue = [ 0.01029151  0.00932285]", shape="box"] ;
41 -> 49 ;
50 [label="mmc1_mass <= 107.4545\ngini = 0.399547000239\nsamples = 10579", shape="box"] ;
0 -> 50 ;
51 [label="mmc1_mass <= 102.9595\ngini = 0.490137732586\nsamples = 2091", shape="box"] ;
50 -> 51 ;
52 [label="dR_tau1_tau2 <= 1.1282\ngini = 0.499977574819\nsamples = 970", shape="box"] ;
51 -> 52 ;
53 [label="gini = 0.4682\nsamples = 171\nvalue = [ 0.00749583  0.00447816]", shape="box"] ;
52 -> 53 ;
54 [label="sum_pt_full <= 306507.2812\ngini = 0.499185099506\nsamples = 799", shape="box"] ;
52 -> 54 ;
55 [label="dR_tau1_tau2 <= 1.4909\ngini = 0.498955648627\nsamples = 658", shape="box"] ;
54 -> 55 ;
56 [label="gini = 0.4807\nsamples = 208\nvalue = [ 0.01003723  0.00673774]", shape="box"] ;
55 -> 56 ;
57 [label="tau_pt_ratio <= 1.5467\ngini = 0.499535303624\nsamples = 450", shape="box"] ;
55 -> 57 ;
58 [label="gini = 0.4922\nsamples = 178\nvalue = [ 0.008077    0.00628323]", shape="box"] ;
57 -> 58 ;
59 [label="gini = 0.4890\nsamples = 272\nvalue = [ 0.00803846  0.01084572]", shape="box"] ;
57 -> 59 ;
60 [label="gini = 0.4248\nsamples = 141\nvalue = [ 0.00379231  0.00859784]", shape="box"] ;
54 -> 60 ;
61 [label="MET_centrality <= 1.1291\ngini = 0.462858167531\nsamples = 1121", shape="box"] ;
51 -> 61 ;
62 [label="dR_tau1_tau2 <= 1.4770\ngini = 0.494069201268\nsamples = 472", shape="box"] ;
61 -> 62 ;
63 [label="gini = 0.4670\nsamples = 269\nvalue = [ 0.0081921   0.01385194]", shape="box"] ;
62 -> 63 ;
64 [label="gini = 0.4919\nsamples = 203\nvalue = [ 0.00778172  0.0060266 ]", shape="box"] ;
62 -> 64 ;
65 [label="dR_tau1_tau2 <= 1.5292\ngini = 0.421042203623\nsamples = 649", shape="box"] ;
61 -> 65 ;
66 [label="sum_pt_full <= 305864.7812\ngini = 0.384175639276\nsamples = 349", shape="box"] ;
65 -> 66 ;
67 [label="gini = 0.4224\nsamples = 185\nvalue = [ 0.00395463  0.00909811]", shape="box"] ;
66 -> 67 ;
68 [label="gini = 0.3374\nsamples = 164\nvalue = [ 0.00274908  0.01004628]", shape="box"] ;
66 -> 68 ;
69 [label="gini = 0.4565\nsamples = 300\nvalue = [ 0.0074567   0.01369185]", shape="box"] ;
65 -> 69 ;
70 [label="mmc1_mass <= 164.1534\ngini = 0.346156526993\nsamples = 8488", shape="box"] ;
50 -> 70 ;
71 [label="dR_tau1_tau2 <= 1.8923\ngini = 0.325890365041\nsamples = 8285", shape="box"] ;
70 -> 71 ;
72 [label="mmc1_mass <= 113.8503\ngini = 0.291896933152\nsamples = 6649", shape="box"] ;
71 -> 72 ;
73 [label="dR_tau1_tau2 <= 1.3585\ngini = 0.389444070329\nsamples = 1484", shape="box"] ;
72 -> 73 ;
74 [label="tau_pt_ratio <= 1.7809\ngini = 0.320111636542\nsamples = 605", shape="box"] ;
73 -> 74 ;
75 [label="gini = 0.3897\nsamples = 290\nvalue = [ 0.00434361  0.01204078]", shape="box"] ;
74 -> 75 ;
76 [label="gini = 0.2369\nsamples = 315\nvalue = [ 0.00233059  0.01464051]", shape="box"] ;
74 -> 76 ;
77 [label="MET_centrality <= 0.8665\ngini = 0.421132327052\nsamples = 879", shape="box"] ;
73 -> 77 ;
78 [label="gini = 0.4789\nsamples = 170\nvalue = [ 0.00497688  0.00755221]", shape="box"] ;
77 -> 78 ;
79 [label="mmc1_mass <= 109.1831\ngini = 0.399359334768\nsamples = 709", shape="box"] ;
77 -> 79 ;
80 [label="gini = 0.4490\nsamples = 196\nvalue = [ 0.00434655  0.00842636]", shape="box"] ;
79 -> 80 ;
81 [label="MET_centrality <= 1.2406\ngini = 0.37629725877\nsamples = 513", shape="box"] ;
79 -> 81 ;
82 [label="gini = 0.4283\nsamples = 236\nvalue = [ 0.00507903  0.01126755]", shape="box"] ;
81 -> 82 ;
83 [label="gini = 0.3150\nsamples = 277\nvalue = [ 0.00342914  0.01408083]", shape="box"] ;
81 -> 83 ;
84 [label="dR_tau1_tau2 <= 1.5409\ngini = 0.24624977036\nsamples = 5165", shape="box"] ;
72 -> 84 ;
85 [label="MET_centrality <= 1.4019\ngini = 0.200377873892\nsamples = 3068", shape="box"] ;
84 -> 85 ;
86 [label="dR_tau1_tau2 <= 1.2771\ngini = 0.177881012422\nsamples = 2765", shape="box"] ;
85 -> 86 ;
87 [label="MET_centrality <= 0.9754\ngini = 0.128814581558\nsamples = 1467", shape="box"] ;
86 -> 87 ;
88 [label="gini = 0.1829\nsamples = 501\nvalue = [ 0.00235     0.02072474]", shape="box"] ;
87 -> 88 ;
89 [label="tau_pt_ratio <= 1.3599\ngini = 0.0889098412394\nsamples = 966", shape="box"] ;
87 -> 89 ;
90 [label="gini = 0.1775\nsamples = 294\nvalue = [ 0.00114881  0.01051925]", shape="box"] ;
89 -> 90 ;
91 [label="gini = 0.0369\nsamples = 672\nvalue = [ 0.00040785  0.02130788]", shape="box"] ;
89 -> 91 ;
92 [label="mmc1_mass <= 118.8294\ngini = 0.224167901907\nsamples = 1298", shape="box"] ;
86 -> 92 ;
93 [label="gini = 0.3296\nsamples = 311\nvalue = [ 0.00309682  0.01178497]", shape="box"] ;
92 -> 93 ;
94 [label="tau_pt_ratio <= 1.9763\ngini = 0.179308567403\nsamples = 987", shape="box"] ;
92 -> 94 ;
95 [label="mmc1_mass <= 128.0034\ngini = 0.100410585052\nsamples = 635", shape="box"] ;
94 -> 95 ;
96 [label="gini = 0.0339\nsamples = 327\nvalue = [ 0.00022062  0.01258921]", shape="box"] ;
95 -> 96 ;
97 [label="gini = 0.1632\nsamples = 308\nvalue = [ 0.00112183  0.01139001]", shape="box"] ;
95 -> 97 ;
98 [label="gini = 0.2904\nsamples = 352\nvalue = [ 0.00270921  0.01266153]", shape="box"] ;
94 -> 98 ;
99 [label="gini = 0.3218\nsamples = 303\nvalue = [ 0.00363674  0.0144098 ]", shape="box"] ;
85 -> 99 ;
100 [label="mmc1_mass <= 142.0181\ngini = 0.295349048366\nsamples = 2097", shape="box"] ;
84 -> 100 ;
101 [label="mmc1_mass <= 116.7134\ngini = 0.27908846419\nsamples = 1890", shape="box"] ;
100 -> 101 ;
102 [label="gini = 0.3855\nsamples = 239\nvalue = [ 0.00325662  0.00923313]", shape="box"] ;
101 -> 102 ;
103 [label="MET_centrality <= 0.8996\ngini = 0.260688365364\nsamples = 1651", shape="box"] ;
101 -> 103 ;
104 [label="gini = 0.3293\nsamples = 345\nvalue = [ 0.00374207  0.01426346]", shape="box"] ;
103 -> 104 ;
105 [label="tau_pt_ratio <= 1.1737\ngini = 0.240506757655\nsamples = 1306", shape="box"] ;
103 -> 105 ;
106 [label="gini = 0.1555\nsamples = 238\nvalue = [ 0.00111108  0.01196387]", shape="box"] ;
105 -> 106 ;
107 [label="sum_pt_full <= 225769.0938\ngini = 0.259063486083\nsamples = 1068", shape="box"] ;
105 -> 107 ;
108 [label="gini = 0.3442\nsamples = 229\nvalue = [ 0.00257658  0.00908964]", shape="box"] ;
107 -> 108 ;
109 [label="MET_centrality <= 1.3216\ngini = 0.232773960815\nsamples = 839", shape="box"] ;
107 -> 109 ;
110 [label="tau_pt_ratio <= 1.6575\ngini = 0.273265966334\nsamples = 539", shape="box"] ;
109 -> 110 ;
111 [label="gini = 0.3350\nsamples = 206\nvalue = [ 0.00247774  0.00916498]", shape="box"] ;
110 -> 111 ;
112 [label="gini = 0.2263\nsamples = 333\nvalue = [ 0.00225493  0.01508382]", shape="box"] ;
110 -> 112 ;
113 [label="gini = 0.1383\nsamples = 300\nvalue = [ 0.0010457   0.01294463]", shape="box"] ;
109 -> 113 ;
114 [label="gini = 0.4026\nsamples = 207\nvalue = [ 0.0034464   0.00889117]", shape="box"] ;
100 -> 114 ;
115 [label="sum_pt_full <= 303497.5625\ngini = 0.412577665347\nsamples = 1636", shape="box"] ;
71 -> 115 ;
116 [label="mmc1_mass <= 118.0718\ngini = 0.394054988885\nsamples = 1479", shape="box"] ;
115 -> 116 ;
117 [label="gini = 0.4504\nsamples = 312\nvalue = [ 0.0072159   0.01385207]", shape="box"] ;
116 -> 117 ;
118 [label="mmc1_mass <= 141.9006\ngini = 0.374101113708\nsamples = 1167", shape="box"] ;
116 -> 118 ;
119 [label="sum_pt_full <= 214208.4375\ngini = 0.336691572235\nsamples = 872", shape="box"] ;
118 -> 119 ;
120 [label="dR_tau1_tau2 <= 2.0942\ngini = 0.384681094724\nsamples = 414", shape="box"] ;
119 -> 120 ;
121 [label="gini = 0.3109\nsamples = 228\nvalue = [ 0.00272636  0.01143301]", shape="box"] ;
120 -> 121 ;
122 [label="gini = 0.4399\nsamples = 186\nvalue = [ 0.00466605  0.00962046]", shape="box"] ;
120 -> 122 ;
123 [label="tau_pt_ratio <= 1.9781\ngini = 0.268635624049\nsamples = 458", shape="box"] ;
119 -> 123 ;
124 [label="gini = 0.3342\nsamples = 209\nvalue = [ 0.0025116   0.00933357]", shape="box"] ;
123 -> 124 ;
125 [label="gini = 0.1935\nsamples = 249\nvalue = [ 0.00130516  0.01072243]", shape="box"] ;
123 -> 125 ;
126 [label="gini = 0.4448\nsamples = 295\nvalue = [ 0.00717789  0.01431662]", shape="box"] ;
118 -> 126 ;
127 [label="gini = 0.4970\nsamples = 157\nvalue = [ 0.0054187   0.00633022]", shape="box"] ;
115 -> 127 ;
128 [label="gini = 0.3747\nsamples = 203\nvalue = [ 0.01107053  0.00368504]", shape="box"] ;
70 -> 128 ;
}