digraph Tree {
0 [label="mmc1_mass <= 98.6762\ngini = 0.499407632345\nsamples = 16266", shape="box"] ;
1 [label="mmc1_mass <= 85.1296\ngini = 0.338236484766\nsamples = 5687", shape="box"] ;
0 -> 1 ;
2 [label="tau_pt_ratio <= 3.3127\ngini = 0.203054102472\nsamples = 2924", shape="box"] ;
1 -> 2 ;
3 [label="dR_tau1_tau2 <= 1.3838\ngini = 0.180122342178\nsamples = 2776", shape="box"] ;
2 -> 3 ;
4 [label="sum_pt_full <= 328252.8125\ngini = 0.137961093897\nsamples = 2118", shape="box"] ;
3 -> 4 ;
5 [label="mmc1_mass <= 78.9567\ngini = 0.104744641196\nsamples = 1842", shape="box"] ;
4 -> 5 ;
6 [label="tau_pt_ratio <= 1.4081\ngini = 0.0698583615016\nsamples = 1401", shape="box"] ;
5 -> 6 ;
7 [label="gini = 0.0278\nsamples = 567\nvalue = [ 0.02006306  0.00028682]", shape="box"] ;
6 -> 7 ;
8 [label="mmc1_mass <= 65.4633\ngini = 0.0910280501644\nsamples = 834", shape="box"] ;
6 -> 8 ;
9 [label="gini = 0.1239\nsamples = 365\nvalue = [ 0.01560635  0.00110896]", shape="box"] ;
8 -> 9 ;
10 [label="gini = 0.0655\nsamples = 469\nvalue = [ 0.02153202  0.00075532]", shape="box"] ;
8 -> 10 ;
11 [label="dR_tau1_tau2 <= 1.1873\ngini = 0.175501572989\nsamples = 441", shape="box"] ;
5 -> 11 ;
12 [label="gini = 0.2423\nsamples = 183\nvalue = [ 0.01006834  0.00165299]", shape="box"] ;
11 -> 12 ;
13 [label="gini = 0.1202\nsamples = 258\nvalue = [ 0.01457776  0.00100048]", shape="box"] ;
11 -> 13 ;
14 [label="gini = 0.2671\nsamples = 276\nvalue = [ 0.01652039  0.00311791]", shape="box"] ;
4 -> 14 ;
15 [label="sum_pt_full <= 214826.7656\ngini = 0.273031087199\nsamples = 658", shape="box"] ;
3 -> 15 ;
16 [label="MET_centrality <= 1.2976\ngini = 0.21162195576\nsamples = 453", shape="box"] ;
15 -> 16 ;
17 [label="gini = 0.0600\nsamples = 247\nvalue = [ 0.01272153  0.00040666]", shape="box"] ;
16 -> 17 ;
18 [label="gini = 0.3201\nsamples = 206\nvalue = [ 0.01174781  0.00293885]", shape="box"] ;
16 -> 18 ;
19 [label="gini = 0.3662\nsamples = 205\nvalue = [ 0.01156379  0.00367815]", shape="box"] ;
15 -> 19 ;
20 [label="gini = 0.4210\nsamples = 148\nvalue = [ 0.00816939  0.00352139]", shape="box"] ;
2 -> 20 ;
21 [label="mmc1_mass <= 94.7379\ngini = 0.412016165286\nsamples = 2763", shape="box"] ;
1 -> 21 ;
22 [label="MET_centrality <= 1.2114\ngini = 0.370502803838\nsamples = 1960", shape="box"] ;
21 -> 22 ;
23 [label="tau_pt_ratio <= 2.5695\ngini = 0.285646904783\nsamples = 1096", shape="box"] ;
22 -> 23 ;
24 [label="mmc1_mass <= 90.2857\ngini = 0.250378259862\nsamples = 870", shape="box"] ;
23 -> 24 ;
25 [label="MET_centrality <= 0.8945\ngini = 0.161916643161\nsamples = 430", shape="box"] ;
24 -> 25 ;
26 [label="gini = 0.2096\nsamples = 184\nvalue = [ 0.0106259   0.00143431]", shape="box"] ;
25 -> 26 ;
27 [label="gini = 0.1230\nsamples = 246\nvalue = [ 0.01473547  0.00103888]", shape="box"] ;
25 -> 27 ;
28 [label="MET_centrality <= 0.8561\ngini = 0.314503540454\nsamples = 440", shape="box"] ;
24 -> 28 ;
29 [label="gini = 0.1802\nsamples = 180\nvalue = [ 0.01130399  0.00125754]", shape="box"] ;
28 -> 29 ;
30 [label="gini = 0.3789\nsamples = 260\nvalue = [ 0.015281    0.00520094]", shape="box"] ;
28 -> 30 ;
31 [label="gini = 0.3995\nsamples = 226\nvalue = [ 0.01107122  0.00421613]", shape="box"] ;
23 -> 31 ;
32 [label="tau_pt_ratio <= 2.3707\ngini = 0.435281960331\nsamples = 864", shape="box"] ;
22 -> 32 ;
33 [label="dR_tau1_tau2 <= 1.2168\ngini = 0.403342411647\nsamples = 648", shape="box"] ;
32 -> 33 ;
34 [label="gini = 0.1771\nsamples = 166\nvalue = [ 0.01187453  0.00129312]", shape="box"] ;
33 -> 34 ;
35 [label="MET_centrality <= 1.3298\ngini = 0.445728517993\nsamples = 482", shape="box"] ;
33 -> 35 ;
36 [label="gini = 0.4854\nsamples = 185\nvalue = [ 0.01009496  0.00715018]", shape="box"] ;
35 -> 36 ;
37 [label="MET_centrality <= 1.3969\ngini = 0.405913074685\nsamples = 297", shape="box"] ;
35 -> 37 ;
38 [label="gini = 0.3157\nsamples = 173\nvalue = [ 0.01114099  0.00272343]", shape="box"] ;
37 -> 38 ;
39 [label="gini = 0.4713\nsamples = 124\nvalue = [ 0.0076643   0.00470287]", shape="box"] ;
37 -> 39 ;
40 [label="gini = 0.4944\nsamples = 216\nvalue = [ 0.00986287  0.00797236]", shape="box"] ;
32 -> 40 ;
41 [label="tau_pt_ratio <= 2.4095\ngini = 0.47610958792\nsamples = 803", shape="box"] ;
21 -> 41 ;
42 [label="MET_centrality <= 1.3723\ngini = 0.460057552768\nsamples = 608", shape="box"] ;
41 -> 42 ;
43 [label="sum_pt_full <= 229839.0938\ngini = 0.4409436898\nsamples = 470", shape="box"] ;
42 -> 43 ;
44 [label="gini = 0.4777\nsamples = 188\nvalue = [ 0.01018663  0.00663737]", shape="box"] ;
43 -> 44 ;
45 [label="gini = 0.4012\nsamples = 282\nvalue = [ 0.01599385  0.00615062]", shape="box"] ;
43 -> 45 ;
46 [label="gini = 0.4969\nsamples = 138\nvalue = [ 0.00630522  0.00538078]", shape="box"] ;
42 -> 46 ;
47 [label="gini = 0.4998\nsamples = 195\nvalue = [ 0.00837365  0.00803203]", shape="box"] ;
41 -> 47 ;
48 [label="mmc1_mass <= 107.4545\ngini = 0.419132201432\nsamples = 10579", shape="box"] ;
0 -> 48 ;
49 [label="mmc1_mass <= 102.9595\ngini = 0.492194471614\nsamples = 2091", shape="box"] ;
48 -> 49 ;
50 [label="dR_tau1_tau2 <= 1.1654\ngini = 0.499987090171\nsamples = 970", shape="box"] ;
49 -> 50 ;
51 [label="gini = 0.4775\nsamples = 189\nvalue = [ 0.00863976  0.00561367]", shape="box"] ;
50 -> 51 ;
52 [label="sum_pt_full <= 306507.2812\ngini = 0.499169766057\nsamples = 781", shape="box"] ;
50 -> 52 ;
53 [label="dR_tau1_tau2 <= 1.5642\ngini = 0.499387938311\nsamples = 651", shape="box"] ;
52 -> 53 ;
54 [label="gini = 0.4893\nsamples = 270\nvalue = [ 0.01312366  0.00976814]", shape="box"] ;
53 -> 54 ;
55 [label="sum_pt_full <= 219667.1094\ngini = 0.498707306966\nsamples = 381", shape="box"] ;
53 -> 55 ;
56 [label="gini = 0.4977\nsamples = 243\nvalue = [ 0.00955119  0.00833346]", shape="box"] ;
55 -> 56 ;
57 [label="gini = 0.4736\nsamples = 138\nvalue = [ 0.00457315  0.00730418]", shape="box"] ;
55 -> 57 ;
58 [label="gini = 0.4282\nsamples = 130\nvalue = [ 0.00366294  0.00813134]", shape="box"] ;
52 -> 58 ;
59 [label="MET_centrality <= 1.1291\ngini = 0.470561773139\nsamples = 1121", shape="box"] ;
49 -> 59 ;
60 [label="tau_pt_ratio <= 1.5834\ngini = 0.495468057108\nsamples = 472", shape="box"] ;
59 -> 60 ;
61 [label="gini = 0.4912\nsamples = 172\nvalue = [ 0.00793479  0.00607448]", shape="box"] ;
60 -> 61 ;
62 [label="dR_tau1_tau2 <= 1.3967\ngini = 0.473855333436\nsamples = 300", shape="box"] ;
60 -> 62 ;
63 [label="gini = 0.4333\nsamples = 139\nvalue = [ 0.00372691  0.00801689]", shape="box"] ;
62 -> 63 ;
64 [label="gini = 0.4953\nsamples = 161\nvalue = [ 0.00550282  0.00668532]", shape="box"] ;
62 -> 64 ;
65 [label="mmc1_mass <= 104.1952\ngini = 0.436344859701\nsamples = 649", shape="box"] ;
59 -> 65 ;
66 [label="gini = 0.4831\nsamples = 157\nvalue = [ 0.00477374  0.00692715]", shape="box"] ;
65 -> 66 ;
67 [label="MET_centrality <= 1.3878\ngini = 0.415538923916\nsamples = 492", shape="box"] ;
65 -> 67 ;
68 [label="mmc1_mass <= 105.6497\ngini = 0.380283283433\nsamples = 323", shape="box"] ;
67 -> 68 ;
69 [label="gini = 0.3283\nsamples = 136\nvalue = [ 0.00261661  0.01002639]", shape="box"] ;
68 -> 69 ;
70 [label="gini = 0.4256\nsamples = 187\nvalue = [ 0.00362713  0.00818248]", shape="box"] ;
68 -> 70 ;
71 [label="gini = 0.4657\nsamples = 169\nvalue = [ 0.00474128  0.00810676]", shape="box"] ;
67 -> 71 ;
72 [label="mmc1_mass <= 164.1534\ngini = 0.373520370377\nsamples = 8488", shape="box"] ;
48 -> 72 ;
73 [label="dR_tau1_tau2 <= 1.8923\ngini = 0.356351214727\nsamples = 8285", shape="box"] ;
72 -> 73 ;
74 [label="mmc1_mass <= 116.7678\ngini = 0.326122222254\nsamples = 6649", shape="box"] ;
73 -> 74 ;
75 [label="sum_pt_full <= 347778.6562\ngini = 0.39483957498\nsamples = 2168", shape="box"] ;
74 -> 75 ;
76 [label="sum_pt_full <= 203732.0938\ngini = 0.420642611919\nsamples = 1549", shape="box"] ;
75 -> 76 ;
77 [label="gini = 0.4807\nsamples = 180\nvalue = [ 0.00535678  0.0079802 ]", shape="box"] ;
76 -> 77 ;
78 [label="sum_pt_full <= 230582.7500\ngini = 0.407396446363\nsamples = 1369", shape="box"] ;
76 -> 78 ;
79 [label="gini = 0.3180\nsamples = 262\nvalue = [ 0.00332726  0.01344901]", shape="box"] ;
78 -> 79 ;
80 [label="sum_pt_full <= 252381.3594\ngini = 0.425006251667\nsamples = 1107", shape="box"] ;
78 -> 80 ;
81 [label="gini = 0.4712\nsamples = 260\nvalue = [ 0.00666453  0.01087609]", shape="box"] ;
80 -> 81 ;
82 [label="tau_pt_ratio <= 1.3377\ngini = 0.403599684501\nsamples = 847", shape="box"] ;
80 -> 82 ;
83 [label="gini = 0.4638\nsamples = 215\nvalue = [ 0.0044811   0.00778086]", shape="box"] ;
82 -> 83 ;
84 [label="mmc1_mass <= 111.4624\ngini = 0.377698758419\nsamples = 632", shape="box"] ;
82 -> 84 ;
85 [label="gini = 0.4298\nsamples = 281\nvalue = [ 0.00501737  0.01103069]", shape="box"] ;
84 -> 85 ;
86 [label="gini = 0.3295\nsamples = 351\nvalue = [ 0.00447654  0.01704328]", shape="box"] ;
84 -> 86 ;
87 [label="MET_centrality <= 1.2139\ngini = 0.302328858796\nsamples = 619", shape="box"] ;
75 -> 87 ;
88 [label="gini = 0.2143\nsamples = 341\nvalue = [ 0.00243153  0.01748968]", shape="box"] ;
87 -> 88 ;
89 [label="gini = 0.3965\nsamples = 278\nvalue = [ 0.00397216  0.01060578]", shape="box"] ;
87 -> 89 ;
90 [label="mmc1_mass <= 144.9984\ngini = 0.270742822405\nsamples = 4481", shape="box"] ;
74 -> 90 ;
91 [label="dR_tau1_tau2 <= 1.5242\ngini = 0.255794385837\nsamples = 4233", shape="box"] ;
90 -> 91 ;
92 [label="tau_pt_ratio <= 1.9767\ngini = 0.208324841241\nsamples = 2456", shape="box"] ;
91 -> 92 ;
93 [label="mmc1_mass <= 129.4065\ngini = 0.1624115839\nsamples = 1591", shape="box"] ;
92 -> 93 ;
94 [label="MET_centrality <= 1.1645\ngini = 0.203895110947\nsamples = 1048", shape="box"] ;
93 -> 94 ;
95 [label="gini = 0.1338\nsamples = 506\nvalue = [ 0.00124526  0.01602677]", shape="box"] ;
94 -> 95 ;
96 [label="gini = 0.2555\nsamples = 542\nvalue = [ 0.0031855   0.01799592]", shape="box"] ;
94 -> 96 ;
97 [label="gini = 0.0492\nsamples = 543\nvalue = [ 0.0003961   0.01529103]", shape="box"] ;
93 -> 97 ;
98 [label="sum_pt_full <= 458187.0312\ngini = 0.269547939971\nsamples = 865", shape="box"] ;
92 -> 98 ;
99 [label="MET_centrality <= 1.2119\ngini = 0.326069897478\nsamples = 560", shape="box"] ;
98 -> 99 ;
100 [label="gini = 0.2641\nsamples = 300\nvalue = [ 0.00192701  0.01038151]", shape="box"] ;
99 -> 100 ;
101 [label="gini = 0.3806\nsamples = 260\nvalue = [ 0.00302299  0.00880286]", shape="box"] ;
99 -> 101 ;
102 [label="gini = 0.1415\nsamples = 305\nvalue = [ 0.00098155  0.01182919]", shape="box"] ;
98 -> 102 ;
103 [label="sum_pt_full <= 299305.2500\ngini = 0.298415114809\nsamples = 1777", shape="box"] ;
91 -> 103 ;
104 [label="mmc1_mass <= 122.4185\ngini = 0.274421058426\nsamples = 1359", shape="box"] ;
103 -> 104 ;
105 [label="tau_pt_ratio <= 1.5270\ngini = 0.333203253917\nsamples = 491", shape="box"] ;
104 -> 105 ;
106 [label="gini = 0.3930\nsamples = 246\nvalue = [ 0.00365009  0.0099344 ]", shape="box"] ;
105 -> 106 ;
107 [label="gini = 0.2513\nsamples = 245\nvalue = [ 0.00180172  0.01042575]", shape="box"] ;
105 -> 107 ;
108 [label="dR_tau1_tau2 <= 1.8144\ngini = 0.235204626785\nsamples = 868", shape="box"] ;
104 -> 108 ;
109 [label="mmc1_mass <= 129.7367\ngini = 0.198498034573\nsamples = 645", shape="box"] ;
108 -> 109 ;
110 [label="gini = 0.1268\nsamples = 346\nvalue = [ 0.00107658  0.01474739]", shape="box"] ;
109 -> 110 ;
111 [label="gini = 0.2624\nsamples = 299\nvalue = [ 0.00246294  0.01339141]", shape="box"] ;
109 -> 111 ;
112 [label="gini = 0.3229\nsamples = 223\nvalue = [ 0.00236061  0.00930139]", shape="box"] ;
108 -> 112 ;
113 [label="tau_pt_ratio <= 2.1238\ngini = 0.361534888998\nsamples = 418", shape="box"] ;
103 -> 113 ;
114 [label="gini = 0.3788\nsamples = 187\nvalue = [ 0.00295945  0.00869793]", shape="box"] ;
113 -> 114 ;
115 [label="gini = 0.3432\nsamples = 231\nvalue = [ 0.00257433  0.00912949]", shape="box"] ;
113 -> 115 ;
116 [label="gini = 0.4206\nsamples = 248\nvalue = [ 0.00430473  0.0100058 ]", shape="box"] ;
90 -> 116 ;
117 [label="sum_pt_full <= 303497.5625\ngini = 0.429411238017\nsamples = 1636", shape="box"] ;
73 -> 117 ;
118 [label="MET_centrality <= 1.4051\ngini = 0.413718823992\nsamples = 1479", shape="box"] ;
117 -> 118 ;
119 [label="sum_pt_full <= 260149.7500\ngini = 0.401581581993\nsamples = 1312", shape="box"] ;
118 -> 119 ;
120 [label="mmc1_mass <= 126.5951\ngini = 0.387491724887\nsamples = 1129", shape="box"] ;
119 -> 120 ;
121 [label="tau_pt_ratio <= 1.8833\ngini = 0.42755791088\nsamples = 541", shape="box"] ;
120 -> 121 ;
122 [label="gini = 0.3964\nsamples = 295\nvalue = [ 0.00582743  0.01556145]", shape="box"] ;
121 -> 122 ;
123 [label="gini = 0.4660\nsamples = 246\nvalue = [ 0.0049102   0.00837404]", shape="box"] ;
121 -> 123 ;
124 [label="tau_pt_ratio <= 1.7578\ngini = 0.344371066183\nsamples = 588", shape="box"] ;
120 -> 124 ;
125 [label="mmc1_mass <= 139.6379\ngini = 0.393711209334\nsamples = 356", shape="box"] ;
124 -> 125 ;
126 [label="gini = 0.3357\nsamples = 196\nvalue = [ 0.00255507  0.0094169 ]", shape="box"] ;
125 -> 126 ;
127 [label="gini = 0.4394\nsamples = 160\nvalue = [ 0.00387378  0.00801169]", shape="box"] ;
125 -> 127 ;
128 [label="gini = 0.2469\nsamples = 232\nvalue = [ 0.00216916  0.01287006]", shape="box"] ;
124 -> 128 ;
129 [label="gini = 0.4646\nsamples = 183\nvalue = [ 0.00467038  0.00806012]", shape="box"] ;
119 -> 129 ;
130 [label="gini = 0.4784\nsamples = 167\nvalue = [ 0.00465714  0.00710438]", shape="box"] ;
118 -> 130 ;
131 [label="gini = 0.4979\nsamples = 157\nvalue = [ 0.00584313  0.00664537]", shape="box"] ;
117 -> 131 ;
132 [label="gini = 0.3957\nsamples = 203\nvalue = [ 0.01104859  0.00412123]", shape="box"] ;
72 -> 132 ;
}