digraph Tree {
0 [label="mmc1_mass <= 98.6762\ngini = 0.499525655103\nsamples = 16266", shape="box"] ;
1 [label="mmc1_mass <= 93.5470\ngini = 0.3009490897\nsamples = 5687", shape="box"] ;
0 -> 1 ;
2 [label="mmc1_mass <= 83.2014\ngini = 0.237905953977\nsamples = 4640", shape="box"] ;
1 -> 2 ;
3 [label="tau_pt_ratio <= 2.7823\ngini = 0.143827554264\nsamples = 2583", shape="box"] ;
2 -> 3 ;
4 [label="dR_tau1_tau2 <= 1.3798\ngini = 0.11942357995\nsamples = 2352", shape="box"] ;
3 -> 4 ;
5 [label="sum_pt_full <= 352268.4375\ngini = 0.0767088288638\nsamples = 1841", shape="box"] ;
4 -> 5 ;
6 [label="tau_pt_ratio <= 1.9738\ngini = 0.0626521926676\nsamples = 1681", shape="box"] ;
5 -> 6 ;
7 [label="sum_pt_full <= 241029.8125\ngini = 0.0441021032607\nsamples = 1332", shape="box"] ;
6 -> 7 ;
8 [label="dR_tau1_tau2 <= 1.2872\ngini = 0.0349396708587\nsamples = 963", shape="box"] ;
7 -> 8 ;
9 [label="mmc1_mass <= 67.6108\ngini = 0.0196822449769\nsamples = 754", shape="box"] ;
8 -> 9 ;
10 [label="gini = 0.0290\nsamples = 479\nvalue = [ 0.02044166  0.00030538]", shape="box"] ;
9 -> 10 ;
11 [label="gini = 0.0054\nsamples = 275\nvalue = [  1.36719367e-02   3.71080005e-05]", shape="box"] ;
9 -> 11 ;
12 [label="gini = 0.0786\nsamples = 209\nvalue = [ 0.01117295  0.00047757]", shape="box"] ;
8 -> 12 ;
13 [label="gini = 0.0668\nsamples = 369\nvalue = [ 0.01763789  0.00063228]", shape="box"] ;
7 -> 13 ;
14 [label="gini = 0.1143\nsamples = 349\nvalue = [ 0.02085474  0.00135069]", shape="box"] ;
6 -> 14 ;
15 [label="gini = 0.1738\nsamples = 160\nvalue = [ 0.01055442  0.00112247]", shape="box"] ;
5 -> 15 ;
16 [label="sum_pt_full <= 214826.7656\ngini = 0.228580483264\nsamples = 511", shape="box"] ;
4 -> 16 ;
17 [label="gini = 0.1697\nsamples = 355\nvalue = [ 0.02053167  0.00212017]", shape="box"] ;
16 -> 17 ;
18 [label="gini = 0.3250\nsamples = 156\nvalue = [ 0.00944331  0.0024228 ]", shape="box"] ;
16 -> 18 ;
19 [label="gini = 0.3026\nsamples = 231\nvalue = [ 0.01425221  0.00325316]", shape="box"] ;
3 -> 19 ;
20 [label="MET_centrality <= 1.2302\ngini = 0.315806637231\nsamples = 2057", shape="box"] ;
2 -> 20 ;
21 [label="tau_pt_ratio <= 1.9794\ngini = 0.243513912073\nsamples = 1183", shape="box"] ;
20 -> 21 ;
22 [label="sum_pt_full <= 285097.3750\ngini = 0.190780201095\nsamples = 726", shape="box"] ;
21 -> 22 ;
23 [label="MET_centrality <= 0.8245\ngini = 0.228011509383\nsamples = 536", shape="box"] ;
22 -> 23 ;
24 [label="gini = 0.1190\nsamples = 185\nvalue = [ 0.01187452  0.00080581]", shape="box"] ;
23 -> 24 ;
25 [label="dR_tau1_tau2 <= 1.4310\ngini = 0.27441040027\nsamples = 351", shape="box"] ;
23 -> 25 ;
26 [label="gini = 0.2411\nsamples = 178\nvalue = [ 0.0124004   0.00202227]", shape="box"] ;
25 -> 26 ;
27 [label="gini = 0.3125\nsamples = 173\nvalue = [ 0.00938594  0.0022563 ]", shape="box"] ;
25 -> 27 ;
28 [label="gini = 0.0650\nsamples = 190\nvalue = [ 0.01249932  0.00043472]", shape="box"] ;
22 -> 28 ;
29 [label="MET_centrality <= 0.9919\ngini = 0.31998457616\nsamples = 457", shape="box"] ;
21 -> 29 ;
30 [label="gini = 0.3778\nsamples = 273\nvalue = [ 0.01455352  0.00492346]", shape="box"] ;
29 -> 30 ;
31 [label="gini = 0.1995\nsamples = 184\nvalue = [ 0.0104207   0.00131959]", shape="box"] ;
29 -> 31 ;
32 [label="tau_pt_ratio <= 1.6975\ngini = 0.384968705069\nsamples = 874", shape="box"] ;
20 -> 32 ;
33 [label="dR_tau1_tau2 <= 1.3661\ngini = 0.28453409118\nsamples = 449", shape="box"] ;
32 -> 33 ;
34 [label="gini = 0.1754\nsamples = 198\nvalue = [ 0.01439662  0.00154939]", shape="box"] ;
33 -> 34 ;
35 [label="gini = 0.3524\nsamples = 251\nvalue = [ 0.01621783  0.0048    ]", shape="box"] ;
33 -> 35 ;
36 [label="dR_tau1_tau2 <= 1.4194\ngini = 0.458379595434\nsamples = 425", shape="box"] ;
32 -> 36 ;
37 [label="gini = 0.4158\nsamples = 221\nvalue = [ 0.01305258  0.00545543]", shape="box"] ;
36 -> 37 ;
38 [label="gini = 0.4895\nsamples = 204\nvalue = [ 0.00897646  0.00670845]", shape="box"] ;
36 -> 38 ;
39 [label="tau_pt_ratio <= 2.4097\ngini = 0.455997531776\nsamples = 1047", shape="box"] ;
1 -> 39 ;
40 [label="MET_centrality <= 0.8580\ngini = 0.431378029807\nsamples = 794", shape="box"] ;
39 -> 40 ;
41 [label="gini = 0.2503\nsamples = 176\nvalue = [ 0.01086856  0.00186804]", shape="box"] ;
40 -> 41 ;
42 [label="dR_tau1_tau2 <= 1.4095\ngini = 0.458279477054\nsamples = 618", shape="box"] ;
40 -> 42 ;
43 [label="gini = 0.4018\nsamples = 263\nvalue = [ 0.01655734  0.00638681]", shape="box"] ;
42 -> 43 ;
44 [label="tau_pt_ratio <= 1.4022\ngini = 0.485738338754\nsamples = 355", shape="box"] ;
42 -> 44 ;
45 [label="gini = 0.4318\nsamples = 145\nvalue = [ 0.00798847  0.00367904]", shape="box"] ;
44 -> 45 ;
46 [label="gini = 0.4993\nsamples = 210\nvalue = [ 0.00927035  0.00859245]", shape="box"] ;
44 -> 46 ;
47 [label="gini = 0.4988\nsamples = 253\nvalue = [ 0.01023855  0.00926563]", shape="box"] ;
39 -> 47 ;
48 [label="mmc1_mass <= 107.4545\ngini = 0.39775567224\nsamples = 10579", shape="box"] ;
0 -> 48 ;
49 [label="mmc1_mass <= 102.9595\ngini = 0.489939826114\nsamples = 2091", shape="box"] ;
48 -> 49 ;
50 [label="dR_tau1_tau2 <= 1.1282\ngini = 0.499977318458\nsamples = 970", shape="box"] ;
49 -> 50 ;
51 [label="gini = 0.4676\nsamples = 171\nvalue = [ 0.00747296  0.00444132]", shape="box"] ;
50 -> 51 ;
52 [label="sum_pt_full <= 306507.2812\ngini = 0.499167738254\nsamples = 799", shape="box"] ;
50 -> 52 ;
53 [label="dR_tau1_tau2 <= 1.5642\ngini = 0.498934888651\nsamples = 658", shape="box"] ;
52 -> 53 ;
54 [label="gini = 0.4858\nsamples = 277\nvalue = [ 0.01276333  0.00908384]", shape="box"] ;
53 -> 54 ;
55 [label="tau_pt_ratio <= 1.5467\ngini = 0.498771143833\nsamples = 381", shape="box"] ;
53 -> 55 ;
56 [label="gini = 0.4926\nsamples = 148\nvalue = [ 0.00668252  0.00523125]", shape="box"] ;
55 -> 56 ;
57 [label="gini = 0.4843\nsamples = 233\nvalue = [ 0.00657737  0.00941194]", shape="box"] ;
55 -> 57 ;
58 [label="gini = 0.4234\nsamples = 141\nvalue = [ 0.00375536  0.00858475]", shape="box"] ;
52 -> 58 ;
59 [label="MET_centrality <= 1.1291\ngini = 0.462146816533\nsamples = 1121", shape="box"] ;
49 -> 59 ;
60 [label="dR_tau1_tau2 <= 1.4770\ngini = 0.493950868299\nsamples = 472", shape="box"] ;
59 -> 60 ;
61 [label="gini = 0.4664\nsamples = 269\nvalue = [ 0.00812431  0.01381038]", shape="box"] ;
60 -> 61 ;
62 [label="gini = 0.4918\nsamples = 203\nvalue = [ 0.00774782  0.00598487]", shape="box"] ;
60 -> 62 ;
63 [label="dR_tau1_tau2 <= 1.5292\ngini = 0.41961429385\nsamples = 649", shape="box"] ;
59 -> 63 ;
64 [label="sum_pt_full <= 305864.7812\ngini = 0.382212263407\nsamples = 349", shape="box"] ;
63 -> 64 ;
65 [label="gini = 0.4210\nsamples = 185\nvalue = [ 0.00391581  0.00908493]", shape="box"] ;
64 -> 65 ;
66 [label="gini = 0.3349\nsamples = 164\nvalue = [ 0.00271574  0.0100552 ]", shape="box"] ;
64 -> 66 ;
67 [label="gini = 0.4557\nsamples = 300\nvalue = [ 0.00739191  0.01365645]", shape="box"] ;
63 -> 67 ;
68 [label="mmc1_mass <= 164.9010\ngini = 0.343717097261\nsamples = 8488", shape="box"] ;
48 -> 68 ;
69 [label="dR_tau1_tau2 <= 1.8923\ngini = 0.324013981767\nsamples = 8295", shape="box"] ;
68 -> 69 ;
70 [label="mmc1_mass <= 113.8503\ngini = 0.288936312366\nsamples = 6653", shape="box"] ;
69 -> 70 ;
71 [label="dR_tau1_tau2 <= 1.3585\ngini = 0.387545114395\nsamples = 1484", shape="box"] ;
70 -> 71 ;
72 [label="tau_pt_ratio <= 1.7809\ngini = 0.317423130795\nsamples = 605", shape="box"] ;
71 -> 72 ;
73 [label="gini = 0.3878\nsamples = 290\nvalue = [ 0.00429692  0.01203467]", shape="box"] ;
72 -> 73 ;
74 [label="gini = 0.2338\nsamples = 315\nvalue = [ 0.00229603  0.01469366]", shape="box"] ;
72 -> 74 ;
75 [label="MET_centrality <= 0.8665\ngini = 0.419704014685\nsamples = 879", shape="box"] ;
71 -> 75 ;
76 [label="gini = 0.4785\nsamples = 170\nvalue = [ 0.00493839  0.00752544]", shape="box"] ;
75 -> 76 ;
77 [label="mmc1_mass <= 109.1831\ngini = 0.39760427934\nsamples = 709", shape="box"] ;
75 -> 77 ;
78 [label="gini = 0.4480\nsamples = 196\nvalue = [ 0.0043076   0.00840688]", shape="box"] ;
77 -> 78 ;
79 [label="MET_centrality <= 1.2406\ngini = 0.374230024767\nsamples = 513", shape="box"] ;
77 -> 79 ;
80 [label="gini = 0.4270\nsamples = 236\nvalue = [ 0.00503009  0.01124916]", shape="box"] ;
79 -> 80 ;
81 [label="gini = 0.3122\nsamples = 277\nvalue = [ 0.00338556  0.01410164]", shape="box"] ;
79 -> 81 ;
82 [label="dR_tau1_tau2 <= 1.5409\ngini = 0.24315908955\nsamples = 5169", shape="box"] ;
70 -> 82 ;
83 [label="MET_centrality <= 1.4019\ngini = 0.197555992806\nsamples = 3071", shape="box"] ;
82 -> 83 ;
84 [label="dR_tau1_tau2 <= 1.2771\ngini = 0.175346248768\nsamples = 2767", shape="box"] ;
83 -> 84 ;
85 [label="MET_centrality <= 0.9754\ngini = 0.128354780562\nsamples = 1468", shape="box"] ;
84 -> 85 ;
86 [label="gini = 0.1798\nsamples = 501\nvalue = [ 0.0023112   0.02083564]", shape="box"] ;
85 -> 86 ;
87 [label="tau_pt_ratio <= 1.3587\ngini = 0.0909289961162\nsamples = 967", shape="box"] ;
85 -> 87 ;
88 [label="gini = 0.1749\nsamples = 293\nvalue = [ 0.00112965  0.01053453]", shape="box"] ;
87 -> 88 ;
89 [label="gini = 0.0427\nsamples = 674\nvalue = [ 0.00048338  0.02163737]", shape="box"] ;
87 -> 89 ;
90 [label="mmc1_mass <= 118.8294\ngini = 0.219807366158\nsamples = 1299", shape="box"] ;
84 -> 90 ;
91 [label="gini = 0.3270\nsamples = 311\nvalue = [ 0.00305863  0.01179785]", shape="box"] ;
90 -> 91 ;
92 [label="tau_pt_ratio <= 1.9763\ngini = 0.174873845209\nsamples = 988", shape="box"] ;
90 -> 92 ;
93 [label="mmc1_mass <= 128.0034\ngini = 0.0967005307171\nsamples = 636", shape="box"] ;
92 -> 93 ;
94 [label="gini = 0.0325\nsamples = 327\nvalue = [ 0.00021494  0.0127765 ]", shape="box"] ;
93 -> 94 ;
95 [label="gini = 0.1567\nsamples = 309\nvalue = [ 0.00110237  0.01176345]", shape="box"] ;
93 -> 95 ;
96 [label="gini = 0.2875\nsamples = 352\nvalue = [ 0.00267303  0.01268852]", shape="box"] ;
92 -> 96 ;
97 [label="gini = 0.3187\nsamples = 304\nvalue = [ 0.00359113  0.0144617 ]", shape="box"] ;
83 -> 97 ;
98 [label="mmc1_mass <= 142.0181\ngini = 0.292390547928\nsamples = 2098", shape="box"] ;
82 -> 98 ;
99 [label="mmc1_mass <= 116.7134\ngini = 0.276076796345\nsamples = 1890", shape="box"] ;
98 -> 99 ;
100 [label="gini = 0.3836\nsamples = 239\nvalue = [ 0.00322125  0.00922949]", shape="box"] ;
99 -> 100 ;
101 [label="MET_centrality <= 0.8996\ngini = 0.257583247794\nsamples = 1651", shape="box"] ;
99 -> 101 ;
102 [label="gini = 0.3267\nsamples = 345\nvalue = [ 0.0036959   0.01427916]", shape="box"] ;
101 -> 102 ;
103 [label="tau_pt_ratio <= 1.1737\ngini = 0.237334289739\nsamples = 1306", shape="box"] ;
101 -> 103 ;
104 [label="gini = 0.1524\nsamples = 238\nvalue = [ 0.00109163  0.01204003]", shape="box"] ;
103 -> 104 ;
105 [label="sum_pt_full <= 225769.0938\ngini = 0.255951543795\nsamples = 1068", shape="box"] ;
103 -> 105 ;
106 [label="gini = 0.3417\nsamples = 229\nvalue = [ 0.00254579  0.00909609]", shape="box"] ;
105 -> 106 ;
107 [label="MET_centrality <= 1.3216\ngini = 0.229581994538\nsamples = 839", shape="box"] ;
105 -> 107 ;
108 [label="tau_pt_ratio <= 1.9001\ngini = 0.270233654606\nsamples = 539", shape="box"] ;
107 -> 108 ;
109 [label="gini = 0.3154\nsamples = 289\nvalue = [ 0.00322664  0.01322191]", shape="box"] ;
108 -> 109 ;
110 [label="gini = 0.2035\nsamples = 250\nvalue = [ 0.00144171  0.01109564]", shape="box"] ;
108 -> 110 ;
111 [label="gini = 0.1354\nsamples = 300\nvalue = [ 0.00102667  0.01303621]", shape="box"] ;
107 -> 111 ;
112 [label="gini = 0.4004\nsamples = 208\nvalue = [ 0.00341054  0.00890791]", shape="box"] ;
98 -> 112 ;
113 [label="sum_pt_full <= 303497.5625\ngini = 0.413028184853\nsamples = 1642", shape="box"] ;
69 -> 113 ;
114 [label="mmc1_mass <= 145.5348\ngini = 0.394841423095\nsamples = 1485", shape="box"] ;
113 -> 114 ;
115 [label="mmc1_mass <= 118.0718\ngini = 0.377163776145\nsamples = 1268", shape="box"] ;
114 -> 115 ;
116 [label="gini = 0.4495\nsamples = 312\nvalue = [ 0.00715159  0.01381937]", shape="box"] ;
115 -> 116 ;
117 [label="tau_pt_ratio <= 1.8146\ngini = 0.342815544986\nsamples = 956", shape="box"] ;
115 -> 117 ;
118 [label="MET_centrality <= 1.2932\ngini = 0.386345081824\nsamples = 530", shape="box"] ;
117 -> 118 ;
119 [label="gini = 0.4292\nsamples = 315\nvalue = [ 0.00613811  0.01354395]", shape="box"] ;
118 -> 119 ;
120 [label="gini = 0.3143\nsamples = 215\nvalue = [ 0.00291017  0.01199403]", shape="box"] ;
118 -> 120 ;
121 [label="gini = 0.2630\nsamples = 426\nvalue = [ 0.0035387   0.01917796]", shape="box"] ;
117 -> 121 ;
122 [label="gini = 0.4585\nsamples = 217\nvalue = [ 0.00604979  0.01094243]", shape="box"] ;
114 -> 122 ;
123 [label="gini = 0.4969\nsamples = 157\nvalue = [ 0.0053839   0.00629946]", shape="box"] ;
113 -> 123 ;
124 [label="gini = 0.3498\nsamples = 193\nvalue = [ 0.01053922  0.00307581]", shape="box"] ;
68 -> 124 ;
}