digraph Tree {
0 [label="mmc1_mass <= 98.6762\ngini = 0.499565078228\nsamples = 16266", shape="box"] ;
1 [label="mmc1_mass <= 93.5470\ngini = 0.294560578054\nsamples = 5687", shape="box"] ;
0 -> 1 ;
2 [label="mmc1_mass <= 82.0895\ngini = 0.23088021101\nsamples = 4640", shape="box"] ;
1 -> 2 ;
3 [label="sum_pt_full <= 343001.3750\ngini = 0.128082093625\nsamples = 2392", shape="box"] ;
2 -> 3 ;
4 [label="dR_tau1_tau2 <= 1.3838\ngini = 0.103031783761\nsamples = 2125", shape="box"] ;
3 -> 4 ;
5 [label="tau_pt_ratio <= 1.9738\ngini = 0.0651515940197\nsamples = 1706", shape="box"] ;
4 -> 5 ;
6 [label="dR_tau1_tau2 <= 1.2916\ngini = 0.0386977704874\nsamples = 1264", shape="box"] ;
5 -> 6 ;
7 [label="mmc1_mass <= 67.6108\ngini = 0.030906186059\nsamples = 1039", shape="box"] ;
6 -> 7 ;
8 [label="tau_pt_ratio <= 1.4081\ngini = 0.0502029072285\nsamples = 576", shape="box"] ;
7 -> 8 ;
9 [label="gini = 0.0158\nsamples = 303\nvalue = [ 0.01306707  0.00010488]", shape="box"] ;
8 -> 9 ;
10 [label="gini = 0.0834\nsamples = 273\nvalue = [ 0.0125575   0.00057281]", shape="box"] ;
8 -> 10 ;
11 [label="mmc1_mass <= 76.3734\ngini = 0.00920331358899\nsamples = 463", shape="box"] ;
7 -> 11 ;
12 [label="gini = 0.0006\nsamples = 250\nvalue = [  1.22596398e-02   3.62452246e-06]", shape="box"] ;
11 -> 12 ;
13 [label="gini = 0.0182\nsamples = 213\nvalue = [ 0.01153186  0.00010688]", shape="box"] ;
11 -> 13 ;
14 [label="gini = 0.0686\nsamples = 225\nvalue = [ 0.01234099  0.00045535]", shape="box"] ;
6 -> 14 ;
15 [label="mmc1_mass <= 73.4059\ngini = 0.118889023159\nsamples = 442", shape="box"] ;
5 -> 15 ;
16 [label="gini = 0.0463\nsamples = 245\nvalue = [ 0.01483018  0.00035984]", shape="box"] ;
15 -> 16 ;
17 [label="gini = 0.1887\nsamples = 197\nvalue = [ 0.01287313  0.00151776]", shape="box"] ;
15 -> 17 ;
18 [label="sum_pt_full <= 198736.6250\ngini = 0.214813974936\nsamples = 419", shape="box"] ;
4 -> 18 ;
19 [label="gini = 0.1473\nsamples = 253\nvalue = [ 0.01470293  0.00127917]", shape="box"] ;
18 -> 19 ;
20 [label="gini = 0.2916\nsamples = 166\nvalue = [ 0.0101533   0.00218708]", shape="box"] ;
18 -> 20 ;
21 [label="gini = 0.2685\nsamples = 267\nvalue = [ 0.01594094  0.00303201]", shape="box"] ;
3 -> 21 ;
22 [label="tau_pt_ratio <= 2.6169\ngini = 0.304102183423\nsamples = 2248", shape="box"] ;
2 -> 22 ;
23 [label="dR_tau1_tau2 <= 1.3662\ngini = 0.268667531052\nsamples = 1814", shape="box"] ;
22 -> 23 ;
24 [label="mmc1_mass <= 90.8086\ngini = 0.190378777649\nsamples = 888", shape="box"] ;
23 -> 24 ;
25 [label="dR_tau1_tau2 <= 1.1245\ngini = 0.146902277238\nsamples = 679", shape="box"] ;
24 -> 25 ;
26 [label="gini = 0.0469\nsamples = 262\nvalue = [ 0.01878443  0.00046291]", shape="box"] ;
25 -> 26 ;
27 [label="dR_tau1_tau2 <= 1.2552\ngini = 0.199261061647\nsamples = 417", shape="box"] ;
25 -> 27 ;
28 [label="gini = 0.2881\nsamples = 185\nvalue = [ 0.01311532  0.00277207]", shape="box"] ;
27 -> 28 ;
29 [label="gini = 0.1037\nsamples = 232\nvalue = [ 0.0162961   0.00094588]", shape="box"] ;
27 -> 29 ;
30 [label="gini = 0.3076\nsamples = 209\nvalue = [ 0.01360387  0.00318842]", shape="box"] ;
24 -> 30 ;
31 [label="sum_pt_full <= 217800.1250\ngini = 0.33728867165\nsamples = 926", shape="box"] ;
23 -> 31 ;
32 [label="tau_pt_ratio <= 1.7090\ngini = 0.274577897409\nsamples = 618", shape="box"] ;
31 -> 32 ;
33 [label="sum_pt_full <= 192177.2344\ngini = 0.214092001104\nsamples = 415", shape="box"] ;
32 -> 33 ;
34 [label="gini = 0.2760\nsamples = 219\nvalue = [ 0.01350361  0.00267472]", shape="box"] ;
33 -> 34 ;
35 [label="gini = 0.1329\nsamples = 196\nvalue = [ 0.01295839  0.00099906]", shape="box"] ;
33 -> 35 ;
36 [label="gini = 0.3787\nsamples = 203\nvalue = [ 0.01065474  0.00362213]", shape="box"] ;
32 -> 36 ;
37 [label="gini = 0.4300\nsamples = 308\nvalue = [ 0.01570617  0.00715188]", shape="box"] ;
31 -> 37 ;
38 [label="MET_centrality <= 1.2971\ngini = 0.425556219177\nsamples = 434", shape="box"] ;
22 -> 38 ;
39 [label="gini = 0.3539\nsamples = 291\nvalue = [ 0.01476284  0.00440214]", shape="box"] ;
38 -> 39 ;
40 [label="gini = 0.4913\nsamples = 143\nvalue = [ 0.00660459  0.00506679]", shape="box"] ;
38 -> 40 ;
41 [label="tau_pt_ratio <= 2.4097\ngini = 0.454392833987\nsamples = 1047", shape="box"] ;
1 -> 41 ;
42 [label="MET_centrality <= 0.8580\ngini = 0.429045880103\nsamples = 794", shape="box"] ;
41 -> 42 ;
43 [label="gini = 0.2453\nsamples = 176\nvalue = [ 0.01088962  0.0018191 ]", shape="box"] ;
42 -> 43 ;
44 [label="sum_pt_full <= 276608.1562\ngini = 0.456698060743\nsamples = 618", shape="box"] ;
42 -> 44 ;
45 [label="MET_centrality <= 1.3147\ngini = 0.479070537194\nsamples = 429", shape="box"] ;
44 -> 45 ;
46 [label="gini = 0.4604\nsamples = 258\nvalue = [ 0.01449987  0.00813069]", shape="box"] ;
45 -> 46 ;
47 [label="gini = 0.4969\nsamples = 171\nvalue = [ 0.00745732  0.00636785]", shape="box"] ;
45 -> 47 ;
48 [label="gini = 0.3724\nsamples = 189\nvalue = [ 0.01167167  0.00383773]", shape="box"] ;
44 -> 48 ;
49 [label="gini = 0.4987\nsamples = 253\nvalue = [ 0.01013406  0.00914265]", shape="box"] ;
41 -> 49 ;
50 [label="mmc1_mass <= 106.7824\ngini = 0.394126354778\nsamples = 10579", shape="box"] ;
0 -> 50 ;
51 [label="mmc1_mass <= 102.9595\ngini = 0.492280968909\nsamples = 1893", shape="box"] ;
50 -> 51 ;
52 [label="dR_tau1_tau2 <= 1.1282\ngini = 0.49997375379\nsamples = 970", shape="box"] ;
51 -> 52 ;
53 [label="gini = 0.4664\nsamples = 171\nvalue = [ 0.00741923  0.00436423]", shape="box"] ;
52 -> 53 ;
54 [label="sum_pt_full <= 306507.2812\ngini = 0.499154355755\nsamples = 799", shape="box"] ;
52 -> 54 ;
55 [label="dR_tau1_tau2 <= 1.4909\ngini = 0.498896036719\nsamples = 658", shape="box"] ;
54 -> 55 ;
56 [label="gini = 0.4799\nsamples = 208\nvalue = [ 0.00990097  0.00659472]", shape="box"] ;
55 -> 56 ;
57 [label="tau_pt_ratio <= 1.5467\ngini = 0.499535687908\nsamples = 450", shape="box"] ;
55 -> 57 ;
58 [label="gini = 0.4917\nsamples = 178\nvalue = [ 0.00796582  0.00615155]", shape="box"] ;
57 -> 58 ;
59 [label="gini = 0.4885\nsamples = 272\nvalue = [ 0.00787424  0.01068426]", shape="box"] ;
57 -> 59 ;
60 [label="gini = 0.4217\nsamples = 141\nvalue = [ 0.00369331  0.00852863]", shape="box"] ;
54 -> 60 ;
61 [label="MET_centrality <= 1.1474\ngini = 0.464516939941\nsamples = 923", shape="box"] ;
51 -> 61 ;
62 [label="tau_pt_ratio <= 1.7761\ngini = 0.495961193978\nsamples = 417", shape="box"] ;
61 -> 62 ;
63 [label="gini = 0.4934\nsamples = 187\nvalue = [ 0.00784021  0.00622856]", shape="box"] ;
62 -> 63 ;
64 [label="gini = 0.4650\nsamples = 230\nvalue = [ 0.00605305  0.01040864]", shape="box"] ;
62 -> 64 ;
65 [label="dR_tau1_tau2 <= 1.5240\ngini = 0.415372539524\nsamples = 506", shape="box"] ;
61 -> 65 ;
66 [label="gini = 0.3649\nsamples = 268\nvalue = [ 0.00489689  0.01550049]", shape="box"] ;
65 -> 66 ;
67 [label="gini = 0.4609\nsamples = 238\nvalue = [ 0.00604038  0.0107263 ]", shape="box"] ;
65 -> 67 ;
68 [label="mmc1_mass <= 167.4577\ngini = 0.34249017394\nsamples = 8686", shape="box"] ;
50 -> 68 ;
69 [label="dR_tau1_tau2 <= 1.8923\ngini = 0.323974616591\nsamples = 8510", shape="box"] ;
68 -> 69 ;
70 [label="mmc1_mass <= 113.8503\ngini = 0.290159246979\nsamples = 6839", shape="box"] ;
69 -> 70 ;
71 [label="sum_pt_full <= 212618.8125\ngini = 0.391166641626\nsamples = 1664", shape="box"] ;
70 -> 71 ;
72 [label="gini = 0.4793\nsamples = 213\nvalue = [ 0.00551751  0.00833523]", shape="box"] ;
71 -> 72 ;
73 [label="dR_tau1_tau2 <= 1.2964\ngini = 0.371417200374\nsamples = 1451", shape="box"] ;
71 -> 73 ;
74 [label="mmc1_mass <= 110.8851\ngini = 0.311692909172\nsamples = 577", shape="box"] ;
73 -> 74 ;
75 [label="gini = 0.3512\nsamples = 321\nvalue = [ 0.00443701  0.01508797]", shape="box"] ;
74 -> 75 ;
76 [label="gini = 0.2425\nsamples = 256\nvalue = [ 0.00180839  0.01100015]", shape="box"] ;
74 -> 76 ;
77 [label="dR_tau1_tau2 <= 1.5652\ngini = 0.400001464905\nsamples = 874", shape="box"] ;
73 -> 77 ;
78 [label="sum_pt_full <= 262991.1250\ngini = 0.428526257046\nsamples = 484", shape="box"] ;
77 -> 78 ;
79 [label="gini = 0.4733\nsamples = 189\nvalue = [ 0.00525954  0.0084187 ]", shape="box"] ;
78 -> 79 ;
80 [label="gini = 0.3814\nsamples = 295\nvalue = [ 0.00473255  0.01372246]", shape="box"] ;
78 -> 80 ;
81 [label="dR_tau1_tau2 <= 1.6866\ngini = 0.357050293703\nsamples = 390", shape="box"] ;
77 -> 81 ;
82 [label="gini = 0.2635\nsamples = 181\nvalue = [ 0.0019953   0.01078553]", shape="box"] ;
81 -> 82 ;
83 [label="gini = 0.4280\nsamples = 209\nvalue = [ 0.00391175  0.00869745]", shape="box"] ;
81 -> 83 ;
84 [label="dR_tau1_tau2 <= 1.5409\ngini = 0.237023831584\nsamples = 5175", shape="box"] ;
70 -> 84 ;
85 [label="MET_centrality <= 1.4019\ngini = 0.191919727138\nsamples = 3073", shape="box"] ;
84 -> 85 ;
86 [label="dR_tau1_tau2 <= 1.2771\ngini = 0.170150459757\nsamples = 2769", shape="box"] ;
85 -> 86 ;
87 [label="MET_centrality <= 0.9754\ngini = 0.122799055721\nsamples = 1469", shape="box"] ;
86 -> 87 ;
88 [label="MET_centrality <= 0.6714\ngini = 0.172629056509\nsamples = 502", shape="box"] ;
87 -> 88 ;
89 [label="gini = 0.1070\nsamples = 220\nvalue = [ 0.00066662  0.01108454]", shape="box"] ;
88 -> 89 ;
90 [label="gini = 0.2328\nsamples = 282\nvalue = [ 0.00156598  0.0100806 ]", shape="box"] ;
88 -> 90 ;
91 [label="tau_pt_ratio <= 1.3481\ngini = 0.0867503623221\nsamples = 967", shape="box"] ;
87 -> 91 ;
92 [label="gini = 0.1699\nsamples = 289\nvalue = [ 0.0010917   0.01055333]", shape="box"] ;
91 -> 92 ;
93 [label="gini = 0.0403\nsamples = 678\nvalue = [ 0.00046551  0.02215906]", shape="box"] ;
91 -> 93 ;
94 [label="tau_pt_ratio <= 1.9763\ngini = 0.215219380789\nsamples = 1300", shape="box"] ;
86 -> 94 ;
95 [label="mmc1_mass <= 120.3050\ngini = 0.159728748347\nsamples = 843", shape="box"] ;
94 -> 95 ;
96 [label="gini = 0.2706\nsamples = 253\nvalue = [ 0.00190491  0.00990162]", shape="box"] ;
95 -> 96 ;
97 [label="tau_pt_ratio <= 1.3914\ngini = 0.0983713076167\nsamples = 590", shape="box"] ;
95 -> 97 ;
98 [label="gini = 0.0502\nsamples = 323\nvalue = [ 0.00030603  0.01157367]", shape="box"] ;
97 -> 98 ;
99 [label="gini = 0.1414\nsamples = 267\nvalue = [ 0.00096228  0.0116064 ]", shape="box"] ;
97 -> 99 ;
100 [label="gini = 0.3023\nsamples = 457\nvalue = [ 0.00375465  0.01647358]", shape="box"] ;
94 -> 100 ;
101 [label="gini = 0.3124\nsamples = 304\nvalue = [ 0.00349549  0.0145442 ]", shape="box"] ;
85 -> 101 ;
102 [label="sum_pt_full <= 345965.1250\ngini = 0.28620174889\nsamples = 2102", shape="box"] ;
84 -> 102 ;
103 [label="MET_centrality <= 0.9264\ngini = 0.269856258248\nsamples = 1890", shape="box"] ;
102 -> 103 ;
104 [label="gini = 0.3467\nsamples = 419\nvalue = [ 0.00502698  0.01749909]", shape="box"] ;
103 -> 104 ;
105 [label="mmc1_mass <= 117.4571\ngini = 0.243892398322\nsamples = 1471", shape="box"] ;
103 -> 105 ;
106 [label="gini = 0.3209\nsamples = 240\nvalue = [ 0.00242572  0.00965595]", shape="box"] ;
105 -> 106 ;
107 [label="tau_pt_ratio <= 2.0462\ngini = 0.227646164336\nsamples = 1231", shape="box"] ;
105 -> 107 ;
108 [label="tau_pt_ratio <= 1.1553\ngini = 0.257694613693\nsamples = 926", shape="box"] ;
107 -> 108 ;
109 [label="gini = 0.1500\nsamples = 211\nvalue = [ 0.00098451  0.0110671 ]", shape="box"] ;
108 -> 109 ;
110 [label="sum_pt_full <= 252264.3125\ngini = 0.289509868563\nsamples = 715", shape="box"] ;
108 -> 110 ;
111 [label="gini = 0.2567\nsamples = 419\nvalue = [ 0.00329857  0.01851112]", shape="box"] ;
110 -> 111 ;
112 [label="gini = 0.3359\nsamples = 296\nvalue = [ 0.0029847   0.01099039]", shape="box"] ;
110 -> 112 ;
113 [label="gini = 0.1241\nsamples = 305\nvalue = [ 0.00103309  0.01450644]", shape="box"] ;
107 -> 113 ;
114 [label="gini = 0.3918\nsamples = 212\nvalue = [ 0.00340585  0.00932934]", shape="box"] ;
102 -> 114 ;
115 [label="sum_pt_full <= 303497.5625\ngini = 0.411891485961\nsamples = 1671", shape="box"] ;
69 -> 115 ;
116 [label="mmc1_mass <= 145.5348\ngini = 0.39372403364\nsamples = 1510", shape="box"] ;
115 -> 116 ;
117 [label="mmc1_mass <= 118.0718\ngini = 0.374945641675\nsamples = 1285", shape="box"] ;
116 -> 117 ;
118 [label="gini = 0.4464\nsamples = 329\nvalue = [ 0.00765253  0.01510606]", shape="box"] ;
117 -> 118 ;
119 [label="tau_pt_ratio <= 1.8146\ngini = 0.338134798342\nsamples = 956", shape="box"] ;
117 -> 119 ;
120 [label="MET_centrality <= 1.2932\ngini = 0.382376133687\nsamples = 530", shape="box"] ;
119 -> 120 ;
121 [label="gini = 0.4263\nsamples = 315\nvalue = [ 0.00600959  0.01350065]", shape="box"] ;
120 -> 121 ;
122 [label="gini = 0.3092\nsamples = 215\nvalue = [ 0.00283961  0.01201753]", shape="box"] ;
120 -> 122 ;
123 [label="gini = 0.2576\nsamples = 426\nvalue = [ 0.00344435  0.01923134]", shape="box"] ;
119 -> 123 ;
124 [label="gini = 0.4606\nsamples = 225\nvalue = [ 0.00621869  0.01107204]", shape="box"] ;
116 -> 124 ;
125 [label="gini = 0.4969\nsamples = 161\nvalue = [ 0.00540605  0.00632557]", shape="box"] ;
115 -> 125 ;
126 [label="gini = 0.3202\nsamples = 176\nvalue = [ 0.01006376  0.00251864]", shape="box"] ;
68 -> 126 ;
}