digraph Tree {
0 [label="mmc1_mass <= 98.6762\ngini = 0.499451826774\nsamples = 16266", shape="box"] ;
1 [label="mmc1_mass <= 85.1296\ngini = 0.316130916024\nsamples = 5687", shape="box"] ;
0 -> 1 ;
2 [label="tau_pt_ratio <= 3.2851\ngini = 0.176711042919\nsamples = 2924", shape="box"] ;
1 -> 2 ;
3 [label="dR_tau1_tau2 <= 1.3838\ngini = 0.154844604364\nsamples = 2772", shape="box"] ;
2 -> 3 ;
4 [label="sum_pt_full <= 328252.8125\ngini = 0.114904430366\nsamples = 2114", shape="box"] ;
3 -> 4 ;
5 [label="mmc1_mass <= 78.9567\ngini = 0.0845821634047\nsamples = 1839", shape="box"] ;
4 -> 5 ;
6 [label="tau_pt_ratio <= 1.4081\ngini = 0.0540884112828\nsamples = 1399", shape="box"] ;
5 -> 6 ;
7 [label="dR_tau1_tau2 <= 1.1450\ngini = 0.0199094499202\nsamples = 567", shape="box"] ;
6 -> 7 ;
8 [label="gini = 0.0001\nsamples = 331\nvalue = [  1.17055428e-02   3.36604263e-07]", shape="box"] ;
7 -> 8 ;
9 [label="gini = 0.0395\nsamples = 236\nvalue = [ 0.01140728  0.00023444]", shape="box"] ;
7 -> 9 ;
10 [label="mmc1_mass <= 65.4633\ngini = 0.0724743629438\nsamples = 832", shape="box"] ;
6 -> 10 ;
11 [label="gini = 0.1006\nsamples = 365\nvalue = [ 0.01692988  0.00095027]", shape="box"] ;
10 -> 11 ;
12 [label="dR_tau1_tau2 <= 1.2110\ngini = 0.0511132712522\nsamples = 467", shape="box"] ;
10 -> 12 ;
13 [label="gini = 0.0288\nsamples = 242\nvalue = [ 0.01244874  0.00018493]", shape="box"] ;
12 -> 13 ;
14 [label="gini = 0.0747\nsamples = 225\nvalue = [ 0.01119144  0.00045224]", shape="box"] ;
12 -> 14 ;
15 [label="dR_tau1_tau2 <= 1.1801\ngini = 0.150809326734\nsamples = 440", shape="box"] ;
5 -> 15 ;
16 [label="gini = 0.2200\nsamples = 178\nvalue = [ 0.01017206  0.00146464]", shape="box"] ;
15 -> 16 ;
17 [label="gini = 0.0982\nsamples = 262\nvalue = [ 0.01589033  0.00086814]", shape="box"] ;
15 -> 17 ;
18 [label="gini = 0.2431\nsamples = 275\nvalue = [ 0.01698598  0.00280245]", shape="box"] ;
4 -> 18 ;
19 [label="sum_pt_full <= 214826.7656\ngini = 0.248074051458\nsamples = 658", shape="box"] ;
3 -> 19 ;
20 [label="MET_centrality <= 1.2976\ngini = 0.186225469579\nsamples = 453", shape="box"] ;
19 -> 20 ;
21 [label="gini = 0.0470\nsamples = 247\nvalue = [ 0.01388975  0.00034252]", shape="box"] ;
20 -> 21 ;
22 [label="gini = 0.2970\nsamples = 206\nvalue = [ 0.01199814  0.00265942]", shape="box"] ;
20 -> 22 ;
23 [label="gini = 0.3479\nsamples = 205\nvalue = [ 0.01166153  0.00337058]", shape="box"] ;
19 -> 23 ;
24 [label="gini = 0.4023\nsamples = 152\nvalue = [ 0.0083937   0.00324827]", shape="box"] ;
2 -> 24 ;
25 [label="mmc1_mass <= 94.7379\ngini = 0.398318266367\nsamples = 2763", shape="box"] ;
1 -> 25 ;
26 [label="MET_centrality <= 1.2116\ngini = 0.352330123074\nsamples = 1960", shape="box"] ;
25 -> 26 ;
27 [label="tau_pt_ratio <= 2.5743\ngini = 0.262782413136\nsamples = 1098", shape="box"] ;
26 -> 27 ;
28 [label="mmc1_mass <= 90.2857\ngini = 0.226943122529\nsamples = 874", shape="box"] ;
27 -> 28 ;
29 [label="dR_tau1_tau2 <= 1.3306\ngini = 0.139856809359\nsamples = 433", shape="box"] ;
28 -> 29 ;
30 [label="gini = 0.0995\nsamples = 199\nvalue = [ 0.01341802  0.00074368]", shape="box"] ;
29 -> 30 ;
31 [label="gini = 0.1760\nsamples = 234\nvalue = [ 0.01353048  0.00146187]", shape="box"] ;
29 -> 31 ;
32 [label="MET_centrality <= 0.8561\ngini = 0.293606045257\nsamples = 441", shape="box"] ;
28 -> 32 ;
33 [label="gini = 0.1578\nsamples = 180\nvalue = [ 0.01179573  0.00111455]", shape="box"] ;
32 -> 33 ;
34 [label="gini = 0.3624\nsamples = 261\nvalue = [ 0.01541967  0.00480934]", shape="box"] ;
32 -> 34 ;
35 [label="gini = 0.3855\nsamples = 224\nvalue = [ 0.01099342  0.00387763]", shape="box"] ;
27 -> 35 ;
36 [label="tau_pt_ratio <= 2.3707\ngini = 0.423937413945\nsamples = 862", shape="box"] ;
26 -> 36 ;
37 [label="dR_tau1_tau2 <= 1.2168\ngini = 0.388135972316\nsamples = 647", shape="box"] ;
36 -> 37 ;
38 [label="gini = 0.1578\nsamples = 166\nvalue = [ 0.01237415  0.00116988]", shape="box"] ;
37 -> 38 ;
39 [label="MET_centrality <= 1.3298\ngini = 0.435237665689\nsamples = 481", shape="box"] ;
37 -> 39 ;
40 [label="gini = 0.4798\nsamples = 184\nvalue = [ 0.01000922  0.00665765]", shape="box"] ;
39 -> 40 ;
41 [label="MET_centrality <= 1.3969\ngini = 0.392970021921\nsamples = 297", shape="box"] ;
39 -> 41 ;
42 [label="gini = 0.2998\nsamples = 173\nvalue = [ 0.01120989  0.00252178]", shape="box"] ;
41 -> 42 ;
43 [label="gini = 0.4640\nsamples = 124\nvalue = [ 0.00762482  0.00439745]", shape="box"] ;
41 -> 43 ;
44 [label="gini = 0.4929\nsamples = 215\nvalue = [ 0.0095884   0.00754791]", shape="box"] ;
36 -> 44 ;
45 [label="tau_pt_ratio <= 2.4095\ngini = 0.471910342914\nsamples = 803", shape="box"] ;
25 -> 45 ;
46 [label="MET_centrality <= 0.9346\ngini = 0.453305548398\nsamples = 608", shape="box"] ;
45 -> 46 ;
47 [label="gini = 0.3742\nsamples = 169\nvalue = [ 0.00929785  0.00308583]", shape="box"] ;
46 -> 47 ;
48 [label="sum_pt_full <= 229869.9531\ngini = 0.471294289214\nsamples = 439", shape="box"] ;
46 -> 48 ;
49 [label="gini = 0.4925\nsamples = 198\nvalue = [ 0.0100975   0.00789144]", shape="box"] ;
48 -> 49 ;
50 [label="gini = 0.4382\nsamples = 241\nvalue = [ 0.01270398  0.00609532]", shape="box"] ;
48 -> 50 ;
51 [label="gini = 0.4997\nsamples = 195\nvalue = [ 0.00808271  0.00771115]", shape="box"] ;
45 -> 51 ;
52 [label="mmc1_mass <= 107.4545\ngini = 0.406431879954\nsamples = 10579", shape="box"] ;
0 -> 52 ;
53 [label="mmc1_mass <= 102.9595\ngini = 0.490882734677\nsamples = 2091", shape="box"] ;
52 -> 53 ;
54 [label="dR_tau1_tau2 <= 1.1282\ngini = 0.49998048409\nsamples = 970", shape="box"] ;
53 -> 54 ;
55 [label="gini = 0.4706\nsamples = 171\nvalue = [ 0.00759178  0.0046284 ]", shape="box"] ;
54 -> 55 ;
56 [label="sum_pt_full <= 309855.5938\ngini = 0.499237002487\nsamples = 799", shape="box"] ;
54 -> 56 ;
57 [label="tau_pt_ratio <= 1.5479\ngini = 0.499093436353\nsamples = 667", shape="box"] ;
56 -> 57 ;
58 [label="gini = 0.4868\nsamples = 274\nvalue = [ 0.01332584  0.00960434]", shape="box"] ;
57 -> 58 ;
59 [label="tau_pt_ratio <= 2.0890\ngini = 0.49865820077\nsamples = 393", shape="box"] ;
57 -> 59 ;
60 [label="gini = 0.4826\nsamples = 188\nvalue = [ 0.00662398  0.00966395]", shape="box"] ;
59 -> 60 ;
61 [label="gini = 0.4928\nsamples = 205\nvalue = [ 0.0071649   0.00563161]", shape="box"] ;
59 -> 61 ;
62 [label="gini = 0.4192\nsamples = 132\nvalue = [ 0.00349842  0.00820222]", shape="box"] ;
56 -> 62 ;
63 [label="MET_centrality <= 1.1474\ngini = 0.465609355757\nsamples = 1121", shape="box"] ;
53 -> 63 ;
64 [label="dR_tau1_tau2 <= 1.4770\ngini = 0.494120565168\nsamples = 496", shape="box"] ;
63 -> 64 ;
65 [label="gini = 0.4698\nsamples = 281\nvalue = [ 0.00871144  0.01439054]", shape="box"] ;
64 -> 65 ;
66 [label="gini = 0.4942\nsamples = 215\nvalue = [ 0.00814596  0.00656751]", shape="box"] ;
64 -> 66 ;
67 [label="sum_pt_full <= 305864.7812\ngini = 0.424987312548\nsamples = 625", shape="box"] ;
63 -> 67 ;
68 [label="sum_pt_full <= 238572.5156\ngini = 0.448472298902\nsamples = 450", shape="box"] ;
67 -> 68 ;
69 [label="gini = 0.4233\nsamples = 256\nvalue = [ 0.00622522  0.01423717]", shape="box"] ;
68 -> 69 ;
70 [label="gini = 0.4799\nsamples = 194\nvalue = [ 0.00478305  0.00718058]", shape="box"] ;
68 -> 70 ;
71 [label="gini = 0.3542\nsamples = 175\nvalue = [ 0.00323919  0.01084428]", shape="box"] ;
67 -> 71 ;
72 [label="mmc1_mass <= 164.9010\ngini = 0.355633199327\nsamples = 8488", shape="box"] ;
52 -> 72 ;
73 [label="dR_tau1_tau2 <= 1.8923\ngini = 0.337207627436\nsamples = 8295", shape="box"] ;
72 -> 73 ;
74 [label="mmc1_mass <= 113.8503\ngini = 0.303621363284\nsamples = 6653", shape="box"] ;
73 -> 74 ;
75 [label="dR_tau1_tau2 <= 1.3585\ngini = 0.396995167625\nsamples = 1484", shape="box"] ;
74 -> 75 ;
76 [label="tau_pt_ratio <= 1.7809\ngini = 0.330130199946\nsamples = 605", shape="box"] ;
75 -> 76 ;
77 [label="gini = 0.3970\nsamples = 290\nvalue = [ 0.00453087  0.01205862]", shape="box"] ;
76 -> 77 ;
78 [label="gini = 0.2484\nsamples = 315\nvalue = [ 0.00246199  0.01447714]", shape="box"] ;
76 -> 78 ;
79 [label="MET_centrality <= 0.8665\ngini = 0.427119658017\nsamples = 879", shape="box"] ;
75 -> 79 ;
80 [label="gini = 0.4820\nsamples = 170\nvalue = [ 0.00516515  0.00758798]", shape="box"] ;
79 -> 80 ;
81 [label="mmc1_mass <= 109.1517\ngini = 0.406006580017\nsamples = 709", shape="box"] ;
79 -> 81 ;
82 [label="gini = 0.4545\nsamples = 190\nvalue = [ 0.00438661  0.00817833]", shape="box"] ;
81 -> 82 ;
83 [label="MET_centrality <= 1.2406\ngini = 0.384153573944\nsamples = 519", shape="box"] ;
81 -> 83 ;
84 [label="gini = 0.4308\nsamples = 238\nvalue = [ 0.00527389  0.01152164]", shape="box"] ;
83 -> 84 ;
85 [label="gini = 0.3294\nsamples = 281\nvalue = [ 0.00371658  0.01415626]", shape="box"] ;
83 -> 85 ;
86 [label="dR_tau1_tau2 <= 1.5409\ngini = 0.259003170308\nsamples = 5169", shape="box"] ;
74 -> 86 ;
87 [label="MET_centrality <= 1.4019\ngini = 0.213774795669\nsamples = 3071", shape="box"] ;
86 -> 87 ;
88 [label="dR_tau1_tau2 <= 1.1788\ngini = 0.191187632037\nsamples = 2767", shape="box"] ;
87 -> 88 ;
89 [label="MET_centrality <= 1.2112\ngini = 0.123148862255\nsamples = 1062", shape="box"] ;
88 -> 89 ;
90 [label="tau_pt_ratio <= 1.7563\ngini = 0.176412541392\nsamples = 664", shape="box"] ;
89 -> 90 ;
91 [label="gini = 0.2322\nsamples = 371\nvalue = [ 0.00181454  0.01171976]", shape="box"] ;
90 -> 91 ;
92 [label="gini = 0.1091\nsamples = 293\nvalue = [ 0.00071436  0.01161864]", shape="box"] ;
90 -> 92 ;
93 [label="gini = 0.0000\nsamples = 398\nvalue = [ 0.          0.01249584]", shape="box"] ;
89 -> 93 ;
94 [label="tau_pt_ratio <= 1.9763\ngini = 0.224650959102\nsamples = 1705", shape="box"] ;
88 -> 94 ;
95 [label="mmc1_mass <= 119.3878\ngini = 0.175059486671\nsamples = 1099", shape="box"] ;
94 -> 95 ;
96 [label="gini = 0.2762\nsamples = 292\nvalue = [ 0.00225506  0.01137012]", shape="box"] ;
95 -> 96 ;
97 [label="tau_pt_ratio <= 1.3258\ngini = 0.124394666161\nsamples = 807", shape="box"] ;
95 -> 97 ;
98 [label="gini = 0.0388\nsamples = 380\nvalue = [ 0.0002559   0.01265959]", shape="box"] ;
97 -> 98 ;
99 [label="gini = 0.1806\nsamples = 427\nvalue = [ 0.00180016  0.01613856]", shape="box"] ;
97 -> 99 ;
100 [label="tau_pt_ratio <= 2.8040\ngini = 0.295990921365\nsamples = 606", shape="box"] ;
94 -> 100 ;
101 [label="gini = 0.3666\nsamples = 355\nvalue = [ 0.0037621   0.01180348]", shape="box"] ;
100 -> 101 ;
102 [label="gini = 0.1823\nsamples = 251\nvalue = [ 0.00121875  0.01079232]", shape="box"] ;
100 -> 102 ;
103 [label="gini = 0.3328\nsamples = 304\nvalue = [ 0.00382474  0.01431729]", shape="box"] ;
87 -> 103 ;
104 [label="sum_pt_full <= 345965.1250\ngini = 0.306661073186\nsamples = 2098", shape="box"] ;
86 -> 104 ;
105 [label="MET_centrality <= 0.9264\ngini = 0.290159198051\nsamples = 1887", shape="box"] ;
104 -> 105 ;
106 [label="gini = 0.3633\nsamples = 418\nvalue = [ 0.00544951  0.01739503]", shape="box"] ;
105 -> 106 ;
107 [label="tau_pt_ratio <= 1.1670\ngini = 0.264759492968\nsamples = 1469", shape="box"] ;
105 -> 107 ;
108 [label="gini = 0.1832\nsamples = 274\nvalue = [ 0.00150186  0.01322541]", shape="box"] ;
107 -> 108 ;
109 [label="sum_pt_full <= 291420.8125\ngini = 0.282876177957\nsamples = 1195", shape="box"] ;
107 -> 109 ;
110 [label="sum_pt_full <= 249095.0156\ngini = 0.308293107806\nsamples = 971", shape="box"] ;
109 -> 110 ;
111 [label="sum_pt_full <= 222378.4062\ngini = 0.259290179851\nsamples = 579", shape="box"] ;
110 -> 111 ;
112 [label="gini = 0.3587\nsamples = 254\nvalue = [ 0.00311747  0.01019219]", shape="box"] ;
111 -> 112 ;
113 [label="gini = 0.1564\nsamples = 325\nvalue = [ 0.00136799  0.01462414]", shape="box"] ;
111 -> 113 ;
114 [label="gini = 0.3758\nsamples = 392\nvalue = [ 0.00453978  0.01356039]", shape="box"] ;
110 -> 114 ;
115 [label="gini = 0.1750\nsamples = 224\nvalue = [ 0.00123967  0.01155861]", shape="box"] ;
109 -> 115 ;
116 [label="gini = 0.4098\nsamples = 211\nvalue = [ 0.00371031  0.00919175]", shape="box"] ;
104 -> 116 ;
117 [label="sum_pt_full <= 303497.5625\ngini = 0.420439877156\nsamples = 1642", shape="box"] ;
73 -> 117 ;
118 [label="MET_centrality <= 1.4044\ngini = 0.403555491148\nsamples = 1485", shape="box"] ;
117 -> 118 ;
119 [label="MET_centrality <= 0.7813\ngini = 0.389440739873\nsamples = 1306", shape="box"] ;
118 -> 119 ;
120 [label="gini = 0.4598\nsamples = 167\nvalue = [ 0.00417235  0.00747537]", shape="box"] ;
119 -> 120 ;
121 [label="sum_pt_full <= 256710.5938\ngini = 0.374815302723\nsamples = 1139", shape="box"] ;
119 -> 121 ;
122 [label="sum_pt_full <= 230534.9062\ngini = 0.356872574015\nsamples = 959", shape="box"] ;
121 -> 122 ;
123 [label="tau_pt_ratio <= 1.8699\ngini = 0.379716296273\nsamples = 743", shape="box"] ;
122 -> 123 ;
124 [label="dR_tau1_tau2 <= 2.0524\ngini = 0.343459367576\nsamples = 498", shape="box"] ;
123 -> 124 ;
125 [label="gini = 0.3905\nsamples = 254\nvalue = [ 0.00386201  0.01065679]", shape="box"] ;
124 -> 125 ;
126 [label="gini = 0.2974\nsamples = 244\nvalue = [ 0.00313393  0.01411353]", shape="box"] ;
124 -> 126 ;
127 [label="gini = 0.4432\nsamples = 245\nvalue = [ 0.0047368   0.00955073]", shape="box"] ;
123 -> 127 ;
128 [label="gini = 0.2695\nsamples = 216\nvalue = [ 0.00228749  0.01196438]", shape="box"] ;
122 -> 128 ;
129 [label="gini = 0.4476\nsamples = 180\nvalue = [ 0.00400182  0.00783396]", shape="box"] ;
121 -> 129 ;
130 [label="gini = 0.4717\nsamples = 179\nvalue = [ 0.00492289  0.00799573]", shape="box"] ;
118 -> 130 ;
131 [label="gini = 0.4972\nsamples = 157\nvalue = [ 0.00556025  0.00645752]", shape="box"] ;
117 -> 131 ;
132 [label="gini = 0.3605\nsamples = 193\nvalue = [ 0.01052964  0.00325016]", shape="box"] ;
72 -> 132 ;
}