digraph Tree {
0 [label="vector_sum_pt <= 66614.2969\ngini = 0.499999999079\nsamples = 12272", shape="box"] ;
1 [label="mmc1_mass <= 109.3860\ngini = 0.499907330817\nsamples = 11640", shape="box"] ;
0 -> 1 ;
2 [label="vector_sum_pt <= 27478.1523\ngini = 0.499624812445\nsamples = 4818", shape="box"] ;
1 -> 2 ;
3 [label="MET_centrality <= 0.9935\ngini = 0.497426761025\nsamples = 3542", shape="box"] ;
2 -> 3 ;
4 [label="gini = 0.4731\nsamples = 923\nvalue = [ 0.0663299   0.04136364]", shape="box"] ;
3 -> 4 ;
5 [label="tau1_centrality <= 0.8201\ngini = 0.499967197977\nsamples = 2619", shape="box"] ;
3 -> 5 ;
6 [label="gini = 0.4959\nsamples = 1113\nvalue = [ 0.08329493  0.06941703]", shape="box"] ;
5 -> 6 ;
7 [label="gini = 0.4951\nsamples = 1506\nvalue = [ 0.05325648  0.06494012]", shape="box"] ;
5 -> 7 ;
8 [label="gini = 0.4983\nsamples = 1276\nvalue = [ 0.09196461  0.10340241]", shape="box"] ;
2 -> 8 ;
9 [label="dR_tau1_tau2 <= 1.7802\ngini = 0.496235632965\nsamples = 6822", shape="box"] ;
1 -> 9 ;
10 [label="gini = 0.4843\nsamples = 4355\nvalue = [ 0.0585017   0.08371183]", shape="box"] ;
9 -> 10 ;
11 [label="gini = 0.4999\nsamples = 2467\nvalue = [ 0.08840985  0.09111654]", shape="box"] ;
9 -> 11 ;
12 [label="gini = 0.4932\nsamples = 632\nvalue = [ 0.05822107  0.04606989]", shape="box"] ;
0 -> 12 ;
}